solver_type L2R_L2LOSS_SVR_DUAL
nr_class 2
nr_feature 75700
bias -1
w
-0.360440876293788 
-0.03315259224813413 
-0.04079514312374698 
-0.06962158869917924 
0.1635634903374766 
-0.009467024840961007 
0.03698796551477373 
0.1203351502067258 
0.03043025761568427 
0.01205297682396713 
0.009602630781784293 
0.03687075096575359 
-0.04909162566621271 
-0.09946444140511553 
-0.006184059500993416 
-0.151667886449634 
0.1122941545606709 
0.1169145704079465 
0.01528546220939936 
0.2190278803475415 
-0.1696804235716311 
0.00924760893469787 
-0.0523765088423668 
0.08511762102188938 
-0.01354738552846642 
0.03224443496598677 
0.1578107956805725 
-0.02222000432536372 
0.04420044725369795 
-0.02405348611173493 
0.03002137491179545 
0.03593449770297397 
-0.1414289337809417 
0.05784033850532233 
-0.01835894017858835 
0.001620548238965238 
-0.08582059274511356 
-0.1396447867042413 
-0.2961578643392463 
0.001620548238965238 
-0.08582059274511356 
0.08689598668046529 
0.01734856509961154 
0.08689598668046529 
-0.3637892827783844 
-0.01130488642157635 
-0.03242186091561617 
-0.2430213362254241 
-0.0004699493503242139 
-0.08406266842616522 
-0.3520263163792633 
0.00663535310820323 
-0.02071118966812988 
0.09427911599145788 
0.04926544124109233 
-0.03242186091561617 
-0.3320036291834298 
-0.1754034353428724 
0.04297764286048985 
0.04297764286048985 
-0.2955451872570818 
-0.1399071245381764 
-0.1670568672360052 
0.02573078241761934 
-0.1217589385161538 
0.04052137217342283 
0.06046302112821442 
-8.913493899428363e-05 
0.04052137217342283 
0.06046302112821442 
0.08337211885769882 
-0.07606390181681419 
-0.06367925657117263 
0.01408076450467267 
0.007509770494451996 
-0.03275424134718185 
-0.06258597427052659 
0.01212000203668329 
0.009974337362060484 
-0.03081140747296901 
0.03822895706154338 
0.04174851400357742 
0.06032365036537088 
0.08526078686618149 
0.04952313562685717 
0.04174851400357742 
-0.002318691012935853 
0.05758359951068862 
0.04174851400357742 
0.04174851400357742 
0.04174851400357742 
-0.09110814937685907 
-0.06474435001546225 
-0.004347485799674284 
0.07765293389505208 
0.171969042699702 
-0.006056211182906498 
-0.2705453984983186 
-0.01328882370394208 
-0.1113128844282466 
-0.0264243579646776 
-0.1732092532741263 
0.05797949552972714 
0.06038354617479259 
0.05080405860784643 
0.1729829684373989 
0.06196700420000792 
0.006703663477804412 
-0.007903362278360762 
0.0463491180694377 
-0.007903362278360762 
-0.04603892309675221 
-0.08511589368140396 
-0.07712198579402563 
-0.02445423288088206 
-0.07028051762557964 
-0.0506746442563327 
-0.5856647676741421 
-0.04603892309675221 
-0.08511589368140396 
-0.2331025583706012 
0.08972709131609666 
0.06038354617479259 
0.01993393921167462 
0.1573119560566233 
-0.2463338196204268 
0.06933841721651883 
0.1271107255247506 
-0.006342960492504045 
0.03906487367424274 
-0.01777943022970318 
-0.1951935049331306 
0.09403304139460128 
-0.5720669434778562 
-0.118248501829813 
-0.08486024822404419 
-0.08486024822404419 
-0.04848015172862583 
0.1976053948608772 
-0.08191028387710429 
-0.06963496851670112 
0.02291233244683843 
-0.1559314333065225 
-0.03524513914849565 
0.01233094489460839 
-0.1056774497917972 
-0.01111620983213319 
-0.1653234956199345 
0.02256393217848227 
-0.04019399920733828 
-0.02319486090817079 
0.02256393217848227 
-0.04019399920733828 
-0.2364454135352738 
-0.05563100448532122 
0.07739820540886824 
-0.323338701496908 
0.1723802803537682 
-0.0381818143713569 
-0.04180027614280309 
-0.0264653343410271 
0.01137020353379584 
-0.06157706932944912 
-0.04530447411664272 
-0.06101182265062053 
-0.007042333506728509 
-0.0324424844789096 
-0.006663403554614823 
-0.3552179843297939 
-0.06157706932944912 
-0.04530447411664272 
-0.07659658152531115 
0.01379080687631236 
0.01379080687631236 
-0.0515898455058291 
-0.12405139338989 
0.0157170325871709 
-0.04366486264958287 
-0.08015165443185242 
-0.04366486264958287 
-0.1726880264246617 
-0.03165049580551696 
0.1178464722251302 
0.1240863184881301 
-0.03165049580551696 
0.04244935605445418 
-0.04366486264958287 
0.06088714864376964 
-0.03165049580551696 
-0.03477769022480273 
-0.03165049580551696 
-0.1144310618415347 
-0.03165049580551696 
-0.01885250481051644 
-0.1276876034225712 
-0.03165049580551696 
0.07527571485427469 
-0.03797412079860903 
0.006012056741965362 
-0.02919281043440145 
-0.3178488157204399 
-0.1226633577567761 
-0.02919281043440145 
-0.3961270001355334 
-0.1342803771150362 
-0.03797412079860903 
-0.6398874947912182 
-0.12405139338989 
0.0157170325871709 
0.04260134067019469 
-0.1932785130347932 
-0.03734526398246792 
0.1177556993339981 
-0.0661506419973963 
-0.05565976309013534 
-0.05862162730985335 
-0.1404788704032235 
0.03293902468404453 
0.03293902468404453 
0.03293902468404453 
-0.1618553642706733 
-0.02187863613993074 
0.03293902468404453 
0.0783769645597969 
0.03293902468404453 
0.03293902468404453 
0.04950406683933085 
0.08658357677968517 
-0.1618553642706733 
-0.02187863613993074 
-0.1803615521556319 
-0.03955581221030414 
0.03293902468404453 
-0.3450266659128756 
-0.1803615521556319 
-0.03955581221030414 
-0.06740572124918176 
-0.01044543363035773 
-0.00806163582486823 
-0.04486406468395382 
-0.01916473129111465 
-0.1515558076317364 
0.05669096550279414 
0.06997828135002081 
-0.007641234317642813 
-0.03657651217734895 
-0.007641234317642813 
-0.04411667756819967 
-0.07894605500449448 
-0.04946654203481114 
0.06997828135002081 
0.05669096550279414 
0.06997828135002081 
-0.09813745718087695 
0.004898707579325061 
0.05669096550279414 
-0.2421527961366779 
-0.09813745718087695 
0.004898707579325061 
-0.3014313577727976 
-0.09813745718087695 
0.004898707579325061 
-0.03657651217734895 
-0.03538552417476115 
0.01741364296795598 
-0.0001900279270424972 
0.01741364296795598 
-0.01547957331592737 
-0.1034742470397592 
0.01838058021857028 
0.06352819128281045 
0.01838058021857028 
0.02071096995572558 
-0.07405396572138423 
0.01838058021857028 
-0.00897049939129313 
0.08753330155325351 
0.05312921760008922 
0.06402263458659913 
-0.06098562864043484 
0.08051064021906508 
0.0445615332375409 
0.08051064021906508 
0.05564786384223859 
-0.06815826282088017 
0.005625497847025858 
-0.04454783343040206 
-0.07474923957748071 
0.01621897912551259 
-0.07939718327084855 
-0.3082272209044195 
-0.03784506210220601 
-0.08805305221199973 
-0.05951567888917061 
-0.08743132675666575 
0.01621897912551259 
-0.09688615154099584 
-0.05384766364229406 
0.06352819128281045 
-0.05384766364229406 
-0.05384766364229406 
-0.01394316942175896 
-0.1198352339781975 
0.1260871798010512 
-0.1686898409582898 
0.07202988793254456 
0.05092788165527571 
-0.05562432619197042 
-0.006545458806258836 
0.07593135230532036 
-0.09602048158496676 
-0.07037986512731759 
-0.01309091761251767 
0.1518627046106407 
0.001423176071028448 
0.02711831305484168 
0.05954585813360647 
-0.09503311983747445 
-0.0401579151392932 
-0.01266260890085502 
-0.0401579151392932 
0.1823019852669416 
0.107251449718342 
-0.006704152249166731 
0.054522528553404 
0.003415902831658584 
0.08575799606681903 
0.08841970682445098 
-0.1173406096257105 
-0.2816636132882702 
0.02937323897850619 
0.02937323897850619 
-0.04687501220631498 
0.1032546385859391 
-0.02120309105321456 
-0.04704421037664468 
-0.02120309105321456 
-0.09341202156622502 
-0.02120309105321456 
-0.1038154313517072 
0.04244866186263406 
0.05675254604127046 
0.1178399076413823 
-0.1888477238545247 
-0.03640383502445321 
-0.04460226818329144 
-0.09535565848417565 
0.008166733423790581 
-0.02120309105321456 
0.1032546385859391 
-0.03099876561525575 
0.03585873878228134 
0.03585873878228134 
-0.5081574788791129 
0.2480464777887991 
-0.1658939459713389 
-0.03586162896289879 
0.07448275366746358 
0.02268928012069667 
-0.001685890722372426 
0.01952693504152223 
0.1813546893646503 
0.01952693504152223 
0.01952693504152223 
0.09536653941080918 
0.01952693504152223 
-0.1185825638566296 
0.1485189360463753 
0.01952693504152223 
-0.3126157316311829 
0.07662584110073471 
-0.09002891281681713 
0.1380233880282007 
0.02995249829015768 
-0.02736367167525415 
0.2016912088619864 
0.1258273122100316 
-0.06164321058918257 
-0.01123705071636038 
0.0134679508192999 
0.05221099622662521 
0.01212557510984156 
-0.06164321058918257 
-0.6897537042127824 
0.07837415777015194 
0.1380233880282007 
-0.1143125309537537 
-0.2382491538069665 
-0.1732785447843639 
0.1499473588908523 
-0.01599545056787773 
-0.09867174054544704 
-0.00234680637122145 
0.1076766788318678 
0.06238569342410519 
0.0945248084514624 
-0.05831479132099145 
-0.05668705384762049 
0.09846141788975071 
0.0181511612845714 
0.1471276271673485 
0.08615287105871747 
0.08464275527739432 
0.1382556027980195 
0.08464275527739432 
0.04982381755270657 
0.0855826528895063 
0.02024017058261229 
0.251886817130047 
-0.02157898073516351 
0.08522477302935208 
0.1237827731153531 
-0.1557795263172325 
-0.06371990114853739 
-0.1103350829003269 
-0.0759420801700693 
0.006306528410668254 
-0.05870857782653648 
-0.1065664543706317 
0.1115605940938207 
-0.002028875720486983 
-0.0377607231370433 
0.1104529647125925 
-0.07081711294742322 
0.04594308480720216 
-0.2536830482027712 
0.07332995354441438 
0.02288754578517269 
0.1313735042604145 
0.02932670730188676 
0.02288754578517269 
-0.05710347820205074 
0.02288754578517269 
0.0154057987276023 
0.1166228054283883 
-0.04050184863134378 
0.02288754578517269 
-0.03818300868410512 
0.02735539053326432 
-0.03818300868410512 
0.01267092126220382 
-0.03818300868410512 
-0.1509777333131211 
-0.1509777333131211 
-0.08814799982799222 
-0.2871253020017704 
-0.1503594535657939 
-0.01541774262784369 
0.07389730379252858 
-0.04489851490759751 
-0.05305623914516581 
-0.002133073747928879 
0.0310592345606877 
-0.0810859676556476 
0.1433381187859021 
0.1198118554076295 
0.1433381187859021 
-0.1876860891568143 
0.1420000860005503 
0.1110655940816219 
0.07263882851078315 
0.01554526604249652 
0.03801813327340789 
0.1098763253507053 
-0.03446391569964193 
0.1414292220211379 
0.1168160768697844 
0.08756312257301585 
-0.03446391569964188 
-0.08443772318308079 
-0.0344639156996419 
-0.0344639156996419 
-0.0344639156996419 
0.03347531497416813 
-0.0344639156996419 
-0.1325119280633992 
0.0816166858455088 
0.03700431706450756 
-0.1392382949885237 
-0.0417312482962167 
-0.1219723077382327 
-0.1430454235638595 
-0.05770377983979591 
-0.2474859651277576 
-0.05012620325026665 
0.03785992164734397 
-0.001848646699783067 
-0.02964763066060962 
0.0006444463072533485 
-0.02368230453620435 
-0.008765656792184145 
-0.008765656792184145 
-0.008765656792184145 
0.003027604478035571 
-0.008765656792184145 
-0.2161193172214511 
-0.02186541235266132 
-0.008765656792184145 
-0.2161193172214511 
-0.02186541235266132 
-0.04570527051547575 
-0.04570527051547575 
-0.002207322503641176 
0.06716012529979437 
0.08450823932091217 
0.03881852998491515 
0.04925439095166939 
0.09808058829696399 
0.04925439095166939 
0.04925439095166939 
0.004612563462143837 
-0.007571795870247144 
0.09808058829696399 
0.01383769038643139 
-0.02271538761074153 
0.007038538459353283 
0.06720743531385935 
-0.1557177338924914 
0.06012641603431381 
-0.05433927700225107 
0.0171849932997412 
-0.06092355152113355 
-0.1289728326393542 
0.04451689679721789 
-0.2134419417366903 
-0.04290118306413956 
0.01058707870070605 
-0.02496045128198025 
-0.05433927700225107 
0.0598818642210344 
0.009769592772294866 
0.07831353178981458 
-0.05593386464495728 
-0.01592266962728783 
-0.05593386464495728 
-0.05593386464495728 
0.05821045365833805 
-0.05593386464495728 
-0.1442670526335434 
-0.05593386464495728 
-0.05593386464495728 
-0.1274393751351957 
0.01526748292632879 
-0.01775819837944391 
0.09082562636509776 
-0.06057951241490815 
-0.09331658497491982 
-0.09331658497491982 
-0.05081255570988256 
-0.1171825100046163 
-0.03582249157487172 
-0.03582249157487172 
-0.05081255570988256 
-0.05081255570988256 
-0.05081255570988256 
-0.05081255570988256 
-0.597047586497391 
-0.05616688960574173 
0.0443479348433658 
0.0443479348433658 
0.04120149999573856 
-0.0129172417278255 
0.006494942099533954 
-0.004176883875045242 
0.04120149999573856 
0.03074706683378458 
-0.004176883875045242 
-0.002102730960724784 
-0.004176883875045242 
-0.004176883875045242 
-0.02624186666005317 
0.006494942099533954 
-0.145754728413396 
-0.06944964949668278 
-0.07642942230413702 
0.00109113008296127 
-0.04289306879699063 
-0.1017931996987721 
0.01135122704888469 
0.004647232570224994 
-0.0271561586253382 
0.00651182336237901 
-0.0271561586253382 
-0.0271561586253382 
0.01302364672475802 
-0.05431231725067641 
0.06341108680142774 
-0.05010596800083132 
-0.0271561586253382 
-0.02927283889277377 
0.01135122704888469 
0.0259432245698638 
0.01135122704888469 
0.01135122704888469 
0.1964870124497922 
0.06758929474152767 
-0.01384874586408442 
-0.01384874586408443 
-0.0603661819216346 
-0.02927283889277377 
-0.01286521618545489 
0.006206902795325467 
-0.0271561586253382 
-0.08670389736416367 
-0.05758691957757924 
-0.05758691957757924 
-0.01993016146973309 
-0.01993016146973309 
-0.005517748751529785 
-0.1575460930550553 
-0.04277499476621325 
-0.04028691030819511 
-0.05143469922260172 
-0.04695410652762077 
0.05273434508266543 
0.09268668556143876 
0.05273434508266543 
-0.01895021518043684 
0.1042464727771962 
0.009841538612007832 
0.003489090021916044 
-0.02605116950319622 
-0.09240980633007094 
-0.02166992386902265 
-0.006834555658914667 
-0.02166992386902265 
0.02677846486539075 
-0.03909790802499537 
-0.02605116950319622 
-0.05718129040697495 
-0.05718129040697495 
-0.03562232746298107 
0.0399094317737098 
0.03035701755138061 
-0.04281164556300891 
-0.04226515715641547 
0.05395866951265147 
0.033135794022566 
0.0832432647342522 
0.033135794022566 
-0.2225446652430977 
0.3163439758748125 
-0.006505186752214105 
0.04526009823778422 
0.04580913832955923 
-0.06626027310194937 
0.04580913832955923 
-0.09029329795768742 
-0.03034413549710032 
-0.01717877475538137 
-0.01717877475538137 
-0.06979452908931134 
0.005627546710792463 
-0.01968177379815287 
-0.02675400618895578 
0.1363692267245127 
0.005627546710792463 
0.10801611502108 
-0.006415397566304166 
-0.01038272094876354 
-0.03174037041411357 
0.09332354849273596 
0.1593764893777968 
0.1806996573214887 
-0.008034595692535115 
0.04638004637369308 
-0.141500769403294 
-0.09868018534064506 
0.07707862353740731 
-0.09442396206157332 
-0.03835203129547397 
-0.1820225106811938 
-0.02529931095347747 
-0.04018692930034276 
-0.02031482117230667 
-0.03835203129547397 
-0.02031482117230667 
-0.02031482117230667 
-0.08092540654220245 
-0.08092540654220245 
0.05826501747478077 
-0.02341390901022649 
0 
-0.1476363494028578 
0 
-0.01503850549719353 
0 
0.07416890484048415 
0.05826501747478077 
-0.01503850549719353 
-0.1045199566739011 
0 
-0.1214601814757481 
-0.08827984215763078 
-0.1344480949467567 
-0.1385588124769287 
-0.1385588124769287 
-0.08093685804446718 
-0.08827984215763078 
0.04460895844359746 
0.1595060309615476 
0.1268775735740454 
0.06185496140676057 
0.154030571492171 
0.1476653189100194 
-0.3673953391512116 
0.01459714836522239 
0.06185496140676057 
0.05165113363497378 
0.05222003420246543 
0.03613812113435146 
0.05222003420246543 
-0.0007231875429528293 
0.03695954774092029 
0.05222003420246543 
-0.008685274681661572 
-0.0007231875429528293 
0.06478361980776381 
0.0188271193536469 
-0.04750913616082013 
-0.1347540943612464 
-0.2117874261861557 
-0.04750913616082013 
0.154030571492171 
-0.0383761186458543 
-0.0383761186458543 
0.06085937656452883 
0.06085937656452883 
0.05502535950534015 
-0.05543194161186008 
-0.005211840327980276 
-0.01053974208108849 
-0.1092689984447846 
-0.01053974208108849 
-0.00836327260078068 
-0.04934803743933323 
-0.0758549541659769 
-0.02541439023725119 
-0.1457490430429207 
-0.04373771242678805 
-0.04844093693392901 
-0.03030622928968894 
-0.02813578801225385 
-0.04844093693392901 
-0.04910838632752181 
-0.04910838632752181 
-0.04049479739657692 
0.05093926297792396 
-0.122749202542407 
-0.06339165091750615 
-0.03790275525342889 
-0.2202477796806991 
-0.06203573393424552 
0.07646014732498797 
-0.06194660599220315 
0.02886275910159371 
0.02066168571145833 
0.1236954300165865 
0.1160807115201677 
0.09515999469787915 
-0.07779141880720787 
0.02886275910159371 
0.05337844606736981 
-0.05910897281261374 
0.01886351328634307 
0.1285713401008995 
-0.0388209726321985 
-0.0388209726321985 
-0.01887683078937692 
0.002294373491551062 
-0.09987366620029137 
0.00557711802992275 
-0.008170826657057971 
-0.004536515809482228 
-0.01984592336831379 
0.03347229065959814 
-0.01984592336831379 
-0.01984592336831379 
0.07590731050122389 
-0.0290470555105867 
-0.0290470555105867 
-0.0290470555105867 
-0.1657447842770629 
-0.0290470555105867 
-0.391852626434634 
0.03455418579797234 
-0.01984592336831379 
-0.0261772661404424 
-0.01262359499194174 
-0.08713984375944592 
-0.08713984375944592 
-0.08085910983613517 
-0.09699670836174508 
-0.02556669633367536 
0.0561570809906295 
-0.007454571115070609 
0.01930070322059092 
0.009725313241838965 
0.05367252801354688 
-0.08085910983613517 
0.01930070322059092 
0.01889980712206814 
-0.007891921524139433 
0.01889980712206814 
0.2592289128990125 
0.0842422882092313 
0.1117012382913073 
0.08021755647131454 
0.0798667597638083 
-0.04177228934081314 
-0.02049123709074972 
0.15149583935777 
0.06200922848838931 
0.03673432072593046 
0.03564205713929013 
-0.0004487421814289802 
0.01764381382953424 
-0.0004487421814289802 
-0.09836795338382721 
-0.0004487421814289802 
-0.0241528360964418 
-0.05612712013734633 
0.001532734146783787 
0.09577100440797176 
-0.04744697664368903 
0.09577100440797176 
-0.1169627887278151 
0.04178180791401782 
-0.02781310468271663 
-0.5071512843015402 
0.06571135764008491 
0.005839773831013506 
0.005708827479428844 
-0.0008640765873624363 
-0.07067542379454364 
-0.0008640765873624363 
-0.02430240875575103 
0.005839773831013506 
0.03564205713929013 
-0.01707115355483093 
0.02887340050556123 
-0.1173721568902639 
0.06166654947853165 
0.1057804095075813 
0.1039726073434478 
0.1057804095075813 
-0.07888992858610384 
0.1057804095075813 
0.03302577389266786 
-0.04209298140486461 
-0.1427729952723012 
-0.04209298140486461 
-0.01588323445978667 
-0.05586810974942669 
0.02271769533925238 
-0.05586810974942669 
0.04543539067850477 
0.1062712325185319 
0.05859376970260687 
0.01096058876860899 
0.01728575274333322 
-0.02866759937018454 
0.06256408252689223 
-0.008496618300501581 
0.03237379186138831 
0.2883030476461728 
0.01079126395379613 
-0.2249389944048684 
0.2317407820820551 
-0.2707577387793645 
0.008590374724136682 
-0.02795337714617847 
-0.02932326301860096 
-0.02023293664609377 
0.002512229521667938 
0.008590374724136682 
-0.09713939338599863 
-0.0642832273718151 
0.06410028445179233 
-0.1036243524137697 
-0.1036243524137698 
-0.1036243524137698 
-0.2282046723788957 
-0.04556311864869485 
-0.1036243524137698 
-0.1874411489557604 
-0.1036243524137697 
-0.03183402204036256 
-0.01061134068012086 
0.02111278448541251 
0.02111278448541251 
0.05888831090749275 
-0.04093718716279463 
0.06647531206036791 
-0.0380768929957546 
0.03632622838950295 
-0.01736413393289763 
-0.1198639008039509 
0.05888831090749275 
-0.09275023985055385 
0.08749421915338916 
-0.0801451325282649 
0.02623155731704263 
0.0915790758924028 
-0.1500969272770742 
0.04885131182283944 
0.01443414678214318 
0.009004841943487956 
0.01443414678214318 
0.0450240967119835 
-0.0923298213633484 
0.05875390598313925 
0.009004841943487956 
0.0225621438156864 
-0.03136105720085448 
0.1888256998777798 
-0.07881421358905748 
0.1451614093334526 
-0.04996361125015623 
-0.1220295605303503 
-0.1152320602872568 
0.06764016180494874 
-0.001690330833039682 
-0.02392339714662624 
-0.02392339714662624 
0.0009845970125707572 
-0.04540227014115473 
-0.03819121267143664 
0.01863936323303459 
0.07702927525783582 
0.02155088871757022 
0.02469866901340063 
0.08631250412453352 
0.02317149260053857 
0.05285713811971342 
0.05008906614466169 
-0.08708838376416639 
0.05008906614466169 
-0.05614938087264191 
-0.09903768810545147 
-0.07384057009827753 
-0.08042636649259181 
-0.04890002314797928 
0.1243321512943008 
0.1457336037097847 
-0.09284738848141674 
-0.04890002314797928 
-0.09284738848141674 
0.04260797966568937 
-0.03808899238376616 
-0.01106182767827677 
0.04260797966568937 
-0.08179059855903681 
0.004246865009529191 
-0.02240910075296736 
0.007308694431790892 
0.007308694431790892 
-0.001032499462430736 
0.007308694431790892 
-0.1726027728767193 
0.04768551854478811 
0.003030527467101211 
0.04768551854478811 
-0.104463986443214 
0.03877891140548487 
0.007308694431790892 
-0.4815556878516104 
-0.104463986443214 
0.03877891140548487 
0.07715286386740519 
0.03635141154112029 
0.009866067689255428 
0.006478969035005104 
0.009866067689255428 
0.009866067689255428 
0.04360857890721863 
0.07363479446015882 
-0.06854043700852953 
0.009866067689255428 
-0.05253889555344211 
0.009866067689255428 
-0.01768494286787427 
-0.06275352025966836 
-0.07035890486433181 
-0.08322368245374029 
0.009866067689255428 
-0.07035890486433181 
0.06429339219432681 
-0.05253889555344211 
-0.1333282665194237 
0.1136883686807298 
0.04900148329124148 
-0.1518327829001843 
-0.01397065154340234 
-0.04526229729578664 
-0.03377697322615353 
0.03659144120665294 
-0.1004756563366836 
-0.0160679530913248 
-0.01214385710821348 
-0.007494347030312741 
-0.06608479168761856 
0.02987001672444385 
-0.1242252197509081 
-0.01453904769206195 
-0.1183581887378005 
0.05235732919828681 
-0.01092322983512977 
-0.01092322983512977 
-0.066351068964746 
-0.066351068964746 
-0.009039849211978869 
0.03139578305936595 
-0.04334810189160251 
-0.04154607698666431 
-0.0002965399605566132 
-0.06765003599743288 
-0.04334810189160251 
-0.02266257592575994 
0.07150225560171977 
0.05770739806497809 
0.0836650003813154 
0.02727179123463264 
0.0745502117470207 
-0.05319229568040507 
0.03139578305936595 
0.08588516716899523 
0.08588516716899523 
-0.06805274919121353 
0.01043114253635954 
-0.1437992771521923 
-0.007907214931799647 
0.13233465570287 
0.002171079209666784 
0.01939842860945719 
0.01846610015613223 
0.07024052818247734 
-0.007907214931799644 
0.003031964445769112 
-0.007907214931799644 
-0.003036793987119342 
-0.002887932601129234 
-0.03421253199549182 
0.06424243037928787 
0.02956979479849882 
0.02324611942151733 
0.003031964445769112 
0.01043114253635954 
-0.04539467792542494 
-0.05840362492710493 
-0.05840362492710493 
0.05147251232337044 
-0.05840362492710493 
0.2615325731101636 
0.03674306779190759 
0.1411890668136687 
0.01413216060879828 
0.01432518270292471 
0.0003470716793973489 
0.04112897465504695 
0.08507490813541101 
-0.0209552408902922 
0.0313546046019699 
-0.06518384013993275 
0.0313546046019699 
-0.07958053958409937 
-0.05236629352895802 
-0.05236629352895802 
-0.05236629352895802 
-0.07958053958409937 
-0.07036783649428864 
-0.1091040144429608 
-0.06584803241973125 
0.1076198508983394 
0.1296271132017072 
-0.1106117854773336 
-0.06242646545340168 
-0.00954777377721156 
-0.009073681178416674 
0.0433585138987914 
-0.05155487443184511 
-0.005070774513984795 
0.08849596251022299 
-0.06029124271404455 
0.06783014902224936 
-0.04654979591914143 
-0.06776780876081287 
0.09785034880316966 
-0.09344088600247266 
0.0295307713791579 
0.1220623587153671 
0.2049096239783218 
0.050951115081207 
-0.01500125142322335 
0.03387574273835528 
0.03563388367550765 
-0.02243876414801485 
0.01033680079202461 
0.01249155027946509 
-0.0247615704596981 
-0.08684904528373447 
-0.009001105197665131 
0.07064935503136713 
0.07599399486073831 
0.01809918481394979 
-0.04787975509446107 
-0.08561202242058223 
0.1110931700377763 
0.1172764330094501 
0.06625668958805382 
-0.01389945210139912 
0.01184698572094607 
-0.01389945210139912 
-0.09835430288150498 
-0.007127993578773605 
-0.007127993578773605 
0.05461874691912212 
0.01442309685667935 
-0.0440913441844269 
-0.04389306026549602 
-0.07023761846132801 
0.05441881182978214 
-0.1424812449017075 
-0.03033689214804319 
-0.03509418110159624 
-0.1120524703389283 
0.07944216837037578 
-0.02457347151542603 
-0.0853908121257794 
-0.04426713929933339 
0.1229109345946247 
-0.03033689214804319 
0.1229109345946247 
-0.03033689214804319 
-0.1506577451455637 
-0.03033689214804319 
-0.03033689214804319 
0.02253355942695439 
-0.04414568266099651 
0.05000130211673399 
0.04491592817435942 
-0.03934112504195475 
-0.03934112504195475 
-0.03934112504195475 
-0.03934112504195475 
-0.03934112504195475 
0.04491592817435942 
0.02578697297789994 
-0.001081629099502065 
-0.001081629099502065 
-0.001081629099502065 
-0.001081629099502065 
-0.001081629099502065 
-0.1334034691713348 
-0.1334034691713348 
-0.01687849136316217 
0.1146819753746414 
-0.01687849136316217 
0.1361073165796826 
0.1996445523024717 
0.06559006285287083 
-0.04467017972333043 
-0.1090260240550942 
-0.01687849136316217 
0.08346822047914662 
0.2155988031055576 
0.02550687594883015 
-0.05201388835154678 
0.05471264464576532 
0.01474488482833277 
-0.063195035444572 
-0.01657161288330337 
-0.09179974596495011 
-0.006445651644853362 
-0.09179974596495011 
-0.02491423304387596 
0.0561588930272375 
0.03120457094472422 
0.006117895590315682 
-0.088967262168632 
0.03404190723114202 
0.003833422722731142 
0.03404190723114202 
-0.05258264164872482 
0.03404190723114202 
-0.008592409421112182 
0.003833422722731142 
-0.02577722826333656 
-0.01416073100512086 
0.06232348412048137 
-0.05583002669762857 
-0.06468444507471199 
-0.2088005668202108 
-0.1198859192785397 
-0.2594907234490379 
0.266621767023285 
-0.1823037526208422 
-0.03516204711788468 
-0.02888357464175687 
-0.03516204711788468 
0.02209379753747668 
-0.02034996761393652 
-0.02882712417416482 
0.03525292687993232 
-0.01460656233967729 
0.03525292687993232 
-0.06362127100333044 
-0.08535920069033123 
-0.08535920069033123 
-0.06362127100333044 
-0.06362127100333044 
-0.01460656233967729 
0.0323508356782265 
0.01578420873692511 
-0.02423321648229683 
-0.0016442923313177 
0.03275830294997559 
0.04459969762137293 
-0.04673112334002064 
0.08483446682209493 
-0.004303126466585187 
0.05635246031723332 
0.04235684311842187 
0.05635246031723332 
-0.003430845909957831 
-0.07569795283529683 
0.03165472649290748 
-0.1183557440133001 
-0.07328970614294837 
-0.08819520869859619 
-0.06266764599990678 
-0.05352833334366143 
-0.03133382299995339 
-0.1294829229036042 
0.1649348727388178 
-0.0306355293143846 
0.1649348727388178 
0.09344944708845457 
-0.07119984650382842 
-0.7346133600766758 
-0.2928585092453752 
0.09344944708845457 
0.02031701694275693 
0.0409811827906538 
0.0204905913953269 
0.01018413104500911 
0.1060255749674762 
0.08704412154300527 
-0.08552976334439423 
0.06046616948202877 
-0.08552976334439423 
-0.1318948847362933 
-0.08552976334439423 
0.189453360135809 
0.1272159197622581 
-0.09516848716860964 
0.1399116887727492 
0.1716936256888716 
-0.1096452065133854 
0.03127653516108302 
0.1563800776120797 
0.0872033038165403 
-0.02075426286902254 
-0.02955098078510527 
-0.02075426286902254 
0.05736168848704003 
0.1847501049826993 
0.06291500915689308 
0.1319934272860728 
0.01070909755324361 
-0.02570212163875354 
0.05452582371679588 
-0.1142907471197909 
-0.1398266757410186 
-0.03930337924106763 
-0.02515429878812393 
0.08220301693555009 
-0.1972272192539192 
-0.05907126709674747 
-0.01422050674519386 
0.01779471926444151 
0.04388560475203877 
0.04674177147081544 
0.008753961130359197 
0.0002338462032477617 
0.0672317202175312 
-0.08087360057207485 
-0.1146578417131386 
0.04337132563208514 
0.08531684968356842 
-0.004096667954336039 
-0.004096667954336039 
-0.02338793393826304 
-0.08256259111024952 
0.02442479260625662 
-0.0531147855806865 
0.07989280251771665 
0.01764651869055392 
0.02101208004221153 
-0.001655543711666982 
0.02101208004221153 
0.1133275316978698 
0.1036348508287581 
-0.09222995457449534 
-0.09859482681743292 
-0.07262873638199173 
-0.09859482681743292 
-0.08654971990787939 
-0.004090211969449266 
0.003352507710738785 
-0.05885742737521477 
-0.05885742737521477 
-0.004090211969449266 
-6.23416249179165e-19 
-0.01336211988947248 
-0.01919136876058369 
-6.23416249179165e-19 
-6.23416249179165e-19 
0 
-0.003731427610110288 
0 
0 
0.008634825764336964 
0 
0 
0.03498218361224403 
0 
0.09294653509002775 
0 
-0.06054977665586641 
-0.00301696371842779 
-0.003689148385396523 
0.004410923640760071 
-0.1837962950295703 
-0.06054977665586641 
0.01551693576941606 
0.09110177554277249 
0.01861821877419653 
0.0917905058863015 
-0.001336579094338029 
-0.02338348100042543 
-0.08344242273202344 
-0.07458618348149178 
-0.04907046788308675 
0.05700978456643384 
-0.2092525249259758 
-0.03940593524492669 
0.04719671338496385 
0.07797349436416914 
-0.08605799971564232 
-0.02338348100042543 
0.01349088873285669 
0.1144356614303707 
-0.1216840982942069 
-0.02699375558948768 
-0.1646944392516942 
-0.152193937939457 
-0.0301965777658802 
-0.04845511468072992 
0.0556418304274628 
0.03237673430088325 
-0.1072525882026215 
-0.04971803359523506 
-0.2569915549186733 
0.01083314075142076 
-0.04935563124860425 
-0.01436818715842113 
0.004008380171634982 
0.09107537306053394 
-0.2778305468763009 
0.005254295272474744 
-0.2045560893263008 
-0.1458175920690695 
0.0460360423220072 
-0.1458175920690695 
-0.1458175920690695 
-0.01926437719249762 
-0.01567018659500765 
-0.07998278102893991 
-0.005116159898261138 
-0.07998278102893991 
-0.07998278102893991 
-0.009211876917950284 
-0.01567018659500765 
-0.0146461317771262 
0.04639609124739937 
-0.05686769584569346 
0.0653430045657326 
0.09917784055989529 
0.1306860091314652 
-0.01172938995866149 
0.07413848851893273 
-0.0457477207256433 
-0.07530381223119179 
0.1170621296462903 
-0.04039683378488518 
-0.05982693093672097 
0.05913307520580086 
0.008145558363651431 
0.02791220144086028 
0.03489613561987093 
0.07566237970407612 
0.2611219677352286 
-0.07275605172094828 
-0.11657654126602 
-0.0845491747763734 
-0.02767068598673259 
-0.1069942832309879 
0.01835350116949636 
-0.1069942832309879 
0.05706094465084379 
0.05430382677711059 
-0.02767068598673259 
-0.1276748254000499 
0.07762761509737853 
-0.07447062830205142 
0.02942296633771238 
0.03665478080208593 
-0.03021516853063676 
-0.06315070296263478 
0.009681060019367511 
0.01481815629019972 
0.009681060019367511 
-0.1818186700673607 
-0.05245287550209787 
-0.09781704591709822 
-0.0186051102698222 
-0.05460399381967973 
-0.05245287550209786 
-0.04295287841513466 
0.042000159926562 
-0.0005924707029848761 
0.07011171074362101 
0.0929427020189373 
0.05696311221751182 
-0.2140965944499846 
0.1249602061862014 
-0.01532057836816791 
-0.008339273000545379 
0.1534002365277739 
-0.1561678156078299 
0.03460317035954634 
0.000376276198339299 
-0.01125852083470917 
0.008969603243122432 
-0.02949622536215882 
0.0118564867754442 
-0.02949622536215882 
-0.02949622536215882 
-0.0002493830030741192 
-0.04759657875460143 
0.008969603243122432 
-0.01233364572635356 
-0.02349609338142806 
-0.2504681706182307 
0.01982085789268453 
0.01982085789268453 
0.05183413892671711 
0.05183413892671711 
-0.0421593447885226 
0.08342530929568784 
-0.0235472774224554 
-0.01359660844267018 
0.03695277423226803 
0.1406925936315079 
-0.1546053286782997 
0.04807714074106761 
-0.03243926239647961 
-0.01273514403675811 
-0.03411259384273685 
-0.09306071110545291 
-0.005886310984555787 
-0.01273514403675811 
-0.03954888077799378 
-0.03954888077799378 
-0.001962226600084209 
0.008361598143909479 
-0.06693985956058174 
0.01909702902982085 
-0.01985596017878452 
-0.06307732468474389 
-0.01985596017878452 
-0.2185113353054124 
-0.03562812190608292 
-0.001962226600084209 
-0.1023060973258082 
-0.004709378908701259 
-0.01822331359318619 
-0.02396661248456509 
-0.01822331359318619 
-0.04603623981393529 
0.01909702902982085 
0.03118322997499381 
0.01909702902982085 
-0.03542545481138179 
0.01909702902982085 
0.05703580669212871 
0.01909702902982085 
0.08323723255623389 
0.01909702902982085 
0.08323723255623389 
0.02329206461431257 
0.03496855908886501 
0.004140773299265686 
0.05040818593368224 
-0.03447060523039047 
-0.04912072488762183 
-0.04603623981393529 
-0.02396661248456509 
0.05538371648235502 
-0.00868589473606326 
0.3461191713688606 
-0.00434294736803163 
0.02488231058030918 
-0.09253862161472352 
0.02488231058030918 
0.06385589289039911 
0.03032060380872797 
0.02488231058030918 
0.06385589289039911 
0.03032060380872797 
-0.005813826156658131 
0.02488231058030918 
0.02488231058030918 
0.03032226299712141 
-0.008566488500030051 
0.02488231058030918 
0.003916360616191184 
0.02488231058030918 
0.07967574931353019 
0.02488231058030918 
-0.09427590507588055 
0.01732587418940599 
-0.01562766672947413 
-0.03034286721642784 
-0.008049461581880184 
-0.02425652792223396 
0.002995671624876415 
-0.08355401688974808 
-0.08355401688974808 
-0.1508665135305159 
0.04204817445084987 
0.007973342401143162 
0.0477063247986809 
0.007973342401143162 
-0.01923034770067655 
0.05250278478633962 
0.002421617738737483 
-0.01086738569021576 
0.0009749211831566714 
-0.001207559982619472 
0.02149608998326189 
-0.06081065450534519 
0.02149608998326189 
0.02150941096940426 
0.05545252185396524 
0.09140214809702274 
0.05545252185396524 
0.002194010149056009 
-0.06884946210253105 
0.01932845603873473 
0.3286393787274569 
-0.03671682197110804 
-0.08271033991868394 
0.1807284010963224 
-0.04655586970485794 
0.020003330232169 
0.09066821271900348 
0.04580018780786958 
0.1598984863851858 
-0.04581362883622465 
-0.08363454786280061 
-0.08363454786280061 
-0.08643006271375264 
-0.01422801604565401 
-0.08643006271375264 
-0.03394498527468014 
0.1050900072577064 
0.1291665751190324 
0.07987248832881957 
0.1354001986526193 
0.01526044051868963 
0.02097837453618005 
0.006088484021662524 
-0.03139471263168944 
0.006088484021662524 
0.1020907458629842 
-0.1297938071618786 
-0.1297938071618786 
0.04901679507575205 
0.006088484021662524 
-0.05016279634167625 
-0.05016279634167625 
-0.02911144074390989 
0.04892544895297037 
0.04892544895297037 
0.05194174369658439 
0.04892544895297037 
0.07996616180652555 
0.04892544895297037 
0.04892544895297037 
0.07996616180652555 
0.04892544895297037 
-0.0687625249270175 
-0.05270420951620468 
-0.03307618976897449 
0.04731824345262584 
-0.03307618976897449 
-0.009724882616805602 
0.04731824345262584 
-0.009724882616805602 
-0.009724882616805602 
0.04731824345262584 
0.006838995071926977 
-0.07484476486933613 
0.01383230602855527 
0.1207740219545962 
0.1105546860373347 
0.02395469257342742 
0.01703157977476959 
0.004734193497675105 
-0.02783524327279108 
0.0375640933623812 
-0.00143923338543288 
0.04696454841610995 
-0.00143923338543288 
-0.02783524327279108 
-0.07122605378399592 
0.02523107202863729 
0.03633384117839797 
-0.08093467148073509 
0.1689775888754293 
-0.08093467148073506 
0.01107933135948497 
0.03118690676593164 
-0.03835761840793109 
0.03203442448621793 
-0.01181191530396595 
0.02606816791999318 
0.00830136756706489 
-0.0890902192980797 
-0.04961765742406467 
-0.02480882871203234 
-0.02480882871203234 
0.01050160721333107 
-0.008307324475121503 
0.010691774349492 
-0.02480882871203234 
-0.007906782963556555 
-0.01062146185289692 
-0.001839910689058138 
-0.02124292370579383 
-0.01811936871743628 
0.0110882489513914 
0.07127229519507018 
-0.0150599002041533 
0.01907211898078034 
0.01907211898078034 
-0.0150599002041533 
0.126988077835608 
-0.07835323989456355 
0.2362660619541175 
-0.02611774663152113 
0.003926518325576633 
-0.001488737684966778 
0.003926518325576633 
0.03373300551694329 
0.01849923455274243 
-0.02800619481222199 
-0.01279163723403354 
0.0472400196987749 
-0.06106842954371511 
0.02499540559394846 
0.2050650336995878 
-0.008584394922439334 
-0.009586062028335163 
-0.03534415551694006 
-0.08250257310755253 
-0.01104377435321768 
-0.01448523612259711 
0.01128495803973733 
-0.007727583563260829 
-0.009251161596324159 
-0.009251161596324159 
-0.009251161596324159 
-0.1610273517489755 
-0.04295351462328277 
-0.06383258926101099 
0.01574049159247873 
-0.0004487192939164738 
-0.03360832651042848 
-0.0004487192939164738 
-0.009542638564766542 
-0.1127839257839474 
-0.06383736691356956 
-0.045591823433278 
-0.04295351462328277 
-0.04300906089489907 
0.0166005557397427 
0.1544243805601647 
-0.005713184191263264 
-0.04867686905544494 
-0.02433843452772247 
-0.03460943265229827 
-0.04143719273165113 
-0.01488864265686813 
0.1002596423112098 
0.007884072641824613 
0.128796436640874 
0.007884072641824613 
-0.0961048358236342 
-0.1273299154669276 
-0.01656729341985626 
-0.05767408243197307 
-0.01656729341985626 
0.03319812589065058 
0.02625651174966524 
0.04391012576808672 
0.02625651174966524 
0.08596047530632769 
-0.04798777888030592 
0.002905325462512208 
0.0121126736762615 
0.02625651174966524 
0.05230308975385967 
0.1805609047591141 
0.0831164115448567 
0.07097745776705813 
0.06241843520996947 
0.1861781312277537 
0.07097745776705813 
-0.03521852818254041 
0.0445295451196454 
0.01454866737850692 
0.07097745776705813 
0.07097745776705813 
0.07097745776705813 
-0.2228308997872129 
0.1419549155341163 
0.07259481656713432 
0.0445295451196454 
0.07259481656713432 
0.07318146900483517 
0.07259481656713432 
-0.06193452659719446 
0.06333157682595131 
0.05420040798923959 
0.07817854665463607 
0.07514899983351112 
-0.03306950821556826 
0.00215066738159704 
0.006045184126214889 
-0.09280306831092358 
-0.1173779253312349 
-0.09584619297385329 
-0.09081054178747588 
0.02594632126971851 
-0.04830997356188602 
0.02594632126971851 
-0.05738946168998812 
-0.1173779253312349 
0.02206015595921965 
0.02355311068872381 
-0.03195576060673849 
-0.0205926075728007 
-0.06155787937412139 
0.04860694940438936 
-0.04377239362155519 
0.07640336346590398 
0.03118886746547112 
0.07956528702896136 
-0.019710990704513 
0.03326695002959696 
0.03582492229946854 
-0.02272882111549606 
0.07936953164412354 
-0.1014599752784085 
-0.08077761429285364 
-0.04902951800358266 
-0.1155143048870136 
0.05377410925587715 
0.05377410925587715 
-0.05219353869541282 
-0.1373857704421399 
-0.02646515941299909 
-0.1081574667952633 
-0.09960253022975285 
0.02488241169734252 
-0.09420140932755922 
0.01333790862577113 
0.04623070568972035 
0.01333790862577113 
-0.03743860100832981 
0.1055033800596571 
-0.0356009721396505 
0.08676997351995511 
-0.03727834561127177 
0.06046407958024073 
-0.03727834561127177 
-0.03727834561127177 
0.0549246451759258 
-0.0356009721396505 
-0.03727834561127177 
-0.03727834561127177 
-0.03727834561127177 
-0.03727834561127177 
0.01309759935070295 
-0.07223496047560705 
0.02714600490437752 
0.1183280576975985 
0.1078460514719216 
0.115871024668696 
0.08111772105079149 
-0.2951582341419928 
0.01572041002537593 
0.171749253271525 
-0.001723280951844007 
-0.09739489993411612 
-0.01958674488740552 
-0.1134564925675552 
-0.009857155831368895 
0.005634435341209933 
0.05280103722915118 
-0.01974000553214914 
-0.01393545901333051 
0.02464752077173854 
0.03938758141072762 
0.01307652159049 
0.05192528641153768 
0.05192528641153768 
0.03215339749911172 
0.05192528641153768 
-0.03233163986864711 
-0.1042892021901112 
-0.1319188232808083 
-0.1349852420385541 
0.06814657590057427 
-0.01802527824278715 
-0.1203371076466805 
-0.07280711444943798 
-0.1478101175375822 
0.04911650281850465 
-0.01520946831941062 
-0.08863057866717292 
0.08713995698155114 
0.06631416220112299 
0.06631416220112299 
-0.08975195503957849 
0.06039496886456605 
-0.1285426170309418 
-0.02499914666428422 
0.1003995996251159 
0.1543376411264026 
-0.01052169726373709 
0.217596895395258 
0.04988014644794098 
-0.0106424702200527 
-0.0765365419385285 
0.04530033467038243 
-0.1508819856050906 
-0.08693300782798566 
-0.09587484695865243 
-0.09587484695865243 
-0.06855088706683368 
-0.06916532220477586 
0.112449984097536 
0.1231585306689221 
0.08742395448153789 
0.01026657559902149 
0.03993390991854917 
0.03649048573374938 
0.06383334149345099 
0.00227619204693026 
-0.03406744819326164 
-0.006084435043028648 
-0.03406744819326164 
0.06338785314205098 
0.006179077414430678 
-0.0489972773658348 
-0.007585919260437215 
-0.03860292518968562 
0.1484455835627345 
0.07338130477912327 
-0.0489972773658348 
-0.0528708904849316 
-0.0528708904849316 
-0.1242961560148374 
0.086935436279092 
-0.06238057393265234 
0.1503406051823767 
-0.06238057393265234 
0.08458604835379657 
-0.06238057393265234 
-0.04399921513618778 
-0.06238057393265234 
-0.01042619615521045 
-0.06238057393265234 
-0.01042619615521045 
-0.1178115253166837 
-0.04399921513618778 
0.03858943473258131 
-0.06238057393265234 
0.03858943473258131 
-0.08081176076627133 
-0.03402404411452589 
-0.04965717920981019 
-0.08081176076627133 
-0.06970295320952724 
0.0854364141850904 
-0.02375134166589854 
0.1743725999641112 
-0.02375134166589854 
-0.1136998473946003 
0.0005973770159763244 
0.03267291242704758 
-0.08919343906169389 
-0.1414123292070934 
-0.08919343906169389 
0.03267291242704758 
0.1738518719938515 
0.01672100035835353 
0.1018061913705093 
-0.1421698965758124 
0.1018061913705093 
-0.1255737902231694 
0.07590644354555004 
0.08220091865202742 
0.1013878540620583 
0.1117768212287278 
0.1013878540620583 
-0.06528975707548842 
-0.05396061266632276 
0.1007270304360281 
-0.03787461965498545 
-0.0125445506993278 
0.08470723427458487 
0.06511016421511505 
0.05962773532818989 
-0.1304089926885111 
0.05962773532818989 
0.05005220678278614 
0.05962773532818989 
-0.02026053215181966 
0.05962773532818989 
0.04780912369482023 
0.09449214726585801 
0.04780912369482023 
0.04780912369482023 
-0.02555869440052189 
-0.02555869440052189 
-0.04140472369971336 
-0.06008359265395542 
-0.04370447338915632 
-0.0723238172962299 
0.07109695212995459 
-0.07584001806335459 
-0.07232381729622982 
0.03736710457349382 
-0.06137535067262204 
-0.09539808583307603 
-0.07722398370220344 
-0.07232381729622982 
-0.05416582169986964 
-0.07232381729622982 
-0.07232381729622982 
-0.122593049038538 
-0.006754853681002629 
0.06145380337396725 
-0.03887774340677933 
0.0350039746846787 
-0.09583854347911179 
-0.09583854347911179 
-0.0637304866535761 
0.06397168242578613 
0.1180671520473993 
0.06397168242578613 
0.1180671520473993 
-0.0637304866535761 
-0.03634786754936131 
0.01907834338712905 
0.02429684839976685 
0.08753320911840458 
0.05656492033860841 
0.03473733257489015 
0.03473733257489015 
0.07701583149348455 
0.03673788992465989 
0.006866881202995541 
0.1207791757133308 
0.05286589399686166 
0.01188209274315466 
0.05202205326754396 
0.06732134949023982 
-0.07560487842902257 
-0.009265736591996553 
-0.1282197739448703 
-0.04754502199130553 
-0.04196809595343708 
-0.04754502199130557 
-0.04196809595343708 
-0.02488647424449866 
-0.04754502199130557 
-0.09831728543031504 
-0.1288096927091401 
-0.04754502199130557 
0.3035933819431323 
-0.04754502199130557 
-0.01978412907484928 
-0.04754502199130557 
-0.01978412907484928 
0.06034270187381849 
0.1573079199663236 
0.05636581784731422 
-0.04824093224878566 
0.05636581784731422 
0.03119786463082106 
-0.02856445513937898 
0.07679951632142806 
0.03870187146179106 
0.05925177119191628 
-0.1490280643465079 
-0.03684174545856121 
-0.01395251992566217 
-0.06396361795302223 
0.02791277967291384 
0.02791277967291384 
0.07781600384083398 
-0.05216324056415972 
0.02849805672292769 
0.04217824136153268 
0.07781600384083398 
0.06124427920151604 
0.09526392453329822 
-0.04058158875787977 
0.1399894355121048 
0.08783761819464994 
0.05875613914307783 
0.1578409360866035 
0.06979352871582567 
0.04217824136153268 
-0.1163657107180318 
-0.1210202100665099 
-0.0107040821475469 
0.01268169389252642 
-0.02672362154270252 
0.03112177236188766 
0.01613192096199111 
0.02912319715703426 
0.004674642278609097 
-0.02120058362530341 
0.003324842359708117 
0.003747011289419489 
0.07759410323209251 
0.05389545592232925 
0.04238628659173038 
-0.0528690374998808 
-0.003901217471669527 
-0.04747133798884237 
-0.04256874425090934 
0.04877631529184283 
0.002436035454576835 
-0.02361033421109521 
-0.0280497761673113 
-0.05241132138851052 
-0.03488750348932731 
-0.05241132138851053 
-0.1423396505700361 
-0.05241132138851052 
-0.08619994157604093 
-0.1092930168697276 
-0.1230512263563883 
0.03335836492113131 
-0.01331844838122691 
0.01987701627084124 
-0.01264498114692526 
-0.06619115573509964 
0.03035378809039803 
0.06380717528764263 
-0.001204571149400911 
0.007070074913000365 
-0.001204571149400911 
-0.02201326120485558 
-0.02201326120485558 
0.0347238391697866 
-0.02201326120485558 
0.01592635717265725 
0.06380717528764254 
0.01592635717265725 
0.1048874412398484 
-0.02201326120485558 
0.07238154740088622 
-0.02201326120485558 
0.008725679923775589 
0.007070074913000367 
0.1227821300971065 
0.007070074913000367 
0.02239128725906932 
0.02239128725906932 
-0.01751369501448461 
-0.03923224355046021 
-0.01751369501448461 
-0.02774869431842387 
0.02122408337040005 
0.02339024521846273 
-0.09318528652662326 
0.08179843500075371 
0.01891350947348627 
-0.1643906959764853 
0.07578800157173161 
0.01891350947348627 
0.2084100971917048 
0.1780086002497938 
0.01324590646817288 
-0.04430656662826287 
-0.1230208046516883 
-0.07625656191255746 
-0.1230208046516883 
-0.07625656191255746 
0.01390623435122772 
0.03572071232754472 
0.01888727666085957 
0.03572071232754472 
-0.04806374439230539 
0 
-0.07700378810768978 
0 
0.01705080735911105 
-0.005543896862998925 
0.02778500976649095 
0.01705080735911105 
0.02778500976649095 
-0.1250441104520323 
-0.005543896862998925 
0.02778500976649095 
0.01705080735911105 
-0.02318460846623249 
-0.03459228786153599 
-0.1521375126633456 
0.09362658698747597 
-0.01843850844042899 
0.2345282123966658 
-0.01843850844042899 
0.02442842310098192 
-0.1175066023638989 
0.02442842310098192 
-0.1265203399800064 
-0.1265203399800064 
0.03995259876534232 
0.04514802561059202 
0.0133041626646793 
-0.0570223650764813 
-0.04105159137755245 
0.006107638617126005 
0.2188640393756339 
0.02042424707583978 
-0.01306704528976228 
0.02042424707583978 
0.08208658422331369 
-0.04816916321025677 
0.02042424707583978 
-0.1969327578635134 
-0.1173518118491482 
0.02042424707583978 
-0.0224313152314085 
-0.05627330400260905 
0.07384998550867909 
-0.276293537767792 
0.09386624654222343 
0.01362479996617353 
-0.01299929235601993 
0.09386624654222343 
0.06665889805815904 
-0.07779362848808731 
-0.05816455748109449 
0.004386969645248082 
-0.04007381732486588 
0.06828497954746776 
-0.004761895763629964 
-0.006205097625178527 
-0.004761895658933703 
0.00430420751542434 
-0.003102548812589263 
-0.006205097625178527 
-0.07201837212437065 
-0.09681951437156343 
-0.09681951437156343 
-0.02062634256256469 
0.01719536816362201 
-0.01323101633291477 
0.01719536816362201 
0.03439073632724403 
-0.05132505305668773 
-0.0718469692175893 
0.1414075687776701 
0.1853902760193113 
-0.4676710084897518 
0.03386214317124049 
-0.04282292435916804 
0.02196184344076559 
-0.04282292435916804 
-0.04282292435916804 
-0.0327613806488774 
-0.08564584871833608 
0.0258946682255437 
0.03354261541540934 
-0.04282292435916804 
-0.03819921283550799 
-0.04282292435916804 
-0.04282292435916804 
-0.02076375751341774 
-0.1199300976233863 
-0.05623531840355236 
-0.1199300976233863 
0.07250113169930873 
-0.03893467262876808 
0.06362796128240213 
-0.0838358284365477 
0.06362796128240213 
0.03521412720056655 
-0.1199300976233863 
-0.04282292435916804 
0.1388185321601357 
-0.04282292435916804 
-0.03398819689333508 
-0.03398819689333508 
-0.1199300976233863 
0.0418310960139221 
0.1509401901158512 
0.05614271811376871 
0.1509401901158512 
0.07625665097004208 
0.0556107980410886 
0.1308262572595778 
0.05614271811376871 
0.02171716315764871 
0.04818529191315771 
0.037862365448681 
0.07001042338704168 
0.003462268695566447 
0.04818529191315771 
0.037862365448681 
-0.006568442832638351 
0.07001042338704168 
0.07001042338704168 
0.07001042338704168 
0.07001042338704168 
0.07001042338704168 
-0.07107852820866173 
0.07001042338704168 
-0.07610393141057965 
0.07001042338704168 
0.01627630458365394 
-0.07110379211089563 
-0.07610393141057965 
-0.1840534498709997 
-0.02206424299682649 
0.0385715507189041 
-0.179218334298515 
0.06206358316322558 
0.02813163737986489 
0.0385715507189041 
0.025263791355579 
-0.06903205598430569 
-0.1520725003682283 
-0.1726675092323614 
0.05036736624962183 
-0.03937352996294265 
0.05224177595421885 
-0.03937352996294265 
-0.006764090002685593 
-0.05220517754224226 
-0.2213698370375685 
0.009260249591950643 
0.009260249591950643 
0.07970698660728873 
-0.05930572600872547 
0.04559928911436358 
0.2018941995312029 
0.08676781369352464 
-0.01723129656119374 
-0.05053902303396534 
0.03706825833409174 
0.08724511354022869 
0.0006303487842189586 
0.006195693311153199 
0.08436474372581222 
-0.09385977988400312 
0.08436474372581222 
-0.1007662722485839 
-0.1750810552064143 
-0.1007662722485839 
0.04559928911436358 
0.0504966859309348 
0.01683222864364497 
-0.07354934238793479 
-0.07354934238793479 
0.007913555521419785 
0.05187760565901051 
-0.01388945264000217 
0.01038728504722571 
-0.05782596286437412 
0.007913555521419785 
-0.01048799270551069 
0.140231015220891 
-0.01048799270551069 
-0.04034223840101235 
0.08945672075111311 
-0.0657293301004559 
0.01498718580511762 
0.01498718580511762 
0.02079517641545185 
-0.0727650127412276 
0.02079517641545185 
-0.06939679838129038 
0.03855962109981621 
-0.04381825969281233 
-0.0727650127412276 
-0.04381825969281233 
-0.04381825969281233 
0.04448204404726835 
-0.03603717324955458 
0.002718478108163108 
0.006797500243093104 
0.04823689419731957 
0.09929883332639136 
0.07012879194548965 
-0.01638534717190357 
-0.01002528613033237 
-0.04565506692870672 
-0.02941450115301831 
-0.1647028903480854 
-0.02941450115301831 
-0.1084522168583344 
-0.1175785371406664 
-0.03295344672713679 
-0.1035431565949581 
-0.05721591291348025 
-0.1035431565949581 
0.05925396844714626 
-0.1040123653733962 
-0.05721591291348025 
-0.09205274268805033 
-0.05858568827274096 
0.04092371512134681 
0.02142819028012008 
-0.04538690953897939 
0.02175708541348818 
0.02124901470512989 
0.005664607914596274 
-0.04164040889309186 
-0.04164040889309186 
0.005664607914596274 
-0.09115737164371601 
0.2231093545606313 
0.06060374867950759 
0.0479989638325746 
-0.06362163331171063 
0.0479989638325746 
0.108313827923483 
0.1334904468989347 
0.0484510798367763 
0.02178905329482467 
0.04055808625467857 
0.09950817647336141 
-0.00396268759530263 
-0.03466666152410558 
-0.002756101468569482 
0.04055808625467857 
-0.002756101468569482 
-0.002756101468569482 
-0.1539914003261419 
-0.1841777101897353 
-0.09151432838815124 
-0.02501744502116811 
-0.09151432838815124 
-0.09151432838815124 
0.1367204491161701 
0.2188235921158 
0.07776371987482208 
-0.08794275314592734 
-0.05574260907004824 
-0.01723530896618767 
-0.03350223565286437 
0.02192587546899694 
-0.03350223565286437 
0.02192587546899694 
-0.08012555995771814 
-0.1067973637954067 
-0.1539914003261419 
-0.1067973637954067 
-0.1415788350545379 
-0.01088652380242898 
-0.01088652380242898 
-0.11845785115035 
-0.11845785115035 
-0.05407500495680229 
-0.02772603641922885 
-0.06724348398697008 
0.006494254250921914 
0.006494254250921914 
-0.03040971173072805 
-0.06785975095077709 
-0.08831841467528648 
0.08907399265044728 
-0.05438682475904381 
-0.08507735320697772 
0.02791533772240428 
-0.06766698183378819 
-0.06766698183378819 
-0.06766698183378819 
-0.06766698183378819 
-0.06766698183378819 
-0.06766698183378819 
-0.06766698183378819 
0.01086520639588998 
0.01086520639588998 
-0.4197145455617978 
-0.08715154177117235 
0.01086520639588998 
-0.05736768698258513 
-0.06766698183378819 
0.01491463912613163 
0.007457319563065813 
0.02773726943662987 
0.03200118135775467 
0.04519815747270616 
0.0624970756728332 
0.1798718504915553 
0.003677202112542154 
0.001400994481310243 
0.02367425319072475 
0.02255315588795522 
-0.008904107978616198 
0.1669086751228636 
0.1614931905929859 
-0.0717465962844234 
0.02524294691492678 
0.1669086751228636 
-0.08394624336257692 
-0.07712718791237294 
-0.1678924867251538 
-0.09080244662848319 
-0.09080244662848319 
-0.08394624336257692 
-0.008904107978616198 
0.0624970756728332 
-0.1102565038219936 
-0.004545564841063721 
-0.004545564841063721 
-0.04881578965978165 
-0.009091129682127441 
-0.06381636074301748 
-0.002634626972596199 
0.1088804964939316 
-0.08854956100691752 
0.03415354845528686 
0.002471008317931331 
0.07719560492678222 
0.06057121781320562 
0.04539539378410215 
-0.1775179988300858 
-0.01642615989853769 
-0.03589622858597053 
0.0799033171004529 
0.03999734178840666 
0.05450892268813084 
0.00264073171214438 
-0.05064857313502594 
-0.006132149561842713 
0.0169917497033509 
0.02211964739038133 
0.04582706956504109 
0.04582706956504109 
-0.07553366254633705 
-0.1355000323191945 
0.1286132841145129 
-0.02004025116940777 
0.006621384978067809 
-0.002924180503219046 
0.006621384978067809 
-0.002924180503219046 
-0.04670950380280905 
0.09339403317425687 
-0.06417816143629929 
-0.06864203780598381 
0.02484125855459286 
-0.03287218975151064 
-0.1248977051264763 
-0.002924180503219046 
-0.1248977051264763 
-0.05545388648453529 
-0.02772694324226765 
-0.1354319425317113 
0.09430187271139549 
0.136644066582493 
0.04859000201013319 
0.02774756002663558 
-0.01881070185317173 
-0.04460633337786457 
0.02907437273570247 
-0.02167369427321631 
0.02907437273570247 
0.02907437273570247 
-0.03769475970901187 
0.02907437273570247 
-0.002467675486930904 
0.02497244654491969 
0.04370329264619394 
-0.01187541764798591 
0.02907437273570247 
-0.02017044320229468 
-0.09050738925773071 
-0.08833720058150896 
-0.08171504803852067 
0.02907437273570247 
0.01494328453257003 
-0.08833720058150896 
0.04482985359771034 
-0.07322345547921449 
-0.06649778615154449 
-0.04006290718658172 
-0.06649778615154449 
-0.06719748575963934 
-0.03601685789331437 
-0.03601685789331437 
0.04542111970774292 
0.02930556451645755 
0.02332061410987993 
0.02909864389756646 
0.0937531460369338 
0.01483732238057741 
-0.03807368289345947 
-0.06698806378141497 
-0.0680712390319512 
-0.04865987341636687 
0.01294540897667055 
0.1017067612041256 
0.02311006833086909 
-0.006005465676584016 
0.02311006833086909 
0.008188139440362148 
0.02311006833086909 
0.04647228066419869 
-0.05599268070220222 
0.05020761148152682 
-0.0514328273691556 
-0.0514328273691556 
-0.0514328273691556 
-0.01946858189143985 
-0.05704800842808071 
0.1084541887716217 
0.04645989018515454 
0.01739435740900083 
0.1407627048659245 
-0.06320543415786364 
0.01739435740900083 
0.128809737615514 
0.007289981012659978 
0.01250315019752313 
-0.008147612397555695 
0.01235005752333256 
-0.07285661770785581 
-0.08374078237390412 
-0.04932351572549849 
0.0327956175242568 
0.134206155630169 
0.06428781906524335 
-0.04932351572549849 
-0.06748174643810363 
0.02474342189072258 
-0.1799750369331839 
-0.1799750369331839 
0.01635611555118948 
0.1072102272173955 
0.01697647303369684 
-0.03194375968073038 
-0.03857940969242362 
-0.03503600576452364 
0.02801337791584706 
-0.1166490470270381 
0.01080068271680393 
-0.01482694777292894 
-0.03175745203783927 
-0.03175745203783927 
0.04432062082864192 
-0.09122943992680622 
-0.02012609953942857 
0.04213345332850695 
0.09837172523340774 
0.1201245732814318 
-0.08228600882742379 
-0.07867429174265475 
-0.01837966898787997 
0.05681426855750907 
0.07850266615241651 
-0.01751111498770938 
-0.09701852277110558 
-0.1257800005448025 
-0.1173218925385807 
-0.04319905488917077 
-0.004220772525251967 
0.002689811792283085 
-0.004220772525251967 
0.02609829378023471 
-0.01072295629162333 
0.1526410726858357 
0.02830639345727122 
0.04474271060868202 
-0.0444420247326893 
0.002689811792283085 
-0.0444420247326893 
0.1213903914231079 
0.04475277408935264 
0.1424117489726265 
0.1145154753416685 
0.0003823898147677883 
-0.03531363891443848 
0.02045954005296765 
0.03913628142923451 
-0.006935451930397336 
-0.04580966738953561 
0.05997736912501925 
-0.0237849302077504 
-0.0237849302077504 
-0.0237849302077504 
-0.0237849302077504 
0.02666953518104802 
-0.0237849302077504 
-0.05501677110835546 
-0.0237849302077504 
-0.08745963484685608 
-0.002756059826793427 
-0.07992697420735831 
-0.002756059826793427 
0.07154665205015853 
-0.0237849302077504 
0.05175773221883009 
-0.01922038840451725 
0.1397258964058787 
0.03252837377471919 
0.1701902552713615 
0.08209827972256525 
0.06434138362961486 
0.09015900446376901 
0.08917790358410931 
-0.00562410698692101 
-0.03006062149918063 
-0.03006062149918063 
0.06955157664141028 
-0.03006062149918063 
-0.03683078338253587 
-0.01767577400524112 
-0.03969352194815409 
-0.1262412988880234 
-0.1872452747169691 
-0.06217509809570371 
-0.05278380708645191 
0.2216952250427398 
-0.00902281265103738 
0.09756765510086254 
0.001032316814565851 
-0.06217509809570371 
-0.05549982346467816 
-0.02902941238827734 
0.01044695514430406 
0.03492191512574627 
0.1327226770238231 
-0.01419677181501939 
0.06116224771210958 
0.1223369716736441 
-0.03113037710485331 
0.03631390831952058 
0.042925144126302 
-0.03113037710485331 
-0.1074108353427006 
0.002186986797850501 
-0.1074108353427006 
-0.1074108353427006 
0.1223369716736441 
-0.01419677181501939 
-0.1247924265920078 
-0.1810002828094866 
-0.05329007120951253 
0.01370829932036547 
-0.01736653182349802 
-0.01736653182349802 
0.09215146996512191 
0.02103165854306762 
-0.04011860337353616 
0.07528965815559922 
0.09933519946722065 
0.0766316248456147 
-0.1090143612972219 
0.07663162484561473 
-0.03624264207690771 
-0.01461768616062941 
-0.1241173253202306 
-0.1574270019579493 
0.0766316248456147 
-0.1090143612972219 
-0.0850021191249091 
-0.0850021191249091 
-0.08034299240119497 
-0.0963521617989343 
-0.08034299240119497 
-0.08034299240119497 
-0.08034299240119497 
0.03211132313814917 
-0.08034299240119497 
-0.0943633408490336 
0.04887940872583667 
-0.08034299240119497 
-0.04712772666990995 
0.001952951904392874 
-0.04012069728463353 
-0.02266099192239937 
-0.04712772666990995 
-0.0963521617989343 
0.1123641900537624 
0.0005335773280595851 
0.05542941128458743 
0.1322931182737779 
-0.01635967652639306 
-0.1527258487252383 
-0.01635967652639306 
0.117219976540625 
-0.04882349447686809 
-0.1527258487252383 
-0.03573509903456373 
-0.01489171295180454 
-0.1206765770213867 
-0.01489171295180454 
-0.01489171295180454 
-0.02896044275369027 
-0.01489171295180454 
-0.04119270427566755 
-0.01489171295180454 
-0.04119270427566755 
-0.01489171295180454 
-0.01489171295180454 
0.04146866369503661 
-0.08006484113535645 
0.01569820794674319 
-0.1154480519848799 
-0.117850423620983 
-0.117850423620983 
-0.05575103987143005 
-0.117850423620983 
-0.1325460826615958 
-0.1168595490116957 
-0.117850423620983 
-0.07790922778865073 
-0.117850423620983 
-0.1558184555773015 
-0.05539434363899595 
-0.1325460826615958 
-0.1503079774058574 
-0.1410220333440266 
-0.05575103987143005 
-0.1503079774058574 
-0.1410220333440266 
-0.03350106330701347 
-0.05575103987143005 
-0.05575103987143005 
0.0009445086069499913 
0.03194156688856314 
0.0009445086069499913 
0.03194156688856314 
0.0009445086069499913 
0.0009445086069499913 
0.001115642373158057 
-0.014517214416441 
0.0003221911137511672 
-0.0007697881304722084 
0.001115642373158057 
-0.02871556209194479 
-0.06829240456942241 
-0.0007697881304722084 
5.766753212976448e-05 
-0.1629985071658936 
5.766753212976448e-05 
0.04006895130539508 
-0.009089330030929179 
-0.02323699823094126 
-0.01086644987281216 
0.09257880652295389 
-0.04980404927074308 
-0.06764987946269795 
-0.04980404927074308 
0.0007517449667088145 
-0.1120211464863291 
0.04664429696146025 
0.1012939816904901 
0.01087510682389663 
0.1328264029556789 
0.01664619970871367 
0.08277496577408033 
0.07693309353509575 
-0.02025644741571049 
0.06598197480729825 
-0.02511844414414274 
-0.1715336798542234 
-0.00297962325237287 
-0.1715006993534703 
0.1022757046520657 
0.02688924890608994 
0.02305047747310542 
-0.03949815527463146 
0.1069492815230429 
-0.03261804679805819 
0.02151862432573426 
0.03986664798077264 
-0.01320974175616172 
0.03986664798077264 
0.01955030177029297 
-0.02519197075633412 
0.01955030177029297 
0.08902053837764227 
-0.04680868903852282 
0.03986664798077264 
-0.08928351624717597 
0.0128742007451389 
0.06768046409557057 
-0.07570655464567422 
0.03986664798077264 
0.02630169464545741 
0.03986664798077264 
0.02630169464545741 
0.01498386252773058 
0.03986664798077264 
0.01498386252773058 
0.08537075133718003 
-0.4010046816746169 
-0.1734682765335096 
0.01598641997345382 
0.01598641997345382 
0.008157422639640746 
0.04164174574727378 
0.0161219175497616 
-0.2694890855901674 
0.006270658215474338 
0.06066514828828362 
-0.02767231075023361 
-0.05355560170010115 
-0.03374873561923827 
0.08815078009289372 
-0.01444258561943199 
0.09984449392872281 
0.06547878136915716 
0.1996422065467164 
0.0497678898043187 
0.1439799538215678 
0.06544061047930082 
0.03826765437292207 
-0.1090280657206271 
0.01132278825890705 
-0.02184901813991372 
-0.02153923512843181 
-0.03199403381972332 
0.02266248459260406 
-0.03199403381972332 
-0.09146184797867569 
-0.03199403381972332 
-0.09697577867051053 
-0.06331524678506661 
-0.035124044097556 
-0.06038814919155126 
-0.03199403381972332 
0.1094119550723059 
0.1094119550723059 
-0.02206532572863304 
-0.06650835458645905 
0.0491171038769265 
-0.005909019412620129 
-5.871607405930643e-05 
0.02163988514122155 
-0.02088125624286341 
-0.05122798201165923 
0.04140127156589207 
0.06277961080563366 
-0.04352903539458314 
-0.02061124351165451 
-0.01037486721779936 
-0.06210017399843086 
0.02954641064183211 
-0.02260155901474007 
-0.0813951244669387 
-0.01973615855780307 
-0.1611544442191538 
-0.08057722210957688 
-0.1538832078020806 
-0.02015242163876792 
0.05587588930201026 
-0.05476389328484267 
-0.0883235649321395 
-0.01145523123190196 
-0.01153623273340354 
0.008507629149021265 
0.05565090573529013 
0.06333922503695745 
-0.007417348254520522 
0.008507629149021265 
0.06333922503695745 
-0.1576005176181065 
0.04041806245400496 
0.08907923947101608 
-0.06764500539564232 
-0.03796076174403945 
-0.03796076174403945 
-0.001747731713265773 
-0.07755183968244116 
-0.04666230093434766 
-0.1494501933634483 
0.1104151637273017 
-0.2264881874330462 
-0.04314653769481859 
-0.09438660250813626 
0.0481096802847563 
0.08404733320094999 
0.08321729804909231 
0.08711089985998191 
0.03476481698979664 
-0.05257820453650632 
0.02289626783348232 
0.04484811364848916 
-0.0008779677790228281 
-0.03170459386474753 
0.02483715649351706 
0.06979491132156232 
-0.04153757268772877 
0.1085393216194764 
-0.02391840610404902 
-0.05912092851911635 
-0.05994013063010363 
0.02484172954834031 
-0.005228722273612262 
-0.04722238403919968 
0.1950141523881515 
0.08885668692950084 
0.1880915948926692 
-0.2542771887675596 
0.08885668692950084 
-0.003285387250258123 
-0.07603339111564535 
0.3261245872818118 
0.04187578577586658 
0.3261245872818118 
-0.1482109104795425 
0.06674812262359726 
-0.003964022671606922 
-0.002928538141312489 
-0.02773296695865716 
0.02803320293496554 
0.008233004105478317 
0.02748776478648201 
-0.03545731850090607 
-0.002928538141312489 
0.0001753625255095629 
-0.03371976681545758 
0.0001753625255095629 
-0.03371976681545758 
-0.009397829707556061 
0.0001753625255095629 
-0.08517864466379514 
0.0001753625255095629 
-0.322291986333338 
-0.08517864466379514 
0.0001753625255095629 
0.09661612586781819 
0.0001753625255095629 
0.1932322517356364 
0.01403851776524863 
0.03490354099038886 
-0.07911914684293046 
-0.0384023731955906 
-0.06178605839719067 
-0.07911914684293046 
0.06541332791283617 
-0.08416562901016734 
0.02519023037849202 
0.0664771645970692 
-0.1870313156279941 
0.2229425260353058 
-0.02323799863991549 
-0.02202488326555533 
0.05445677666339536 
0.04348196639296534 
0.01235582311690259 
-0.08572280049920809 
-0.0315917737930986 
-0.07661316806270252 
-0.03993358538476307 
-0.09705350231939432 
0.02248558500067383 
-0.0296231122398011 
0.009700946355255959 
-0.0407672786560653 
-0.0296231122398011 
-0.0407672786560653 
-0.1462434609732728 
-0.0296231122398011 
-0.1453491343634318 
-0.02345048685289633 
-0.05879356545219822 
0.03994290876067804 
0.01931736030460523 
-0.01709991898016438 
0.06793312773012923 
0.1287104972840174 
0.04534309127413148 
0.001712957722390731 
0.06503649393863829 
0.09830669899321012 
0.1486659933805926 
-0.08095356475264587 
-0.04480049715929404 
-0.07000439124819524 
0.0697627367651629 
-0.0242316380661926 
0.0737806813341477 
-0.03239108259975306 
0.1996222208447478 
0.1047937869676486 
-0.1264433916198237 
0.1047937869676486 
0.1333015760233373 
-0.1271452653551799 
-0.09461144390906835 
0.1015616408831005 
-0.05256287540859994 
-0.02829145380776956 
-0.01547381346616843 
-0.07322706259463069 
-0.1055251872914765 
-0.1704459172036157 
-0.2371095045695731 
0.203929689379955 
-0.2068244412053858 
-0.1055251872914765 
-0.04603395306889307 
-0.02725870887830174 
-0.09534135031866893 
0.1800262885098663 
-0.001893124025284171 
-0.07027252339441711 
-0.005510600804028079 
0.1511289430051648 
-0.1834430981271553 
0.1252033317445024 
-0.04907830535201425 
-0.003838492235705379 
-0.04907830535201425 
0.01051737762492007 
0.08402219375236823 
0.08402219375236823 
0.01051737762492007 
0.05110620625169259 
-0.02606058165932473 
0.01953843387693228 
0.06864655779715786 
0.03907686775386456 
0.01953843387693228 
0.01953843387693228 
0.01953843387693228 
-0.01634373211115759 
-0.05415871679599275 
-0.08024283902569022 
-0.05415871679599275 
-0.08024283902569022 
-0.05415871679599275 
-0.101833077822395 
-0.06353576666001826 
-0.1515450183801844 
0.03364058444352409 
0.003137854831663085 
0.03364058444352409 
-0.08654680247470745 
-0.09428105141880752 
-0.03364200828351971 
0.02355240454897205 
-0.08654680247470745 
0.02788026498867351 
0.09034206083314046 
0.02016842938560721 
0.02016842938560721 
0.003294835613285684 
-0.03416420346739135 
-0.03312051059702604 
0.05988879788561029 
0.04987424237117431 
0.04589929653199327 
-0.02063387761598159 
0.1445154321806962 
0.09391053147224855 
-0.005132060884422641 
-0.03718601658128533 
0.01450398038208338 
-0.03718601658128533 
-0.1051901082301233 
-0.03718601658128533 
-0.1451368235691994 
-0.1056441589165059 
-0.03718601658128533 
-0.03718601658128533 
-0.03718601658128533 
-0.1023667364847146 
0.02921686873874293 
-0.08773183937016196 
0.0139392801103497 
0.06173308292280957 
-0.1514079164219437 
0.02015592734652941 
-0.1523664481125981 
0.08326648116095446 
-0.02121071954229718 
-0.02026254240670605 
-0.03157047993003311 
0.02015592734652941 
0.02015592734652941 
0.1246491557356355 
0.05788024062821537 
-0.1413074693003111 
0.05788024062821537 
-0.01783787633882449 
0.01820855645712615 
0.01182282783816346 
0.003102183772994725 
0.01820855645712615 
0.01182282783816346 
-0.01908870442604254 
0.01182282783816346 
0.03975424066133264 
-0.01908870442604254 
0.003102183772994725 
0.01182282783816346 
0.05258809965457888 
-0.02812624771401244 
0.0024150184914329 
0.0048300369828658 
0.01907111590895219 
0.01907111590895219 
-0.002544841011808481 
0.006255609049142546 
0.2754187789617066 
-0.04111358301647343 
-0.03420731976780606 
0.05330060364784989 
-0.09388403561391191 
0.007870138359846457 
0.07300564931014622 
-0.07596746095096107 
0.002005508439056903 
0.1026103392358309 
-0.01203261222409197 
-0.001885992781699492 
0.02973337141533924 
-0.07994889784493632 
-0.07578997363063721 
-0.07578997363063721 
-0.02291861729105835 
-0.07578997363063721 
-0.02291861729105835 
-0.02291861729105835 
0.06691407315516137 
0.04745521353043882 
0.04692431543466543 
0.06884498372507253 
0.06884498372507253 
-0.1909965403474645 
-0.006323222185982937 
-0.06543669021054205 
-0.09254862473795825 
0.06884498372507253 
0.167286813533564 
-0.09207518544283344 
-0.04603759272141672 
0.07993589856641248 
-0.09378500738170824 
-0.03021726316619731 
-0.03097145414929172 
0.06813507389748172 
0.09585595372309166 
0.02794698410118973 
0.02794698410118973 
0.02794698410118973 
-0.03933976437242246 
0.02794698410118973 
-0.003301003760320781 
-0.003301003760320781 
-0.003301003760320781 
-0.03106243457549301 
0.02794698410118973 
0.09426816350556361 
0.09659290147449452 
-0.1257005957584624 
-0.01119723355241019 
-0.1004722805240246 
-0.2563211662923423 
-0.09838471088437985 
0.04148502697982268 
-0.01424227336175818 
0.04148502697982268 
0.09962399849036987 
-0.1149812721521079 
-0.1149812721521079 
-0.05445591987728879 
-0.05445591987728879 
-0.06150021515431882 
0.001352402782644743 
-0.06150021515431882 
0.001352402782644743 
-0.07487838695035397 
-0.05445591987728879 
-0.02345340505192096 
-0.04831772739088183 
0.1805257254227673 
-0.06724226625304881 
-0.02218548328964274 
-0.01249164220033313 
-0.1608595760589185 
-0.05539137578155877 
-0.05539137578155877 
-0.2884115636161799 
-0.2884115636161799 
-0.05539137578155877 
-0.04074536917436977 
0.2585105609204144 
0.2185263504407966 
-0.01160152180761007 
0.02735324961664846 
0.005720915280074915 
0.009336590101941862 
-0.0337297601841685 
-0.06712885521124709 
-0.06712885521124709 
0.1508764364395098 
0.08315721512722726 
0.08668050788934165 
0.08897870442687864 
-0.02566527788507297 
0.007764576091329632 
-0.0272933393824266 
-0.03038641891954014 
0 
1.734723475976807e-18 
1.734723475976807e-18 
0.05569138718169173 
0 
-0.02663859105345528 
0 
0 
0.1615794280456684 
0.01456861607684386 
-0.008963914200208407 
0.2150502369708278 
0.05361886970270739 
0.04235778490815655 
-0.08104335635179505 
0.03778087865762247 
-0.04442304660726699 
0.1174173510147888 
-0.04442304660726699 
-0.008394943457477873 
1.734723475976807e-18 
-0.008394943457477873 
0.07482256386597287 
-0.0005982328566979398 
-0.0005982328566979398 
-0.0005982328566979398 
0.2965440798407876 
-0.0005982328566979398 
-0.07472814912404301 
0.06973573472160442 
-0.01909769070549596 
-0.0005982328566979398 
-0.01909769070549596 
-0.003789415339293662 
-0.1348215939067677 
-0.1042044766352883 
-0.01909769070549596 
-0.2034358212865235 
0.03918717562736778 
-0.01061834447420495 
0.03918717562736778 
-0.02995639663170311 
-0.07221987379894503 
-0.03611024917625292 
-0.06573063896999215 
-0.1636657928339592 
-0.03252927786713836 
0.006212299451923003 
-0.07170718575453293 
-9.355098920884239e-05 
-0.03820361759655298 
-9.355098920884239e-05 
-0.03820361759655298 
-0.004015058314389349 
0.001374423863950422 
0.02366482669764772 
0.02366482669764772 
-9.355098920884239e-05 
0.2587050733997619 
-9.355098920884239e-05 
-9.355098920884239e-05 
0.1331148219885128 
-9.355098920884239e-05 
0.1331148219885128 
0.03012330605183274 
-9.355098920884239e-05 
-0.1092721579846942 
0.03067563476160121 
0.01926239609666168 
0.006637190984696823 
-0.0312718890123074 
0.03305028518109984 
0.02005491367277956 
0.02142336274465292 
0.01525732323374624 
0.01159833251808583 
0.1258603775633159 
-0.03591967098712068 
-0.03591967098712068 
0.09411684997679222 
0.02854718491271591 
0.07862783480435703 
-0.03591967098712068 
-0.03591967098712068 
-0.1077590129613619 
0.05765213484611569 
0.2613031730307813 
-0.009264380902247306 
0.06536338770064344 
0.2032607769955587 
-0.2215722132630707 
-0.059900767799203 
-0.1432174453635711 
-0.04022972491079115 
-0.06810354876017366 
0.06955658758493348 
-0.09139684514541917 
-0.03361280927193484 
-0.1962145790311123 
-0.02854132199992687 
-0.03093977343083565 
-0.02854132199992687 
-0.08859398266443734 
-0.08859398266443734 
-0.06447508643471564 
-0.01430895782102033 
-0.1663987250970032 
0.008150666820537607 
-0.08129811098268444 
-0.01430895782102033 
-0.03754578289708573 
-0.004670185299427275 
-0.01637718411230922 
-0.2174972287219952 
-0.02466373953601394 
-0.02466373953601391 
-0.06447508643471564 
-0.05489413985712636 
0.1515360989550627 
0.1374037770847695 
-0.04486766634505095 
0.04421711409754855 
0.004048580090852012 
-0.04847892322315712 
0.1404290413656094 
0.1203787973984772 
-0.008047576512944299 
-0.009163206320174474 
0.08477330091235383 
0.05918826110406321 
-0.1423714533461249 
0.1828865571268722 
0.2195589278717109 
0.02279816831173488 
0.001495615356317783 
0.02279816831173489 
0.02279816831173489 
0.02279816831173489 
-0.2001485106506248 
0.02279816831173489 
-0.2001485106506247 
-0.09406719055114032 
0.1022265714189842 
-0.09136687230124452 
0.07508177623204883 
0.02279816831173488 
0.009314237559767985 
0.02448183458330511 
-0.02420090605611951 
0.08810789784290313 
-0.07318181987865222 
-0.020227658687105 
-0.020227658687105 
0.001495615356317783 
0.03313215193708804 
0.1095715224375265 
-0.08234806922317885 
0.003617157389106443 
0.09576005890503347 
0.02018897579706522 
-0.01648651928397694 
0.009807831047779112 
-0.06471845483761142 
-0.01157973165241476 
0.0777517713336907 
0.01855734545199194 
-0.0157389101763209 
0.01024679055648789 
0.001928898187815487 
-0.06345840665366001 
0.04330571877422969 
0.03551195895146372 
0.09701488473396401 
0.07440537234386214 
0.07280828677504052 
0.02799799714010041 
-0.1835614945082256 
-0.06519688516422141 
-0.08941480592878183 
0.006542682915448003 
-0.2005778740942517 
-0.2933338174379299 
-0.1111630681654699 
0.04330571877422969 
-0.04837728718565028 
-0.01530780310847373 
0.006627409957228743 
0.2727812479896166 
0.1576505005081454 
0.2727812479896166 
0.06393975978159916 
0.0162926317474247 
0.1417235345825927 
0.0162926317474247 
0.02210889803027921 
0.008925397701839498 
0.07566097152679055 
0.1452833037462455 
0.06393975978159916 
0.1306231868669543 
0.07436931506344149 
0.06393975978159916 
0.07436931506344149 
-0.04066520795882186 
0.03328553064576832 
0.02584146795215785 
0.1261522736764476 
0.05256942011972733 
0.1308644012969849 
0.02637468182091419 
0.1308644012969849 
0.1308644012969849 
-0.07600552685623464 
-0.01401675169922535 
-0.0654534638847942 
-0.2009439744705611 
-0.2176874468988629 
0.09096577712463721 
-0.1502633125039824 
-0.2739971245244479 
-0.146299194584626 
-0.07507613509267372 
-0.005014529557164917 
-0.05390609199963076 
-0.005014529557164917 
-0.05390609199963076 
-0.005014529557164917 
-0.03883045961152179 
-0.009699563959246153 
-0.03883045961152179 
-0.03883045961152179 
-0.03883045961152179 
-0.03883045961152179 
-0.003729149251445165 
-0.04438902068741599 
-0.022194510343708 
0.2993906929844103 
0.1778127710190012 
0.0142549435735757 
-0.009699563959246153 
-0.1335247332525311 
-0.07750866330962961 
-0.04974076571049743 
-0.04974076571049743 
-0.05338166715725533 
-0.05338166715725533 
-0.05338166715725533 
-0.05338166715725533 
-0.05338166715725533 
-0.05338166715725533 
-0.04974076571049743 
-0.05338166715725533 
-0.05338166715725533 
-0.05855033053541837 
0.02429376437133785 
0.01541773141140594 
-0.03690465735626017 
0.08746513087781743 
0.1915121431120711 
0.2774578893774554 
0.2594336364756379 
0.03897838932782898 
0.01373234108516605 
-0.07651049566698764 
0.02052108489962771 
0.01601420419061024 
-0.01941275781345791 
0.04310006046639502 
-0.09322816946328849 
-0.06709109907861503 
-0.01361066908230053 
-0.08083983011684198 
0.06469633206960809 
-0.05469080790363294 
-0.03651451130600996 
-0.0215488644525445 
0.02401410541957804 
-0.03651451130600996 
0.1963296614873863 
0.2422503886232888 
0.1369388351537012 
0.0367852707153803 
0.00976899265233212 
0.1997203336264873 
0.1269562128362295 
0.06347810641811476 
0.06347810641811476 
0.05797529529389846 
0.02874251923706007 
0.04003106303914111 
0.1078257712806407 
0.007655581765246462 
0.06966725529558522 
-0.01878398900825784 
0.1182962338579516 
-0.03981918014449599 
-0.03981918014449599 
-0.0295479272243475 
-0.03981918014449599 
0.2132631911947646 
-0.03981918014449599 
-0.03981918014449599 
-0.03981918014449599 
0.2132631911947646 
0.03433466416200622 
-0.03981918014449599 
0.03433466416200622 
0.03433466416200622 
0.1084268029108934 
0.01934209080878237 
0.01071079362511353 
0.1753107275332478 
0.1068218979623494 
0.1090394697449337 
-0.07499446200221375 
0.04701607541933595 
0.05015935337215862 
-0.09618980151495823 
0.05015935337215862 
0.05015935337215862 
0.006572904066791327 
0.05015935337215862 
0.006572904066791327 
0.006572904066791327 
0.006572904066791327 
0.05015935337215862 
-0.09819510222983804 
0.004176776879858936 
0.07921136463303816 
-0.1136795691458214 
-0.01798399918314205 
-0.07153363125791125 
-0.07153363125791125 
0.08712235573744267 
-0.07153363125791125 
-0.02750779311117847 
-0.07153363125791125 
-0.1036170036590468 
-0.05180850182952342 
0.0003598215656585543 
0.117067707827622 
0.0003598215656585543 
0.0003598215656585543 
0.0003598215656585543 
0.0003598215656585543 
0.0003598215656585543 
0.0003598215656585543 
0.0003598215656585543 
0.0003598215656585543 
0.0003598215656585543 
0.08543257527062441 
0.0003598215656585543 
0.09123142109401981 
0.0003598215656585543 
-0.1819635142283026 
0.0003598215656585543 
-0.1038854729626563 
-0.04661515741032973 
-0.02984424013634385 
-0.02984424013634385 
-0.1498037264205839 
-0.09797116470369244 
0.03120465139210575 
0.04255763983006226 
-0.05910290003001765 
0.009612215712417422 
0.03063418177546497 
0.03576035949001245 
-0.01305981857487012 
0.1257981294057047 
0.03576035949001245 
0.05158692521012687 
0.02413145116878655 
-0.07565131107290389 
0.03127096140958695 
-0.07910229011613204 
0.02503195839240483 
0.1182786923308587 
0.1487208504554874 
-0.01558148776820126 
0.04359443301489031 
0.0377635058859026 
0.08572644902045679 
0.07827871314447156 
0.09083475416000311 
-0.1367941244136586 
-0.01544184948015816 
-0.130123184895461 
-0.01544184948015816 
-0.01544184948015816 
0.03557165204602243 
0.09099841427636562 
0.09099841427636562 
0.01745746618566831 
0.04134317597807141 
-0.01864897152609884 
-0.1517006146172777 
-0.143203866926355 
-0.02002933802368988 
-0.1241560724240056 
-0.02002933802368988 
0.1197710293914426 
-0.07190982055357463 
-0.1191419426650252 
0.06224903321861502 
-0.03929582160414263 
-0.2687749964775192 
0.02553948685506035 
0.02911553400745316 
0.07343365739072794 
-0.02125162826181273 
0.1536000648319823 
-0.02125162826181273 
0.07618098451790373 
-0.0472990751250512 
0.01804996158201994 
-0.03427788490975098 
-0.06596046805320248 
-0.03427788490975098 
-0.03427788490975098 
-0.03550451830829492 
-0.03427788490975098 
-0.03427788490975098 
-0.03427788490975098 
-0.03427788490975098 
0.09126199921675437 
0.05480361230185148 
0.04516843173884557 
0.05631994744808173 
0.01067492536435428 
-0.02211195804092025 
-0.01495854033578538 
-0.01495854033578538 
0.01626614908915827 
0.1314555413244957 
0.0276095689890357 
0.0276095689890357 
-0.06626388378896889 
0.04675222374145981 
0.04660116845043412 
-0.1477395038878192 
-0.07985586359027354 
-0.07985586359027354 
-0.04231279188028058 
0.03072533113172994 
-0.07985586359027354 
-0.05156334152094531 
-0.07985586359027354 
-0.05156334152094531 
-0.03798979343745534 
-0.1506595337232235 
-0.06905929018355678 
-0.1077122268807095 
0.03072533113172994 
0.002259556232712729 
-0.04503206440849306 
-0.04714394393053946 
0.02103415775926779 
0.08387971544729655 
0.01987223461105246 
0.0002005634038725866 
-0.01941369430184898 
0.07103800115834459 
0.04186311904874229 
-0.14936406484908 
-0.1398815021519845 
-0.08280810014377384 
-0.08280810014377384 
-0.0449999677636611 
0.04124943392684565 
-0.0449999677636611 
-0.04333176260429972 
0.1008827974692501 
-0.03790001970687898 
-0.009506285917810454 
-0.06590835152030247 
0.0547930097504148 
-0.03790001970687898 
-0.07214702429340039 
0.0547930097504148 
0 
-0.08467915529967361 
-0.0400457874026542 
-0.03105804127288129 
-0.0418012958763074 
-0.08915550497267712 
-0.08915550497267712 
-0.0400457874026542 
0.1008827974692501 
-0.05600052926937963 
-0.03081915830371605 
-0.05109167824097744 
0.001934470486780668 
-0.05109167824097744 
-0.05109167824097744 
-0.1391111170390897 
-0.05109167824097744 
0.00916497668081084 
-0.1918407606399433 
-0.03003748847135676 
-0.1076587270678203 
-0.07595542482545535 
0.0404697565295415 
0.1607146573001084 
-0.1206608384628913 
-0.003390800852938399 
-0.007424048022720556 
-0.004997682078604972 
0.02919587817633508 
0.008768691920525665 
-0.07702327917239653 
0.1718322241686777 
0.0594230476669458 
0.03337031933856856 
0.2219502502686938 
0.05780087857975727 
0.1510856251426374 
0.1289481714279305 
-0.1602431255660426 
0.1029348090592679 
-0.006937033793885467 
0.02750403814425539 
0.001722260462370619 
0.01447418589979496 
0.01913404199100136 
-0.02287802175208422 
-0.02577803469384631 
-0.02287802175208422 
-0.04286271060323711 
-0.08022368756250073 
-0.04286271060323711 
-0.08022368756250073 
0.01913404199100136 
-0.06764453065078969 
-0.005982205711447022 
-0.03794776917798211 
0.01518022713549737 
0.01518022713549737 
0.1020521533997525 
0.04367414668826679 
0.01568434503239113 
-0.01774439993896549 
-0.008872199969482747 
0.02514916891099234 
0.06637882528969874 
0.009109780993867299 
0.04346597845774745 
0.07510972943032614 
0.1218310224373617 
0.03630447135543477 
0.04283089676595023 
-0.01131682029083924 
0.04283089676595023 
-0.04177747288735123 
-0.01131682029083924 
0.007546001708780076 
0.007546001708780076 
0.1025357613950907 
-0.001002197061722611 
0.1130466580484986 
-0.001002197061722611 
-0.0189263428194692 
-0.0189263428194692 
0.02195168155980966 
-0.02283559871024671 
0.006461572352275685 
0.006461572352275685 
-0.02283559871024671 
0.1284896689191615 
0.006461572352275685 
-0.09093610635074729 
0.02600751581306469 
-0.00719115938141225 
-0.007884465734222022 
0.06456946959756031 
-0.007884465734222022 
-0.007884465734222022 
-0.007884465734222022 
-0.05354615055791427 
-0.007884465734222022 
-0.04778973994794589 
0.06456946959756031 
-0.007884465734222022 
-0.09182505267246804 
-0.09182505267246804 
-0.1099802967579665 
-0.1791146045522065 
0.07829117957960488 
-0.03739736592727414 
0.05329722687745084 
0.007961409638364239 
0.06140081948656061 
0.1684170386989761 
-0.008264086867527819 
-0.09653140246184516 
0.03053676850216219 
0.02778095608524968 
-0.02422385024384441 
0.01486163254344036 
-0.07845152948040869 
0.1260889440008677 
0.01184539427804313 
0.06879930254069708 
-0.01000374104298461 
0.01863154512966462 
-0.09427465693821138 
0.001489563382939635 
0.04181883633713286 
0.02893831314732658 
0.0432747623056627 
0.01807366017293045 
0.0865495246113254 
-0.2150897465676007 
0.0786785214125667 
-0.007924792136813076 
0.1151059216546777 
-0.07999820112277226 
-0.07999820112277226 
-0.05951675180095376 
-0.02975837590047688 
0.1251254888291877 
0.1251254888291877 
-0.03709503345026394 
0.1217739137436861 
0.08454305189937246 
0.007094894973751172 
-0.003903181967399099 
-0.02975837590047688 
-0.003903181967399099 
-0.05608580784587643 
-0.03551148195830967 
-0.03551148195830967 
-0.1269266997033685 
-0.03551148195830967 
-0.0951757956307983 
-0.1652354603429451 
0.03713870685502493 
0.007111450664752761 
0.0003984634829993384 
0.007111450664752761 
0.03328256673027047 
-0.04974640896372361 
0.03328256673027047 
-0.03181582933251117 
-0.1151831448829545 
-0.1140106734767987 
-0.04974640896372361 
-0.04974640896372361 
-0.04974640896372361 
-0.2165799876512134 
-0.1565437428777485 
-0.02049089329019056 
0.03047459456552105 
0.05324681005037327 
0.03047459456552105 
-0.007719631870879162 
-0.2165799876512134 
-0.1193587740229227 
-0.02029728088141272 
-0.0697150863616537 
-0.03548418914075066 
0.002398320059368222 
-0.07248612905656812 
0.02269042862740831 
0.03840101615963431 
0.04799621771927359 
0.02269042862740831 
-0.03663810159583665 
-0.08587370570687694 
-0.009836989616381953 
0.02854596753656666 
-0.02852317603996508 
0.1641452475338439 
0.007449482097126244 
0.003724741048563122 
-0.2984086134208835 
0.2717850993125491 
-0.2932079117308796 
-0.02596419583121995 
0.1180332078851622 
-0.02605634106245303 
0.09848838725867487 
-0.005016541395658709 
0.01424352100872952 
0.0922107350452786 
0.01424352100872952 
0.0922107350452786 
-0.03262859132761495 
0.1038950801285919 
0.2158154486093818 
0.009486853331609008 
0.08407936069863811 
0.0331509815076256 
0.04664246658750898 
0.01040815716765905 
0.05587650380146833 
0.03054251295116388 
0.02367021396488114 
0.02367021396488114 
0.002280857362598254 
0.00914795176963548 
0.01788272867903454 
0.02367021396488114 
0.05996761757944035 
-0.09237476627019056 
-0.09237476627019056 
-0.1311463313245596 
0.08033212189601199 
-0.06267227994071028 
-0.1224864319297483 
-0.1696416723472023 
-0.08370400832579894 
-0.0006144351379421126 
0.007434090843723833 
-0.04375232808559869 
-0.07279243638550488 
-0.04375232808559869 
-0.0006144351379421126 
0.02636446887863617 
0.04187412512424429 
0.1415118649102823 
-0.01817816017382855 
-0.04394234413675819 
0.06444457917630822 
0.0659827598444145 
-0.05747304174505584 
0.05192704050240571 
-0.01009586455234145 
0.1028703158210331 
-0.01009586455234145 
-0.1623736067119506 
-0.1369223429741679 
0.0718841888638565 
0.04322305718743268 
0.005870196883127824 
0.006159925756545748 
0.04140577823017993 
0.01827532375142068 
-0.08176904128598406 
0.009237328624019766 
-0.1001597868795217 
-0.04536890119001234 
0.0444301945531214 
0.04384564389210629 
0.090143553130223 
0.009600744494816637 
0.090143553130223 
0.1747680846880708 
0.090143553130223 
0.09014355313022299 
0.02304582793463976 
0.02853139096355126 
-0.09615127975370423 
-0.03276101062891511 
-0.1027341210136734 
-0.002097054652111026 
0.04341735347953528 
-0.3129992597098972 
-0.01500903565848583 
0.07704308672973363 
-0.02962033191718923 
-0.07387851204908173 
-0.1651198957112772 
-0.1655955424000566 
-0.08266240307656429 
-0.1655955424000566 
-0.08266240307656429 
0.01403226938193484 
0.0812766174788872 
-0.07181576007067765 
-0.03590788003533883 
-0.02297252394145929 
0.1051108432038457 
-0.004230284577645646 
0.06379343591635353 
-0.004230284577645646 
-0.004230284577645646 
-0.004230284577645646 
-0.004230284577645646 
-0.004230284577645646 
-0.004230284577645646 
-0.004230284577645646 
0.1787040127166734 
0.05140886434899258 
-0.04378907442944515 
0.09093164745350529 
-0.04378907442944515 
-0.1200804817394276 
0.1171436218330283 
0.05182828627226199 
0.00877039720215983 
-0.07180734642231421 
-0.214729493535063 
0.00877039720215983 
0.0894074612508596 
0.04360189331268122 
-0.03993292821428977 
-0.03809019778085818 
0.05928244940988658 
0.1257755257697578 
0.06076738025578178 
0.15287182056307 
-0.08457399982644183 
-0.03357525559907236 
0.1787695493137142 
0.07293447447711152 
0.03816626222898981 
0.06656473946930958 
0.04065216835870551 
0.04065216835870551 
-0.02821158070470309 
0.2295620314724504 
0.2322091644429414 
-0.06549002113524852 
0.1460035412576031 
-0.03250881236877217 
0.05294601452055816 
0.05294601452055816 
-0.01963152914655806 
0.05294601452055816 
0.131968758666818 
0.01767268720235903 
-0.03883571662764797 
0.04419485144084881 
0.1215258953583748 
-0.06505186611539358 
-0.0289398045446258 
-0.1093094956197066 
0.02511725534454039 
0.04235260714026335 
0.1248197599617826 
0.05706768114998449 
0.06967118574630776 
-0.008717809157203838 
0.01821016242999837 
0.01821016242999837 
-0.1077462869919171 
-0.1806172327700911 
-0.105834350088608 
-0.1183388890707543 
-0.07752910929274506 
-0.105834350088608 
-0.05930401781959872 
-0.105834350088608 
-0.105834350088608 
-0.1121270185189625 
-0.2028723758497158 
-0.105834350088608 
-0.04596925578498432 
-0.105834350088608 
-0.1301273439696944 
-0.105834350088608 
-0.1301273439696944 
0.01670435496073812 
-0.1551398285634897 
0.01670435496073812 
-0.1551398285634897 
-0.1819270795558101 
-0.07139233797836876 
-0.07139233797836876 
-0.08449722498636562 
-0.1427846759567375 
-0.1498909171346832 
-0.08449722498636562 
-0.02812745650528978 
-0.02812745650528978 
-0.03714233591576904 
-0.0321927650330021 
0.03116982943925094 
0.06680759622608859 
-0.003887110499426836 
-0.03617071332686948 
-0.003887110499426836 
0.07619699786003856 
0.01699506875147622 
0.009016408852575561 
0.009016408852575561 
0.01129406697246683 
-0.001735675621512784 
0.002940185360767187 
0.04901372022764693 
0.08212776826989929 
0.06855967919968541 
0.0113888246666315 
0.02530562611946828 
-0.06801638695028561 
-0.03293239930826751 
0.09136595131674938 
-0.1073923836637041 
-0.007473508172444852 
-0.01252897892705399 
0.006816077477196678 
0.1073601480816153 
0.01710433455965355 
0.01710433455965355 
-0.1182425013220737 
-0.1182425013220737 
-0.04235764798218612 
0.05734379994877491 
-0.04235764798218612 
0.1120785536732118 
-0.0009810374537102284 
0.09182049963122962 
0.06446567118994789 
0.02401213206065995 
-0.04235764798218612 
-0.1200533955821584 
0.05598300144554531 
0.08903646148822444 
0.1029176064442171 
-0.09099159660063594 
0.06341596677176396 
0.03944857778138194 
-0.03295738898809197 
0.1358351850035237 
-0.09859047957688705 
0.07250871135580764 
0.194743048629404 
-0.0009770440998288867 
0.01430772763416515 
0.04477232806121085 
0.005727462766597713 
0.1008093066316234 
-0.02564536344435048 
0.03430566455336313 
0.09177625118528443 
0 
0.001264319455735872 
-0.04072336651443646 
-0.04192270793468748 
0.001264319455735872 
-0.01933798121070333 
0.01788194879899281 
0.1283119864083505 
-0.03497759189994581 
0.03400069397564175 
0.1303135744314716 
0.07799111995292501 
-0.0939320363143103 
0.008670655352696751 
0.02677640132495363 
0.09928274869197476 
0.001581471181489985 
-0.03575428654868748 
0.001581471181489985 
-0.1355065951946182 
-0.004545047282224405 
0.06617827694038793 
0.01738636391724431 
0.06617827694038793 
0.04699440876096006 
-0.09631165187502624 
0.04699440876096006 
0.04699440876096006 
-0.10878273309418 
0.04699440876096006 
-0.1834501724710804 
-0.05297180777399167 
0.004261147977963357 
0.008921139308830468 
0.008782146371997058 
0.04699440876096006 
0.008782146371997058 
0.1502840912638547 
0.1106674054627995 
-0.003862786725838415 
0 
0.01325093751453744 
0 
0 
-0.0009548333982280449 
0.1607129954269862 
-0.0009548333982280449 
-0.00116859198614568 
-0.03825026063633293 
-0.0009548333982280449 
-0.0009548333982280449 
-0.0009548333982280449 
-0.14622755764879 
-0.1156884595167067 
-0.05518746084076279 
-0.05706898582662868 
-0.02853449291331434 
-0.07872788012353071 
0.03914966677657043 
-0.07872788012353071 
0.03914966677657043 
0.02492246484046625 
-0.04201812692866287 
-0.02342439401136576 
0.002481488498408039 
-0.08463234818847296 
-0.07857171988906722 
-0.04019111364514816 
-0.03140876025126675 
-0.1667941411808558 
-0.08788020479207709 
0.005664972400760583 
0.1211763913047818 
-0.03559680355732029 
-0.07913009892646861 
-0.07015738932995436 
-0.1217925142435717 
-0.06061455595040007 
-0.03125435766741597 
0.1510346866626814 
-0.03125435766741597 
-0.03125435766741597 
-0.03620401709834965 
0.02331708778656603 
-0.03203727864941711 
0.0164682781957186 
0.0164682781957186 
-0.0594816636195979 
-0.02974083180979895 
0.01588903408908562 
0.01588903408908562 
0.01588903408908562 
0.01588903408908562 
0.007600091408963417 
0.007600091408963417 
0.007600091408963417 
-0.01345126418880292 
0.01588903408908562 
0.02822821442809732 
0.06130747743137126 
0.04133703337491422 
0.03014251685841975 
0.08241942837363299 
-0.08861713662492837 
0.07829798046446655 
-0.07883386537958562 
-0.08655150270831471 
-0.007199925217777662 
0.003814079962566713 
0.1322209336677121 
-0.03268939124930122 
0.1068826265500585 
-0.03187310600625474 
0.03671098524333997 
0.02325966946081142 
0.05879072940236817 
0.06448284789465616 
0 
0.05106424068366748 
0.02325966946081142 
-0.06069890203972142 
0.005501246927084238 
-0.06069890203972142 
-0.002531374274843606 
0.03671098524333997 
0.04988974219619909 
0.04988974219619909 
-0.08497062093021866 
-0.06078211576647665 
-0.02479745647609911 
-0.03268875128705057 
-0.1040022711159362 
-0.07061090663517096 
-0.003482049989573221 
-0.04780703970804797 
0.07447822368264524 
-0.01800020124181717 
0.04886627641886906 
-0.007601958936952048 
-0.05487646833888716 
0.1494691366860108 
-0.07980679962380696 
-0.05487646833888716 
0.01016919526820711 
0.05867377731928233 
-0.02695779070091431 
0.03949817429919029 
0.06183274992699932 
0.01006594221944782 
-0.04324082131119238 
0.03949817429919029 
0.03949817429919029 
0.01290297455831813 
-0.02251218954171062 
-0.1093876324636517 
-0.1499436537377459 
-0.03017475428131598 
-0.02089311789287407 
0.01168907922007659 
-0.02089311789287407 
-0.1041983296338189 
-0.0885647468719743 
-0.0885647468719743 
-0.07144494203100252 
-0.08383944599326529 
-0.1033173729006708 
-0.07144494203100252 
-0.03876694468039626 
-0.01639391923159991 
0.1371169036613752 
0.06372769711662368 
0.09904980833853086 
-0.07004446221254715 
0.03987687552645339 
0.3489873991649606 
-0.01910278826237379 
0.1624842254477194 
0.01426959553623186 
-0.05434865007640612 
0.07621848054224176 
-0.002220275343180535 
-0.0009359806792967442 
0.03283740017969599 
0.03283740017969599 
0.03283740017969599 
0.01869944868949221 
0.03283740017969599 
0.01869944868949221 
0.03283740017969599 
-0.5171619221542596 
-0.0009359806792967442 
0.03283740017969599 
0.06514268209213216 
-0.02046811504012408 
-0.02046811504012408 
0.02969799937137294 
0.137388988257911 
-0.002996069784191643 
0.07557552256857385 
0.02594389988871112 
0.1961171044031366 
-0.002996069784191643 
-0.1440458824649613 
-0.002996069784191643 
-0.002996069784191643 
-2.033646882083583e-05 
-0.08030560506010653 
-0.1642082900769721 
-0.08030560506010653 
-0.03386966931282927 
0.2319560208419572 
0.02868359555005138 
0.01112656673746047 
0.02868359555005138 
0.01671165892919687 
0.103057116105134 
-0.1399697777597791 
0.2319560208419572 
-0.1399697777597791 
0.063416151021156 
0.01112656673746047 
-0.002436597654050686 
-0.1197263881932036 
-0.03298160739098785 
-0.07028499540223557 
-0.07097560040004383 
-0.07605048829703999 
-0.07605048829703999 
-0.07097560040004383 
0.06943250249332043 
-0.07097560040004383 
0.1754511487979548 
-0.01393696684469936 
-0.03589270811520404 
-0.02570928205227778 
-0.02102196606304756 
-0.04823112918570772 
-0.04823112918570772 
-0.04823112918570772 
0.02422280614607458 
-0.02740456617827448 
0.02422280614607458 
-0.04823112918570772 
0.004592090829573567 
-0.02740456617827448 
-0.08546003698490652 
0.05108469044418655 
-0.1018483589767278 
-0.1018483589767278 
-0.1018483589767278 
-0.1225778628334313 
-0.3023007870399543 
-0.0300147080764464 
0.02568641195040459 
0.02959809707551775 
0.04571338379524289 
-0.0007886687023453218 
-0.01780477170355059 
-0.01780477170355059 
-0.01780477170355059 
-0.03494581133298433 
-0.01780477170355059 
-0.02508144522807814 
-0.01780477170355059 
-0.02508144522807814 
-0.03494581133298433 
0.03579417573668134 
0.1036688800876677 
0.06316709490375079 
-0.1016815811196511 
0 
-0.04612626461587807 
0.08101838690977346 
0.0475104452500946 
-0.0589066780481934 
-0.01200078207300487 
-0.003071203885664323 
-0.02286645326663252 
0.08101838690977346 
-0.0539745388263922 
0.04399536269864504 
0.009167384018665486 
0.02585752295059952 
0.01963071531650104 
-0.02082656300743327 
-0.0859356423028908 
0.06901079999203096 
0.05444916150594128 
-0.01339977454200742 
0.06122898686966158 
0.06122898686966158 
-0.0267705214414174 
0.07647328949149861 
-0.0267705214414174 
-0.0267705214414174 
0.0304641693142059 
0.02130303396812096 
0.07647328949149861 
0.007092226052927598 
0.07650594499927747 
0.0269228557831977 
0.0269228557831977 
-0.09115669946925241 
0.0269228557831977 
0.01409067033271833 
0.0269228557831977 
0.08366608479225376 
0.1740201571579639 
-0.01707689771408164 
-0.03820996546963015 
0.03546870640109531 
-0.0001912995181442518 
0.03009746104697407 
0.03009746104697407 
0.03009746104697407 
0.1102749485800985 
0.09572846503853888 
-0.05948811533330588 
-0.03298097730929483 
-0.1792089603114712 
-0.05948811533330588 
-0.02778402581437512 
-0.02778402581437512 
-0.02778402581437512 
-0.02778402581437512 
0.1082441829874157 
0 
-0.1711435685926702 
-0.02778402581437512 
-0.02268725758591655 
-0.1313483530020854 
-0.1137807874622849 
-0.06178947420027475 
0.1085932070583381 
0.09724029475165516 
-0.02164039190350175 
0.03303828673235547 
-0.02164039190350175 
0.03303828673235547 
-0.005047179421457597 
-0.00306466740811427 
0.09724029475165516 
-0.1821813047856843 
0.08354151590134679 
-0.009912697371680091 
0.05390622796342012 
0.05390622796342012 
0.01422859297230129 
0.004471594110278742 
0.06750682914853381 
0.006870252217055098 
0.03646715552091749 
0.04839253984368066 
-0.04763831492676166 
0.04493954797810228 
-0.03821075454731808 
-0.1760818083087113 
0.06500382543814912 
-0.09783883858415314 
-8.725349991618139e-05 
-0.0009250542686205823 
0.02689585419898492 
-0.03043455551737064 
0.02689585419898492 
-0.009075929450985797 
-0.1140371125543238 
-0.06341267887155523 
0.01788227158673765 
0.01788227158673765 
-0.04742052681275483 
-0.0471681210975733 
0.0411913032761532 
0.002828222319885553 
0.1169950482424748 
0.04003361391891664 
-0.03380071863051725 
-0.09151804180310356 
-0.0537887958998142 
-0.03934502579962308 
0.0002928153788012084 
-0.03380071863051725 
-0.07432508814072011 
-0.03380071863051725 
-0.06161072020022905 
0.03472539291435347 
-0.0537887958998142 
0.1033449639051316 
0.225229961660903 
0.1218638619158564 
-0.09929289723489451 
-0.09929289723489451 
-0.09929289723489451 
-0.09929289723489451 
-0.09929289723489451 
0.1280252372756947 
-0.01443138949109616 
-0.06256391991782212 
-0.1022929106895734 
-0.01153675330003533 
-0.01153675330003533 
0.1610980388875068 
-0.3573725450338384 
0.003353744128601845 
0.003353744128601845 
-0.000241323333217152 
-0.2019734446956349 
-0.000241323333217152 
0.07036811531631 
0.04185391772237874 
0.04382949748206835 
0.04382949748206835 
0.009079365646173725 
-0.000241323333217152 
0.1442269356656835 
0.0480756452218945 
0.0480756452218945 
0.0480756452218945 
-0.04858140695350974 
0.1626297248477712 
-0.08320400887312542 
-0.09751402284062859 
-0.04858140695350965 
0.04439861948733015 
0.04439861948733015 
0.05289929786050273 
0.07147071252432258 
0.04439861948733015 
-0.01553400400330126 
-0.02615989165957837 
-0.01280035528497241 
0.03537861123968394 
-0.08065633054802923 
0.05420312144179867 
-0.005733425179337164 
-0.005733425179337164 
-0.2074081179119796 
0.005974357126831802 
0.005974357126831802 
-0.00798193745037837 
0.03751922961221445 
0.07229726929578342 
0.02780865311413899 
0.0239549285754465 
-0.0186055658342334 
-0.0186055658342334 
-0.0186055658342334 
-0.07226402631059498 
-0.1980774196633622 
-0.001656195283486367 
0.03792275302858444 
0.05090721288386967 
-0.09170703185816104 
0.008281887082738186 
-0.04916862645701667 
0.03792275302858444 
-0.1403893499195273 
-0.1403893499195273 
0.05627465006629261 
0.05627465006629261 
-0.05157481855789831 
-0.02345784588238199 
-0.01661546434126358 
-0.02105147064815583 
-0.0666811554816318 
-0.04768322240497398 
0.1089615907933316 
0.1153798102330603 
-0.004166368684827736 
-0.06578700617169647 
-0.0272267790667591 
0.1350552237160847 
0.0577106507337604 
-0.0232229673948718 
0.02795215175986369 
0.01074043046288724 
0.006022314018469312 
-0.155192945605872 
-0.09795706544456609 
-0.09795706544456609 
-0.09795706544456609 
-0.006465392576632064 
0.07388983097055866 
0.01653133306126964 
0.01653133306126964 
0.01653133306126964 
-0.02284283066662521 
-0.05083492284344601 
-0.02284283066662521 
-0.008432195552794076 
-0.02284283066662521 
-0.02284283066662521 
-0.07283542304683414 
-0.02284283066662521 
-0.05272146279801242 
-0.02284283066662521 
-0.05272146279801242 
-0.02284283066662521 
-0.02284283066662521 
-0.02284283066662521 
-0.1245843382945023 
0.06544691639137618 
-0.02419185064369547 
-0.02419185064369547 
-0.02419185064369547 
-0.005756410609968257 
-0.02419185064369547 
-0.005756410609968257 
-0.005756410609968257 
-0.06378232679399042 
-0.02419185064369547 
-0.005756410609968257 
0.04565867041457929 
-0.07682441205797472 
0.06052545007432508 
-0.02504587277570157 
-0.04288743237328568 
-0.02504587277570157 
0.02788576261000225 
0.02788576261000225 
0.02788576261000225 
0.02788576261000225 
