svm_type epsilon_svr
kernel_type rbf
gamma 9.765625E-4
nr_class 2
total_sv 300
rho 5.3651033546063385
SV
-3.4180436747318432 1:14.0 2:5.0 3:8.0 4:2.0 5:5.0 6:1.0 7:1.0 8:1.0 9:1.0 10:4.0 11:2.0 12:2.0 13:3.0 14:2.0 15:1.0 16:1.0 17:3.0 18:1.0 19:4.0 20:2.0 21:2.0 22:4.0 23:2.0 24:1.0 25:1.0 26:3.0 
-48.79581554118747 1:6.0 3:3.0 27:5.0 28:2.0 29:1.0 30:1.0 31:2.0 32:2.0 33:4.0 34:1.0 35:1.0 36:1.0 37:2.0 38:4.0 39:1.0 40:1.0 41:1.0 42:1.0 43:1.0 44:1.0 45:1.0 46:1.0 47:4.0 48:1.0 49:1.0 50:1.0 51:1.0 52:1.0 
14.58317777700368 1:4.0 2:3.0 5:3.0 8:1.0 17:3.0 27:4.0 29:1.0 53:1.0 54:2.0 55:2.0 56:1.0 57:1.0 58:1.0 59:2.0 60:2.0 61:1.0 62:1.0 63:1.0 64:1.0 65:1.0 66:2.0 67:2.0 68:1.0 69:1.0 70:1.0 71:3.0 72:1.0 73:1.0 
14.83365899425041 1:10.0 3:3.0 6:1.0 27:3.0 30:1.0 42:1.0 53:1.0 54:2.0 55:3.0 59:2.0 74:2.0 75:1.0 76:1.0 77:1.0 78:1.0 79:1.0 80:1.0 81:2.0 82:1.0 83:1.0 84:1.0 85:1.0 86:1.0 87:1.0 88:1.0 89:1.0 90:1.0 91:1.0 92:1.0 93:2.0 94:2.0 95:1.0 96:1.0 97:1.0 98:1.0 99:1.0 100:1.0 101:1.0 102:1.0 103:1.0 104:1.0 105:1.0 106:1.0 
0.045998127131100734 1:3.0 27:9.0 28:3.0 33:6.0 107:3.0 108:3.0 109:2.0 110:1.0 111:6.0 112:3.0 113:2.0 114:2.0 115:1.0 116:1.0 117:6.0 118:2.0 119:2.0 120:2.0 121:1.0 122:1.0 123:1.0 
12.096809043352906 1:10.0 3:4.0 27:5.0 28:1.0 30:1.0 31:1.0 32:1.0 33:2.0 37:1.0 38:2.0 40:1.0 41:2.0 42:2.0 47:2.0 50:1.0 51:2.0 53:1.0 55:3.0 74:1.0 75:1.0 76:1.0 80:2.0 82:1.0 83:1.0 84:1.0 85:1.0 96:1.0 97:1.0 109:2.0 124:2.0 125:2.0 126:2.0 127:2.0 128:2.0 129:2.0 130:1.0 131:1.0 132:2.0 133:1.0 
3.841363537388093 1:12.0 2:1.0 3:4.0 4:1.0 5:1.0 6:1.0 9:1.0 10:2.0 11:1.0 12:1.0 13:2.0 19:2.0 20:1.0 21:1.0 28:4.0 80:1.0 134:1.0 135:1.0 136:1.0 137:2.0 138:2.0 139:1.0 140:1.0 141:1.0 142:1.0 143:1.0 144:1.0 145:1.0 146:1.0 147:1.0 148:1.0 149:1.0 150:1.0 151:1.0 152:1.0 153:1.0 154:1.0 155:1.0 156:2.0 157:1.0 158:1.0 159:1.0 160:1.0 161:1.0 162:1.0 
21.465907530878788 1:6.0 2:6.0 5:6.0 163:6.0 164:6.0 165:6.0 166:6.0 167:6.0 
-83.65103482988151 1:6.0 2:4.0 3:1.0 4:4.0 5:4.0 12:4.0 27:1.0 29:1.0 30:1.0 34:1.0 168:1.0 169:1.0 170:1.0 171:1.0 172:1.0 173:1.0 174:1.0 175:1.0 176:1.0 177:1.0 178:1.0 179:1.0 180:1.0 181:1.0 182:1.0 183:1.0 184:1.0 
24.298236925258227 1:12.0 3:3.0 6:1.0 18:1.0 27:4.0 28:1.0 30:1.0 31:1.0 41:1.0 54:1.0 80:2.0 109:1.0 124:1.0 185:1.0 186:1.0 187:2.0 188:2.0 189:1.0 190:1.0 191:1.0 192:1.0 193:1.0 194:1.0 195:1.0 196:1.0 197:1.0 198:1.0 199:1.0 200:1.0 201:1.0 202:1.0 203:1.0 204:1.0 205:1.0 206:1.0 207:1.0 208:1.0 209:1.0 210:1.0 211:1.0 212:1.0 213:1.0 214:1.0 215:1.0 216:1.0 217:1.0 218:1.0 219:1.0 220:1.0 
-102.19938842596352 1:7.0 2:1.0 3:3.0 4:1.0 5:1.0 9:1.0 10:1.0 12:1.0 27:1.0 29:1.0 30:1.0 34:1.0 42:1.0 80:1.0 91:1.0 221:1.0 222:1.0 223:1.0 224:1.0 225:1.0 226:1.0 227:1.0 228:1.0 229:1.0 230:1.0 231:1.0 232:1.0 233:1.0 
27.321559616739968 1:5.0 27:3.0 28:1.0 53:1.0 54:2.0 55:2.0 59:2.0 74:2.0 76:1.0 185:1.0 186:1.0 187:1.0 194:1.0 234:1.0 235:1.0 236:1.0 237:1.0 238:1.0 239:1.0 240:1.0 241:1.0 242:1.0 243:1.0 244:2.0 245:1.0 246:1.0 247:1.0 248:1.0 249:1.0 250:1.0 251:1.0 252:2.0 253:2.0 254:1.0 255:1.0 
307.20747851870686 1:12.0 2:6.0 5:6.0 7:4.0 27:1.0 110:2.0 134:1.0 188:1.0 256:2.0 257:2.0 258:1.0 259:2.0 260:2.0 261:2.0 262:2.0 263:2.0 264:2.0 265:1.0 266:2.0 267:1.0 268:1.0 269:2.0 270:2.0 271:2.0 272:2.0 273:2.0 274:2.0 275:2.0 276:1.0 277:2.0 278:1.0 279:1.0 280:2.0 
91.17068788550164 1:6.0 3:5.0 28:1.0 31:1.0 41:2.0 137:1.0 281:1.0 282:1.0 283:3.0 284:1.0 285:1.0 286:2.0 287:2.0 288:1.0 
23.317986060297805 1:2.0 28:1.0 74:1.0 80:1.0 137:1.0 289:3.0 290:1.0 291:2.0 292:2.0 293:2.0 
1.7532009800494321 1:1.0 28:2.0 74:1.0 137:2.0 290:1.0 294:3.0 295:4.0 296:2.0 
-49.39431654092659 1:4.0 2:2.0 5:2.0 27:4.0 53:1.0 54:2.0 55:3.0 58:1.0 59:2.0 297:1.0 298:1.0 299:1.0 300:2.0 301:1.0 302:1.0 303:1.0 304:1.0 305:2.0 306:1.0 307:2.0 308:2.0 309:1.0 310:1.0 311:1.0 312:1.0 313:2.0 314:1.0 
-31.810854082377777 1:12.0 3:7.0 27:2.0 28:1.0 30:1.0 42:1.0 185:1.0 187:1.0 188:1.0 234:1.0 238:1.0 283:3.0 315:1.0 316:2.0 317:1.0 318:1.0 319:1.0 320:1.0 321:1.0 322:3.0 323:1.0 324:1.0 325:1.0 326:1.0 327:1.0 328:1.0 329:1.0 330:1.0 331:1.0 332:2.0 333:2.0 334:1.0 335:1.0 336:1.0 337:1.0 
73.33125811790498 1:3.0 27:1.0 28:1.0 187:1.0 234:2.0 338:1.0 339:1.0 340:2.0 341:2.0 342:2.0 343:1.0 344:2.0 345:1.0 
-316.2277660168379 1:12.0 2:6.0 5:6.0 7:4.0 27:1.0 110:2.0 134:1.0 188:1.0 256:2.0 257:2.0 258:1.0 259:2.0 260:2.0 261:2.0 262:2.0 263:2.0 264:2.0 265:1.0 266:2.0 267:1.0 268:1.0 269:2.0 270:2.0 271:2.0 272:2.0 273:2.0 274:2.0 275:2.0 276:1.0 277:2.0 278:1.0 279:1.0 280:2.0 
-12.02572280730117 1:1.0 346:1.0 347:3.0 348:3.0 
120.20426793896316 1:2.0 28:1.0 80:1.0 349:3.0 350:1.0 351:2.0 352:2.0 
170.15957233893909 1:2.0 27:1.0 80:1.0 187:1.0 353:3.0 354:2.0 355:2.0 
2.5098824164285185 1:2.0 74:1.0 80:1.0 235:3.0 356:1.0 357:2.0 358:2.0 
10.454791277118057 1:1.0 74:2.0 290:2.0 359:3.0 360:4.0 
52.2941513364587 1:2.0 27:1.0 109:2.0 188:1.0 361:4.0 362:2.0 
11.144077347155747 1:1.0 346:3.0 348:3.0 363:3.0 364:6.0 
151.95955650664735 1:2.0 2:2.0 5:2.0 299:3.0 305:4.0 365:1.0 366:2.0 
14.916935860008762 1:5.0 2:6.0 5:6.0 256:4.0 258:1.0 259:4.0 269:2.0 367:2.0 368:2.0 369:1.0 370:2.0 371:2.0 372:2.0 373:2.0 374:1.0 375:2.0 
45.365736391274986 1:9.0 27:1.0 80:3.0 134:2.0 187:1.0 376:1.0 377:1.0 378:1.0 379:1.0 380:1.0 381:1.0 382:1.0 383:1.0 384:1.0 385:1.0 386:1.0 387:2.0 388:1.0 389:1.0 390:1.0 391:1.0 392:1.0 393:1.0 394:1.0 395:1.0 396:2.0 397:1.0 
102.34700114079318 1:3.0 2:2.0 5:2.0 80:1.0 134:1.0 140:1.0 398:1.0 399:2.0 400:2.0 401:2.0 402:1.0 403:2.0 
19.5262244927397 1:3.0 27:1.0 28:1.0 137:1.0 186:1.0 187:1.0 194:1.0 365:1.0 379:1.0 404:1.0 405:2.0 406:2.0 407:1.0 408:1.0 409:1.0 410:1.0 
-45.6167885310648 1:3.0 27:2.0 29:1.0 80:1.0 134:1.0 140:1.0 187:1.0 189:1.0 203:1.0 411:2.0 412:2.0 413:1.0 414:1.0 415:1.0 416:1.0 
-3.390512366338429 1:8.0 3:3.0 18:1.0 27:2.0 28:1.0 31:1.0 32:1.0 33:2.0 37:1.0 38:2.0 41:1.0 47:2.0 80:2.0 91:2.0 283:1.0 417:2.0 418:1.0 419:1.0 420:1.0 421:1.0 422:1.0 423:1.0 424:1.0 425:1.0 426:1.0 427:1.0 428:1.0 429:1.0 
-11.48229049148435 1:7.0 2:1.0 3:3.0 4:1.0 5:1.0 10:1.0 12:1.0 27:2.0 28:1.0 31:1.0 32:1.0 33:2.0 37:1.0 38:2.0 41:1.0 47:2.0 80:1.0 91:1.0 283:1.0 417:1.0 418:1.0 421:1.0 429:1.0 430:1.0 431:1.0 432:1.0 433:1.0 434:1.0 435:1.0 436:1.0 437:1.0 438:1.0 
41.73079777561983 1:12.0 3:4.0 6:1.0 9:1.0 13:1.0 18:1.0 27:4.0 80:2.0 109:2.0 124:2.0 187:2.0 188:2.0 189:2.0 198:2.0 200:2.0 203:2.0 214:2.0 219:2.0 283:2.0 439:2.0 440:2.0 441:2.0 442:2.0 443:2.0 444:2.0 445:2.0 446:2.0 
-29.348142056489106 1:16.0 3:4.0 6:1.0 9:1.0 13:1.0 18:1.0 27:4.0 80:2.0 109:2.0 134:4.0 140:2.0 187:2.0 188:2.0 189:2.0 200:2.0 203:2.0 219:2.0 283:2.0 439:2.0 440:2.0 443:2.0 444:2.0 445:2.0 446:2.0 447:2.0 448:2.0 449:2.0 450:2.0 451:2.0 452:2.0 453:2.0 454:2.0 
37.87307470276869 1:14.0 3:10.0 283:4.0 316:4.0 322:6.0 323:2.0 332:4.0 333:2.0 455:2.0 456:2.0 457:2.0 458:2.0 459:2.0 
-7.50528858119028 1:19.0 3:9.0 6:1.0 9:2.0 13:3.0 18:1.0 27:4.0 80:1.0 109:2.0 134:2.0 140:1.0 187:2.0 188:2.0 189:2.0 200:2.0 203:2.0 219:2.0 283:5.0 288:1.0 439:2.0 440:2.0 443:2.0 444:2.0 445:2.0 446:4.0 447:1.0 448:1.0 449:1.0 450:1.0 451:1.0 452:1.0 453:1.0 454:1.0 460:1.0 461:1.0 462:1.0 463:1.0 464:1.0 465:2.0 
11.263606398521 1:12.0 3:10.0 27:1.0 28:2.0 31:2.0 33:1.0 41:4.0 283:6.0 287:4.0 288:2.0 466:1.0 467:1.0 468:1.0 469:1.0 470:1.0 471:2.0 472:1.0 473:1.0 474:1.0 475:2.0 476:4.0 
5.585691592622997 1:12.0 3:8.0 28:1.0 138:1.0 283:4.0 316:2.0 322:2.0 332:2.0 477:2.0 478:2.0 479:2.0 480:1.0 481:2.0 482:2.0 483:2.0 484:2.0 485:1.0 486:2.0 487:2.0 
78.18883943689369 1:6.0 2:5.0 4:5.0 5:5.0 12:5.0 27:1.0 29:1.0 30:1.0 34:1.0 168:1.0 169:2.0 170:3.0 174:1.0 176:2.0 177:2.0 179:3.0 488:1.0 489:2.0 490:1.0 
16.15533086062948 1:7.0 3:4.0 9:1.0 13:1.0 27:2.0 28:1.0 31:1.0 32:1.0 33:2.0 37:1.0 38:2.0 41:1.0 47:2.0 80:1.0 91:1.0 283:2.0 287:1.0 429:1.0 446:1.0 491:1.0 492:1.0 493:1.0 494:1.0 495:1.0 496:1.0 497:1.0 
199.29965400853717 1:6.0 2:1.0 3:4.0 4:1.0 5:1.0 10:1.0 12:1.0 27:2.0 28:1.0 31:1.0 32:1.0 33:2.0 37:1.0 38:2.0 41:1.0 47:2.0 283:2.0 287:1.0 498:1.0 499:1.0 500:1.0 501:1.0 502:1.0 503:1.0 504:1.0 505:1.0 506:1.0 
-47.112841270689515 1:10.0 3:2.0 7:1.0 9:1.0 27:5.0 28:2.0 29:1.0 30:1.0 31:2.0 32:2.0 33:4.0 34:1.0 36:1.0 37:2.0 38:4.0 39:1.0 40:1.0 46:1.0 47:4.0 48:1.0 50:1.0 80:2.0 134:1.0 140:1.0 507:1.0 508:1.0 509:1.0 510:1.0 511:1.0 512:1.0 513:1.0 514:1.0 515:1.0 516:1.0 517:1.0 518:1.0 519:1.0 520:1.0 521:1.0 522:1.0 
41.41877374476529 1:6.0 3:2.0 27:7.0 28:3.0 29:1.0 30:1.0 31:3.0 32:3.0 33:6.0 34:1.0 36:2.0 37:3.0 38:6.0 39:2.0 40:1.0 46:2.0 47:6.0 48:2.0 50:1.0 523:1.0 524:1.0 525:1.0 526:2.0 527:1.0 
-21.804985398352525 1:7.0 2:1.0 3:3.0 4:1.0 5:1.0 10:1.0 11:1.0 12:1.0 18:1.0 19:1.0 21:1.0 27:2.0 28:1.0 31:1.0 32:1.0 33:2.0 37:1.0 38:2.0 47:2.0 80:1.0 91:1.0 417:1.0 418:1.0 421:1.0 491:1.0 493:1.0 494:1.0 528:1.0 529:1.0 530:1.0 531:1.0 532:1.0 
316.2277660168379 1:6.0 2:2.0 3:3.0 4:2.0 5:2.0 10:1.0 11:1.0 12:2.0 21:1.0 27:2.0 28:1.0 31:1.0 32:1.0 33:2.0 37:1.0 38:2.0 41:1.0 47:2.0 172:1.0 498:1.0 499:1.0 500:1.0 502:1.0 503:1.0 533:1.0 534:1.0 535:1.0 536:1.0 537:1.0 
-61.39519569748076 1:7.0 3:4.0 6:1.0 18:1.0 27:2.0 29:1.0 30:1.0 34:1.0 42:1.0 187:1.0 283:2.0 353:1.0 355:1.0 446:1.0 538:1.0 539:1.0 540:1.0 541:1.0 542:1.0 543:1.0 544:1.0 545:1.0 546:1.0 547:1.0 548:1.0 
28.396096066530568 1:7.0 3:4.0 27:1.0 28:1.0 30:1.0 31:1.0 41:1.0 42:1.0 54:1.0 137:1.0 188:1.0 202:1.0 281:1.0 283:2.0 287:1.0 547:1.0 549:1.0 550:1.0 551:1.0 552:1.0 553:1.0 554:1.0 555:1.0 556:1.0 557:1.0 558:1.0 
26.160987487925173 1:7.0 3:4.0 27:2.0 29:1.0 30:2.0 34:1.0 42:2.0 54:1.0 188:1.0 202:1.0 283:2.0 547:2.0 549:1.0 552:1.0 559:1.0 560:1.0 561:1.0 562:1.0 563:1.0 564:1.0 565:1.0 566:1.0 
100.25547868486132 1:10.0 2:1.0 3:7.0 4:1.0 5:1.0 10:1.0 12:1.0 283:3.0 316:2.0 322:3.0 323:1.0 332:2.0 333:2.0 567:1.0 568:1.0 569:1.0 570:1.0 571:1.0 572:1.0 573:1.0 574:1.0 575:1.0 
-38.6681074608083 1:12.0 3:9.0 6:1.0 9:1.0 13:2.0 18:1.0 27:1.0 29:1.0 30:1.0 34:1.0 42:1.0 144:1.0 283:5.0 288:1.0 446:3.0 538:1.0 541:1.0 547:1.0 548:1.0 576:1.0 577:1.0 578:1.0 579:1.0 580:2.0 581:1.0 
-0.7982798564234067 1:9.0 3:6.0 28:1.0 138:1.0 283:2.0 316:1.0 322:2.0 332:1.0 477:1.0 478:1.0 479:1.0 482:1.0 483:1.0 582:1.0 583:1.0 584:1.0 585:1.0 586:1.0 587:1.0 588:1.0 589:1.0 590:1.0 591:1.0 592:1.0 593:1.0 
-17.21431653225142 1:9.0 3:4.0 18:1.0 27:2.0 30:1.0 42:1.0 187:1.0 188:1.0 189:1.0 203:1.0 283:2.0 379:2.0 417:1.0 446:1.0 547:1.0 594:1.0 595:1.0 596:1.0 597:1.0 598:1.0 599:1.0 600:1.0 601:1.0 602:1.0 603:1.0 604:1.0 605:1.0 606:1.0 607:1.0 608:1.0 
-17.176939275867007 1:12.0 2:2.0 3:6.0 4:2.0 5:2.0 6:1.0 9:1.0 12:2.0 13:1.0 18:1.0 28:2.0 31:2.0 41:2.0 137:2.0 144:2.0 281:2.0 498:2.0 500:2.0 609:2.0 610:2.0 611:2.0 612:2.0 613:2.0 614:2.0 615:2.0 616:2.0 617:2.0 
148.86625869704577 1:12.0 3:10.0 6:1.0 9:1.0 13:3.0 18:1.0 144:2.0 283:6.0 288:2.0 446:4.0 580:4.0 618:2.0 
-89.6999901399382 1:12.0 3:9.0 6:1.0 9:1.0 13:3.0 18:1.0 27:1.0 29:1.0 30:1.0 34:1.0 42:2.0 144:2.0 223:1.0 232:1.0 283:3.0 288:1.0 446:2.0 580:2.0 618:2.0 619:1.0 620:2.0 621:2.0 
50.44231274711716 1:8.0 2:2.0 3:3.0 4:2.0 5:2.0 10:1.0 11:1.0 12:2.0 21:1.0 27:3.0 29:1.0 30:1.0 42:1.0 109:1.0 172:1.0 173:1.0 184:1.0 187:1.0 188:1.0 189:1.0 197:1.0 203:1.0 413:1.0 533:1.0 622:1.0 623:1.0 624:1.0 625:1.0 626:1.0 627:1.0 628:1.0 629:1.0 630:1.0 631:1.0 632:1.0 633:1.0 634:1.0 
36.436192770481576 1:8.0 3:5.0 74:1.0 283:2.0 316:1.0 322:1.0 332:1.0 635:1.0 636:1.0 637:1.0 638:1.0 639:1.0 640:1.0 641:1.0 642:1.0 643:1.0 644:1.0 645:1.0 646:1.0 647:1.0 648:1.0 649:1.0 650:1.0 651:1.0 
148.2353467033602 1:7.0 3:4.0 9:1.0 13:1.0 27:1.0 29:1.0 30:1.0 34:1.0 42:1.0 80:1.0 91:1.0 283:2.0 446:1.0 538:1.0 541:1.0 547:1.0 548:1.0 652:1.0 653:1.0 654:1.0 655:1.0 656:1.0 
-42.98523828294645 1:6.0 2:1.0 3:4.0 4:1.0 5:1.0 10:1.0 12:1.0 28:1.0 31:1.0 41:1.0 137:1.0 281:1.0 283:2.0 287:1.0 498:1.0 500:1.0 505:1.0 506:1.0 609:1.0 611:1.0 612:1.0 657:1.0 658:1.0 
-17.820210403752604 1:7.0 3:4.0 18:1.0 28:1.0 31:1.0 41:1.0 80:1.0 91:1.0 137:1.0 281:1.0 283:2.0 287:1.0 417:1.0 446:1.0 491:1.0 493:1.0 497:1.0 659:1.0 660:1.0 661:1.0 662:1.0 663:1.0 
58.62569128383225 1:6.0 2:1.0 3:4.0 4:1.0 5:1.0 10:1.0 12:1.0 27:1.0 29:1.0 30:1.0 34:1.0 42:1.0 173:1.0 184:1.0 283:2.0 505:1.0 547:1.0 664:1.0 665:1.0 666:1.0 667:1.0 668:1.0 669:1.0 
155.8901308857877 1:6.0 2:2.0 3:3.0 4:2.0 5:2.0 10:1.0 12:2.0 28:1.0 31:1.0 41:1.0 137:1.0 171:2.0 181:2.0 281:1.0 282:1.0 284:1.0 528:1.0 670:1.0 671:1.0 672:1.0 673:1.0 674:1.0 675:1.0 
117.1870333258559 1:6.0 2:2.0 3:3.0 4:2.0 5:2.0 10:2.0 11:1.0 12:2.0 21:1.0 28:1.0 31:1.0 137:1.0 281:1.0 498:1.0 500:1.0 528:1.0 531:1.0 609:1.0 611:1.0 657:1.0 676:1.0 677:1.0 678:1.0 679:1.0 
59.89895610604753 1:6.0 2:3.0 3:2.0 4:3.0 5:3.0 12:3.0 27:1.0 29:1.0 30:1.0 34:1.0 171:2.0 172:1.0 173:1.0 181:2.0 182:1.0 184:1.0 664:1.0 665:1.0 680:1.0 681:1.0 682:1.0 683:1.0 684:1.0 685:1.0 
28.388047349517976 1:8.0 3:5.0 9:1.0 13:2.0 27:1.0 109:1.0 110:1.0 188:1.0 283:3.0 288:1.0 446:2.0 686:1.0 687:1.0 688:1.0 689:1.0 690:1.0 691:1.0 692:1.0 693:2.0 694:1.0 
-10.45743219486686 1:3.0 28:2.0 74:1.0 185:2.0 290:1.0 294:1.0 296:1.0 695:2.0 696:1.0 697:2.0 698:2.0 699:1.0 700:1.0 701:2.0 702:2.0 
-211.73772849825585 1:6.0 2:1.0 3:3.0 4:1.0 5:1.0 10:1.0 12:1.0 27:4.0 28:2.0 31:2.0 32:2.0 33:4.0 37:2.0 38:4.0 39:1.0 40:1.0 41:1.0 47:4.0 49:1.0 50:1.0 498:1.0 499:1.0 500:1.0 501:1.0 503:1.0 703:1.0 704:1.0 705:1.0 706:1.0 
0.18508853469240735 1:6.0 28:2.0 74:3.0 78:1.0 234:4.0 290:2.0 338:2.0 340:4.0 707:2.0 708:2.0 709:2.0 710:2.0 711:1.0 712:2.0 713:2.0 714:2.0 715:1.0 716:4.0 
12.008587639961318 1:10.0 28:2.0 74:4.0 80:4.0 290:2.0 338:2.0 695:4.0 707:2.0 710:2.0 717:2.0 718:4.0 719:4.0 720:2.0 721:2.0 722:2.0 723:4.0 724:4.0 725:2.0 726:2.0 727:2.0 728:2.0 
19.396203670742633 1:9.0 3:5.0 7:1.0 9:1.0 13:2.0 14:1.0 80:2.0 283:3.0 288:1.0 446:2.0 512:2.0 729:1.0 730:2.0 731:1.0 732:1.0 733:2.0 
-136.1557382625304 1:6.0 3:5.0 27:2.0 28:1.0 31:1.0 32:1.0 33:2.0 37:1.0 38:2.0 40:1.0 41:2.0 47:2.0 50:1.0 133:1.0 283:3.0 287:2.0 288:1.0 734:2.0 
69.5125342516389 1:7.0 3:4.0 9:1.0 13:1.0 27:2.0 28:1.0 31:1.0 32:1.0 33:2.0 37:1.0 38:2.0 40:1.0 41:1.0 47:2.0 50:1.0 80:1.0 91:1.0 283:1.0 426:1.0 511:1.0 734:1.0 735:1.0 736:1.0 737:1.0 738:1.0 739:1.0 740:1.0 
135.86805405393451 1:8.0 3:3.0 6:1.0 18:1.0 27:2.0 28:1.0 31:1.0 33:1.0 41:1.0 80:2.0 91:2.0 417:1.0 420:1.0 427:1.0 741:1.0 742:1.0 743:1.0 744:1.0 745:1.0 746:1.0 747:1.0 748:1.0 749:1.0 750:1.0 751:1.0 752:1.0 753:1.0 754:1.0 755:1.0 756:1.0 757:1.0 758:1.0 
51.39352832159472 1:6.0 3:4.0 27:4.0 28:2.0 31:2.0 32:2.0 33:4.0 37:2.0 38:4.0 39:1.0 40:2.0 41:2.0 47:4.0 49:2.0 50:2.0 283:1.0 734:2.0 759:1.0 760:1.0 
120.41043467394539 1:10.0 3:4.0 6:1.0 7:1.0 9:1.0 13:3.0 14:1.0 18:1.0 80:3.0 91:1.0 512:2.0 729:1.0 730:2.0 731:1.0 732:1.0 735:1.0 736:1.0 761:2.0 762:2.0 763:1.0 
49.532850242289946 1:7.0 3:4.0 9:1.0 13:2.0 27:2.0 28:1.0 31:1.0 32:1.0 33:2.0 37:1.0 38:2.0 40:1.0 41:2.0 47:2.0 50:1.0 80:1.0 91:1.0 133:1.0 735:1.0 736:1.0 763:1.0 764:2.0 765:2.0 
139.95870890285732 1:6.0 2:1.0 3:4.0 4:1.0 5:1.0 10:2.0 11:1.0 12:1.0 20:1.0 21:1.0 27:2.0 28:1.0 31:1.0 32:1.0 33:2.0 37:1.0 38:2.0 40:1.0 41:2.0 47:2.0 50:1.0 133:1.0 537:2.0 705:2.0 
-48.066047021156 1:6.0 3:4.0 27:3.0 28:1.0 29:1.0 30:1.0 31:1.0 32:1.0 33:2.0 34:1.0 37:1.0 38:2.0 40:1.0 41:2.0 42:2.0 47:2.0 50:1.0 51:2.0 133:1.0 223:1.0 232:1.0 619:1.0 766:2.0 
206.72690022801376 1:8.0 3:5.0 9:1.0 13:2.0 80:1.0 134:1.0 140:1.0 283:3.0 288:1.0 446:2.0 767:1.0 768:1.0 769:1.0 770:1.0 771:1.0 772:2.0 
95.16194106965791 1:8.0 3:5.0 18:2.0 283:3.0 288:1.0 365:1.0 379:1.0 407:1.0 417:1.0 446:2.0 773:1.0 774:1.0 775:1.0 776:2.0 777:1.0 778:1.0 
-127.41444668913563 1:7.0 3:5.0 28:1.0 31:1.0 41:2.0 185:1.0 190:1.0 234:1.0 238:1.0 283:3.0 287:2.0 288:1.0 779:1.0 780:1.0 781:1.0 782:1.0 783:2.0 
24.372498199581816 1:13.0 3:10.0 28:2.0 31:2.0 41:4.0 74:1.0 185:2.0 190:2.0 283:6.0 287:4.0 288:2.0 290:1.0 294:1.0 296:1.0 696:1.0 699:1.0 783:4.0 784:2.0 785:2.0 786:2.0 787:1.0 
-74.337184518524 1:8.0 3:5.0 28:1.0 31:1.0 41:2.0 80:1.0 185:1.0 190:1.0 283:3.0 287:2.0 288:1.0 695:1.0 718:1.0 783:2.0 788:1.0 789:1.0 790:1.0 791:1.0 792:1.0 793:1.0 
-30.664775252374625 1:7.0 3:5.0 28:1.0 31:1.0 41:2.0 74:1.0 283:3.0 287:2.0 288:1.0 290:1.0 794:1.0 795:1.0 796:1.0 797:1.0 798:1.0 799:1.0 800:1.0 801:1.0 802:2.0 803:1.0 804:1.0 
97.92827214471069 1:7.0 3:5.0 28:2.0 31:1.0 41:2.0 74:1.0 137:1.0 185:1.0 190:1.0 283:3.0 287:2.0 288:1.0 290:1.0 294:1.0 295:1.0 296:1.0 783:2.0 784:1.0 786:1.0 805:1.0 806:1.0 807:1.0 808:1.0 809:1.0 
-32.97669215845394 1:7.0 3:4.0 27:1.0 28:1.0 30:1.0 31:1.0 41:2.0 42:2.0 54:1.0 137:1.0 188:1.0 202:1.0 281:1.0 282:1.0 284:1.0 285:1.0 549:1.0 552:1.0 810:1.0 811:1.0 812:1.0 813:2.0 814:2.0 
68.11527047867641 1:5.0 27:2.0 80:2.0 109:1.0 124:1.0 134:1.0 140:1.0 187:1.0 188:1.0 189:1.0 198:1.0 203:1.0 214:1.0 411:1.0 414:1.0 439:1.0 441:1.0 815:1.0 816:1.0 817:1.0 818:1.0 819:1.0 
48.34999165703393 1:5.0 28:2.0 74:1.0 80:2.0 185:2.0 290:1.0 294:1.0 296:1.0 695:2.0 696:1.0 697:2.0 699:1.0 718:2.0 788:2.0 790:2.0 820:2.0 821:2.0 822:1.0 
16.041271925486804 1:8.0 3:3.0 6:1.0 9:1.0 13:1.0 27:1.0 29:1.0 30:1.0 34:1.0 42:1.0 80:2.0 91:2.0 652:1.0 653:1.0 655:1.0 735:1.0 736:1.0 823:1.0 824:1.0 825:1.0 826:1.0 827:1.0 828:1.0 829:1.0 830:1.0 
28.85137076448624 1:6.0 3:4.0 27:1.0 29:1.0 30:1.0 34:1.0 42:2.0 223:1.0 232:1.0 346:1.0 348:1.0 619:1.0 831:1.0 832:2.0 833:1.0 834:1.0 835:2.0 836:2.0 837:1.0 838:1.0 
80.67464936279701 1:7.0 3:4.0 9:1.0 13:2.0 27:1.0 29:1.0 30:1.0 34:1.0 42:2.0 80:1.0 91:1.0 223:1.0 232:1.0 619:1.0 620:2.0 735:1.0 736:1.0 763:1.0 830:2.0 
-116.06382014570472 1:6.0 2:1.0 3:4.0 4:1.0 5:1.0 10:2.0 11:1.0 12:1.0 20:1.0 21:1.0 28:1.0 31:1.0 41:2.0 137:1.0 281:1.0 282:1.0 284:1.0 285:1.0 537:2.0 675:2.0 
45.343777911028425 1:6.0 2:1.0 3:4.0 4:1.0 5:1.0 10:2.0 11:1.0 12:1.0 20:1.0 21:1.0 27:1.0 29:1.0 30:1.0 34:1.0 42:2.0 223:1.0 230:2.0 232:1.0 619:1.0 632:2.0 
46.53777027567338 1:3.0 2:1.0 5:1.0 27:1.0 109:1.0 110:1.0 188:1.0 686:1.0 689:1.0 839:1.0 840:1.0 841:1.0 842:2.0 843:1.0 844:1.0 845:1.0 846:1.0 
-164.9777303324849 1:3.0 27:1.0 187:1.0 353:1.0 355:1.0 365:1.0 379:1.0 407:1.0 847:2.0 848:2.0 849:1.0 850:1.0 
-63.63117908826184 1:3.0 74:1.0 80:1.0 134:1.0 140:1.0 235:1.0 356:1.0 358:1.0 851:2.0 852:2.0 853:1.0 854:1.0 
128.13418986626723 1:2.0 2:1.0 5:1.0 27:1.0 29:1.0 109:1.0 839:1.0 840:1.0 855:1.0 856:2.0 857:2.0 858:1.0 859:1.0 
26.4224531382213 1:3.0 28:1.0 137:1.0 365:1.0 379:1.0 407:1.0 695:1.0 860:1.0 861:2.0 862:2.0 863:1.0 864:1.0 
-39.27042703590364 1:3.0 28:1.0 349:1.0 350:1.0 352:1.0 365:1.0 379:1.0 407:1.0 865:2.0 866:2.0 867:1.0 868:1.0 
7.517525800907988 1:2.0 28:2.0 137:2.0 695:2.0 860:2.0 869:4.0 870:2.0 
-40.39522697836583 1:4.0 27:2.0 29:1.0 80:1.0 134:2.0 140:1.0 187:1.0 189:1.0 203:1.0 412:1.0 413:1.0 415:1.0 416:1.0 447:1.0 450:1.0 871:2.0 872:1.0 873:1.0 
40.85908654196622 1:6.0 28:1.0 80:4.0 185:1.0 874:2.0 875:4.0 876:2.0 877:2.0 878:4.0 879:2.0 
122.62279707577535 1:7.0 3:4.0 9:1.0 13:1.0 27:1.0 29:1.0 30:1.0 34:1.0 42:1.0 80:1.0 91:1.0 223:1.0 224:1.0 231:1.0 232:1.0 283:1.0 735:1.0 736:1.0 740:1.0 880:1.0 881:1.0 882:1.0 883:1.0 
-246.62833274821915 1:6.0 2:1.0 3:4.0 4:1.0 5:1.0 10:1.0 11:1.0 12:1.0 21:1.0 28:1.0 31:1.0 41:1.0 137:1.0 281:1.0 282:1.0 283:1.0 284:1.0 286:1.0 433:1.0 528:1.0 531:1.0 670:1.0 884:1.0 885:1.0 
102.75924667906949 1:7.0 3:4.0 9:1.0 13:1.0 28:1.0 31:1.0 41:1.0 80:1.0 91:1.0 137:1.0 281:1.0 282:1.0 283:1.0 284:1.0 286:1.0 426:1.0 511:1.0 735:1.0 736:1.0 737:1.0 740:1.0 886:1.0 887:1.0 
51.385301929654396 1:6.0 134:5.0 346:1.0 348:1.0 888:1.0 889:1.0 890:1.0 891:2.0 892:3.0 893:1.0 894:1.0 895:2.0 896:2.0 897:1.0 
18.786107328306038 1:6.0 3:5.0 27:1.0 29:1.0 30:1.0 34:1.0 42:2.0 223:1.0 232:1.0 283:3.0 288:1.0 547:2.0 619:1.0 882:2.0 
24.413693297693 1:9.0 28:2.0 74:1.0 80:2.0 134:4.0 140:2.0 185:2.0 290:1.0 294:1.0 296:1.0 447:2.0 450:2.0 695:2.0 696:1.0 697:2.0 699:1.0 822:1.0 898:2.0 899:2.0 900:2.0 901:2.0 902:2.0 903:2.0 
80.81894633588253 1:5.0 27:2.0 29:1.0 80:1.0 134:3.0 140:1.0 187:1.0 189:1.0 203:1.0 412:1.0 413:1.0 415:1.0 416:1.0 447:1.0 450:1.0 871:1.0 872:1.0 892:1.0 904:1.0 905:1.0 906:1.0 
22.841491974361478 1:4.0 28:1.0 80:2.0 185:1.0 695:2.0 718:2.0 788:2.0 790:2.0 907:2.0 908:2.0 
38.1342064049909 1:4.0 3:2.0 74:1.0 635:2.0 636:1.0 638:2.0 909:2.0 910:1.0 911:2.0 912:2.0 913:1.0 
27.317802691748142 1:6.0 134:4.0 379:2.0 892:2.0 914:2.0 915:2.0 916:2.0 917:2.0 918:2.0 
53.04362637248195 1:5.0 3:3.0 28:1.0 138:1.0 283:1.0 582:2.0 584:2.0 585:2.0 919:1.0 920:1.0 921:2.0 922:2.0 923:1.0 
37.2781699385174 1:4.0 27:2.0 28:1.0 29:2.0 109:2.0 185:1.0 695:2.0 855:2.0 907:1.0 924:2.0 925:2.0 926:2.0 927:2.0 928:2.0 929:1.0 
49.950705099044995 1:4.0 2:2.0 5:2.0 27:1.0 109:2.0 188:1.0 839:2.0 840:2.0 857:2.0 859:2.0 930:2.0 931:1.0 932:2.0 933:2.0 934:1.0 
-0.29030776280474735 1:5.0 2:2.0 5:2.0 27:2.0 109:2.0 188:2.0 839:2.0 840:2.0 857:2.0 859:2.0 930:2.0 932:2.0 935:1.0 936:1.0 937:2.0 938:1.0 939:2.0 940:2.0 
16.554921223967618 1:11.0 3:4.0 27:3.0 28:1.0 30:2.0 42:2.0 80:2.0 110:1.0 185:1.0 187:1.0 188:2.0 234:1.0 238:1.0 283:2.0 315:1.0 317:1.0 318:1.0 319:1.0 324:1.0 325:1.0 326:1.0 327:1.0 337:1.0 547:2.0 559:2.0 566:2.0 941:1.0 942:1.0 943:2.0 944:1.0 945:1.0 946:1.0 947:1.0 948:1.0 949:2.0 
7.997235037472544 1:9.0 2:6.0 5:6.0 7:2.0 27:3.0 74:1.0 109:2.0 256:2.0 257:2.0 258:1.0 259:2.0 260:2.0 261:2.0 262:2.0 268:1.0 269:2.0 270:2.0 271:2.0 273:2.0 279:1.0 280:2.0 950:2.0 951:1.0 952:1.0 953:2.0 954:2.0 955:2.0 956:1.0 957:1.0 958:2.0 959:2.0 960:2.0 961:2.0 962:1.0 963:1.0 
-17.062942488031055 1:13.0 7:1.0 27:2.0 28:1.0 74:1.0 78:1.0 80:3.0 110:1.0 134:3.0 187:1.0 188:1.0 189:1.0 203:1.0 235:1.0 350:1.0 377:2.0 387:3.0 964:1.0 965:1.0 966:1.0 967:1.0 968:1.0 969:1.0 970:1.0 971:1.0 972:1.0 973:1.0 974:1.0 975:1.0 976:1.0 977:1.0 978:2.0 979:1.0 980:1.0 981:1.0 982:1.0 983:1.0 984:1.0 985:1.0 986:1.0 987:1.0 988:1.0 989:1.0 990:1.0 991:1.0 992:1.0 993:1.0 
27.83932527932259 1:18.0 3:15.0 27:4.0 30:3.0 42:6.0 53:1.0 55:3.0 58:1.0 85:3.0 283:9.0 288:3.0 297:1.0 301:1.0 306:1.0 314:1.0 547:6.0 994:3.0 995:1.0 996:3.0 997:3.0 998:6.0 
-20.58224183207434 1:7.0 27:2.0 28:2.0 74:1.0 78:1.0 79:1.0 80:2.0 89:1.0 108:1.0 185:1.0 187:1.0 234:1.0 238:1.0 315:1.0 317:1.0 324:1.0 325:1.0 999:1.0 1000:1.0 1001:1.0 1002:1.0 1003:1.0 1004:1.0 1005:1.0 1006:1.0 1007:1.0 1008:2.0 1009:1.0 1010:1.0 1011:1.0 1012:1.0 1013:1.0 1014:1.0 1015:1.0 1016:1.0 1017:2.0 1018:1.0 
11.057377742504745 1:7.0 3:2.0 9:1.0 27:6.0 28:3.0 31:3.0 32:3.0 33:6.0 37:3.0 38:6.0 39:2.0 40:1.0 47:6.0 50:1.0 80:1.0 91:1.0 492:2.0 496:2.0 527:1.0 1019:1.0 1020:1.0 1021:1.0 1022:2.0 1023:2.0 
24.641455575023656 1:9.0 3:5.0 28:1.0 138:1.0 283:2.0 316:2.0 322:2.0 323:1.0 332:2.0 333:1.0 582:2.0 585:1.0 919:1.0 1024:1.0 1025:1.0 1026:1.0 1027:1.0 1028:1.0 1029:1.0 1030:1.0 1031:1.0 1032:1.0 1033:1.0 
-3.547732211858996 1:6.0 2:2.0 3:3.0 4:2.0 5:2.0 10:1.0 11:1.0 12:2.0 21:1.0 27:1.0 29:1.0 30:1.0 34:1.0 42:1.0 172:1.0 173:1.0 184:1.0 533:1.0 631:1.0 632:1.0 664:1.0 665:1.0 666:1.0 682:1.0 1034:1.0 
49.794925028396996 1:3.0 27:1.0 28:2.0 185:2.0 187:1.0 695:2.0 698:2.0 1035:1.0 1036:1.0 1037:1.0 1038:2.0 1039:1.0 1040:1.0 1041:2.0 1042:2.0 
22.204794009372627 1:7.0 3:3.0 9:1.0 13:1.0 27:4.0 28:2.0 31:2.0 32:2.0 33:4.0 37:2.0 38:4.0 39:1.0 40:1.0 41:1.0 47:4.0 49:1.0 50:1.0 80:1.0 91:1.0 491:1.0 492:1.0 493:1.0 494:1.0 496:1.0 765:1.0 1023:1.0 1043:1.0 1044:1.0 
0.008351123228762868 1:22.0 7:2.0 27:5.0 54:1.0 80:5.0 110:1.0 134:5.0 140:1.0 187:3.0 188:2.0 189:2.0 201:1.0 202:1.0 203:2.0 218:1.0 376:1.0 377:1.0 378:3.0 379:1.0 386:2.0 387:2.0 388:1.0 447:1.0 450:1.0 892:2.0 904:1.0 968:1.0 1045:1.0 1046:1.0 1047:1.0 1048:1.0 1049:1.0 1050:1.0 1051:1.0 1052:1.0 1053:1.0 1054:1.0 1055:1.0 1056:1.0 1057:1.0 1058:1.0 1059:2.0 1060:1.0 1061:1.0 1062:1.0 1063:1.0 1064:1.0 1065:1.0 1066:1.0 1067:1.0 1068:1.0 1069:1.0 1070:1.0 1071:1.0 1072:1.0 1073:1.0 1074:1.0 1075:1.0 1076:1.0 1077:1.0 1078:1.0 1079:1.0 1080:1.0 
254.7027459743607 1:6.0 2:1.0 3:4.0 4:1.0 5:1.0 10:1.0 11:1.0 12:1.0 21:1.0 27:2.0 28:1.0 31:1.0 32:1.0 33:2.0 37:1.0 38:2.0 40:1.0 41:1.0 47:2.0 50:1.0 283:1.0 433:1.0 528:1.0 531:1.0 734:1.0 885:1.0 1081:1.0 1082:1.0 
-52.068705630503594 1:10.0 27:6.0 53:1.0 54:2.0 55:2.0 59:2.0 74:2.0 76:1.0 80:2.0 109:2.0 124:2.0 134:1.0 187:2.0 188:2.0 189:2.0 198:2.0 203:2.0 214:2.0 236:1.0 237:1.0 243:1.0 244:2.0 245:1.0 252:2.0 253:2.0 254:1.0 439:2.0 441:2.0 815:1.0 816:1.0 819:1.0 1083:1.0 1084:1.0 1085:1.0 1086:1.0 1087:1.0 1088:1.0 1089:1.0 1090:1.0 1091:1.0 1092:1.0 1093:1.0 1094:1.0 1095:1.0 
-95.7858417895335 1:6.0 2:1.0 3:3.0 4:1.0 5:1.0 12:1.0 27:2.0 28:2.0 31:2.0 33:1.0 41:2.0 137:1.0 281:1.0 498:1.0 500:1.0 528:1.0 609:1.0 611:1.0 612:1.0 741:1.0 742:1.0 743:1.0 744:1.0 745:1.0 746:1.0 749:1.0 750:1.0 751:1.0 1096:1.0 1097:1.0 1098:1.0 1099:1.0 1100:1.0 
23.754680559762267 1:9.0 3:3.0 6:1.0 27:5.0 28:1.0 30:1.0 31:1.0 32:1.0 33:2.0 37:1.0 38:2.0 41:1.0 42:1.0 47:2.0 53:1.0 54:2.0 55:3.0 59:2.0 74:1.0 75:1.0 76:1.0 80:1.0 81:2.0 82:1.0 83:1.0 84:1.0 85:1.0 91:1.0 93:2.0 94:2.0 95:1.0 96:1.0 97:1.0 98:1.0 132:1.0 224:1.0 418:1.0 421:1.0 491:1.0 493:1.0 495:1.0 1101:1.0 1102:1.0 1103:1.0 
37.73513650743875 1:7.0 2:1.0 5:1.0 28:5.0 80:2.0 138:3.0 139:1.0 185:2.0 695:2.0 718:2.0 788:2.0 790:2.0 1104:1.0 1105:1.0 1106:2.0 1107:1.0 1108:1.0 1109:1.0 1110:1.0 1111:1.0 1112:1.0 1113:1.0 1114:2.0 1115:2.0 1116:2.0 1117:1.0 1118:2.0 1119:1.0 1120:1.0 
10.547005764652305 1:12.0 3:10.0 28:2.0 31:2.0 41:4.0 283:6.0 287:4.0 288:2.0 1121:2.0 1122:2.0 1123:2.0 1124:2.0 1125:2.0 1126:4.0 
47.784388253609805 1:5.0 27:2.0 80:2.0 134:1.0 187:2.0 376:2.0 388:2.0 1127:2.0 1128:2.0 1129:2.0 1130:2.0 1131:2.0 1132:2.0 
54.7522882190482 1:2.0 28:1.0 185:3.0 234:2.0 238:4.0 
21.733908393230987 1:12.0 27:4.0 53:1.0 55:3.0 58:1.0 80:3.0 109:3.0 134:6.0 140:3.0 297:1.0 301:1.0 306:1.0 314:1.0 447:3.0 448:3.0 450:3.0 451:3.0 1133:3.0 1134:3.0 1135:3.0 1136:3.0 1137:3.0 1138:1.0 
-6.982305026695094 1:10.0 3:4.0 6:1.0 9:1.0 13:1.0 18:1.0 27:4.0 54:2.0 187:2.0 188:2.0 189:2.0 200:2.0 201:2.0 202:2.0 203:2.0 217:2.0 218:2.0 219:2.0 283:2.0 440:2.0 444:2.0 445:2.0 446:2.0 1139:2.0 
-5.070765468808838 1:12.0 3:8.0 74:1.0 283:4.0 316:2.0 322:2.0 332:2.0 636:1.0 637:2.0 640:2.0 641:2.0 647:2.0 648:2.0 1140:1.0 1141:2.0 1142:2.0 1143:1.0 1144:2.0 1145:2.0 
79.06698521790969 1:10.0 3:7.0 27:1.0 29:1.0 30:1.0 34:1.0 42:1.0 223:1.0 232:1.0 283:2.0 316:2.0 322:3.0 323:2.0 332:2.0 333:2.0 1146:1.0 1147:1.0 1148:1.0 1149:1.0 1150:1.0 1151:1.0 1152:1.0 
-22.727654374765358 1:6.0 28:2.0 74:4.0 234:4.0 290:2.0 338:2.0 340:4.0 707:2.0 708:2.0 710:2.0 716:4.0 717:2.0 721:2.0 722:2.0 727:2.0 728:2.0 1153:2.0 1154:2.0 
-24.417518363207183 1:14.0 3:4.0 9:1.0 13:2.0 27:1.0 29:1.0 30:1.0 34:1.0 42:2.0 80:5.0 134:1.0 223:1.0 232:1.0 377:2.0 387:5.0 619:1.0 620:2.0 1155:1.0 1156:1.0 1157:1.0 1158:1.0 1159:1.0 1160:2.0 1161:1.0 1162:1.0 1163:3.0 1164:1.0 1165:2.0 
91.65122513924706 1:4.0 27:2.0 80:2.0 109:1.0 124:1.0 187:1.0 188:1.0 189:1.0 198:1.0 203:1.0 214:1.0 439:2.0 441:1.0 1166:1.0 1167:1.0 1168:1.0 1169:1.0 1170:1.0 
-18.97334713858965 1:4.0 27:1.0 28:2.0 74:1.0 185:1.0 186:1.0 187:1.0 194:1.0 356:1.0 379:1.0 794:1.0 1171:1.0 1172:1.0 1173:1.0 1174:1.0 1175:1.0 1176:1.0 1177:1.0 1178:1.0 1179:1.0 1180:1.0 1181:1.0 1182:1.0 1183:1.0 1184:1.0 1185:1.0 1186:1.0 1187:1.0 
55.881247126602446 1:8.0 27:1.0 80:2.0 109:2.0 134:4.0 140:2.0 188:1.0 447:2.0 448:2.0 449:2.0 450:2.0 451:2.0 452:2.0 931:1.0 1188:2.0 1189:1.0 
-4.82795998877833 1:8.0 3:2.0 9:1.0 27:5.0 28:3.0 31:2.0 32:2.0 33:4.0 37:2.0 38:4.0 39:1.0 40:1.0 47:4.0 50:1.0 80:1.0 91:1.0 137:1.0 186:1.0 187:1.0 194:1.0 404:1.0 417:1.0 419:1.0 428:1.0 492:1.0 496:1.0 520:1.0 748:1.0 1023:1.0 1190:1.0 1191:1.0 1192:1.0 1193:1.0 1194:1.0 1195:1.0 1196:1.0 1197:1.0 1198:1.0 
153.6669214130354 1:6.0 7:1.0 27:2.0 29:2.0 80:2.0 109:1.0 110:1.0 134:1.0 140:1.0 512:1.0 855:1.0 1199:1.0 1200:1.0 1201:1.0 1202:1.0 1203:1.0 1204:1.0 1205:1.0 1206:1.0 1207:1.0 1208:1.0 1209:1.0 1210:1.0 1211:1.0 
40.36448633896851 1:7.0 3:4.0 27:2.0 29:1.0 30:2.0 34:1.0 42:2.0 54:1.0 188:1.0 202:1.0 223:1.0 232:1.0 283:1.0 549:1.0 552:1.0 810:1.0 811:1.0 882:1.0 1212:1.0 1213:1.0 1214:1.0 1215:1.0 1216:1.0 1217:1.0 
67.48651358057779 1:2.0 2:2.0 5:2.0 1218:2.0 1219:4.0 1220:2.0 1221:2.0 
0.0036016549960891557 1:16.0 3:10.0 6:2.0 9:1.0 13:2.0 18:2.0 283:4.0 316:2.0 322:2.0 323:1.0 333:2.0 417:1.0 446:2.0 1222:1.0 1223:1.0 1224:1.0 1225:1.0 1226:1.0 1227:2.0 1228:2.0 1229:2.0 1230:1.0 1231:2.0 1232:1.0 1233:1.0 1234:1.0 
-0.3508099075121943 1:13.0 3:9.0 28:1.0 138:1.0 283:4.0 316:2.0 322:2.0 332:2.0 477:2.0 478:2.0 479:2.0 480:1.0 482:2.0 483:2.0 583:2.0 587:2.0 1235:1.0 1236:2.0 1237:1.0 1238:2.0 1239:1.0 
-7.524345870077672 1:8.0 3:4.0 27:5.0 28:1.0 30:1.0 31:1.0 32:1.0 33:2.0 37:1.0 38:2.0 40:1.0 41:2.0 42:2.0 47:2.0 50:1.0 51:2.0 53:1.0 54:2.0 55:3.0 59:2.0 74:1.0 75:1.0 76:1.0 81:2.0 82:1.0 83:1.0 84:1.0 85:1.0 93:2.0 94:2.0 95:1.0 96:1.0 97:1.0 131:1.0 132:2.0 133:1.0 
-11.214440327739746 1:7.0 27:2.0 53:1.0 55:2.0 74:3.0 76:1.0 78:1.0 80:3.0 109:2.0 124:2.0 125:2.0 127:2.0 235:1.0 236:1.0 237:1.0 243:1.0 245:1.0 254:1.0 357:1.0 1240:1.0 1241:2.0 1242:1.0 1243:1.0 1244:1.0 1245:1.0 1246:2.0 1247:2.0 1248:1.0 1249:1.0 1250:1.0 1251:1.0 1252:1.0 1253:1.0 
-74.83468396590327 1:10.0 3:4.0 27:6.0 28:1.0 30:1.0 31:1.0 32:1.0 33:2.0 37:1.0 38:2.0 40:1.0 41:2.0 42:2.0 47:2.0 50:1.0 51:2.0 53:1.0 55:3.0 58:1.0 80:2.0 85:1.0 109:2.0 124:2.0 125:2.0 127:2.0 132:2.0 133:1.0 297:1.0 301:1.0 306:1.0 314:1.0 994:1.0 996:1.0 997:1.0 1134:2.0 1254:2.0 1255:2.0 1256:1.0 
-5.848412265287935 1:12.0 3:1.0 7:1.0 27:3.0 28:2.0 53:1.0 55:3.0 74:1.0 75:1.0 76:1.0 80:5.0 82:1.0 83:1.0 96:1.0 109:2.0 124:2.0 125:2.0 126:2.0 127:2.0 128:2.0 129:2.0 135:1.0 138:2.0 512:2.0 1257:1.0 1258:1.0 1259:1.0 1260:1.0 1261:1.0 1262:1.0 1263:1.0 1264:1.0 1265:1.0 1266:1.0 1267:1.0 1268:1.0 1269:1.0 1270:1.0 1271:1.0 1272:1.0 1273:1.0 1274:2.0 1275:1.0 1276:1.0 1277:1.0 1278:1.0 
46.457098942445114 1:12.0 2:3.0 3:3.0 4:2.0 5:3.0 9:1.0 10:1.0 11:1.0 12:2.0 13:1.0 19:1.0 21:1.0 27:4.0 53:1.0 55:3.0 58:1.0 80:2.0 109:2.0 124:2.0 125:2.0 127:2.0 172:1.0 222:1.0 228:1.0 297:1.0 301:1.0 306:1.0 314:1.0 533:1.0 1134:2.0 1218:1.0 1220:1.0 1254:2.0 1255:2.0 1279:1.0 1280:1.0 1281:1.0 1282:1.0 1283:1.0 1284:1.0 1285:1.0 1286:1.0 1287:1.0 1288:1.0 1289:1.0 1290:1.0 1291:1.0 1292:1.0 
-47.40968222384573 1:3.0 27:1.0 28:2.0 74:1.0 185:2.0 186:1.0 187:1.0 194:1.0 290:1.0 294:1.0 296:1.0 695:1.0 696:1.0 697:1.0 699:1.0 1293:1.0 1294:1.0 1295:1.0 1296:1.0 1297:1.0 1298:1.0 1299:1.0 1300:1.0 1301:1.0 
23.678555390184354 1:8.0 3:5.0 9:1.0 13:2.0 27:1.0 28:1.0 74:1.0 186:1.0 187:1.0 194:1.0 283:3.0 288:1.0 290:1.0 446:2.0 794:1.0 795:1.0 798:1.0 799:1.0 804:1.0 1302:1.0 1303:1.0 1304:1.0 1305:1.0 1306:1.0 1307:1.0 1308:1.0 1309:1.0 1310:2.0 
-33.485090393113516 1:3.0 28:2.0 74:1.0 185:2.0 234:2.0 238:2.0 290:1.0 294:1.0 296:1.0 696:2.0 699:1.0 1311:2.0 1312:2.0 1313:2.0 
-51.28062009817512 1:7.0 3:2.0 9:1.0 27:5.0 28:2.0 29:1.0 30:1.0 31:2.0 32:2.0 33:4.0 34:1.0 36:1.0 37:2.0 38:4.0 39:1.0 40:1.0 46:1.0 47:4.0 48:1.0 50:1.0 80:1.0 91:1.0 510:1.0 511:1.0 518:1.0 519:1.0 520:1.0 652:1.0 653:1.0 1314:1.0 1315:1.0 1316:1.0 
-19.33807655078195 1:7.0 3:4.0 27:1.0 28:1.0 30:1.0 31:1.0 41:1.0 42:1.0 54:1.0 137:1.0 188:1.0 195:1.0 202:1.0 281:1.0 282:1.0 283:1.0 284:1.0 286:1.0 549:1.0 552:1.0 810:1.0 811:1.0 1217:1.0 1317:1.0 1318:1.0 1319:1.0 1320:1.0 
64.95524202536281 1:3.0 2:2.0 5:2.0 379:1.0 839:1.0 840:1.0 1218:1.0 1220:1.0 1321:2.0 1322:1.0 1323:1.0 1324:1.0 1325:1.0 1326:1.0 1327:1.0 
11.403268933723792 1:3.0 28:1.0 74:1.0 80:1.0 290:1.0 695:1.0 718:1.0 794:1.0 795:1.0 798:1.0 799:1.0 804:1.0 1328:1.0 1329:2.0 1330:1.0 1331:1.0 1332:1.0 
136.6788898653073 1:6.0 2:2.0 3:3.0 4:2.0 5:2.0 10:1.0 11:1.0 12:2.0 21:1.0 28:1.0 31:1.0 41:1.0 137:1.0 172:1.0 281:1.0 498:1.0 500:1.0 533:1.0 534:1.0 537:1.0 609:1.0 611:1.0 612:1.0 1333:1.0 1334:1.0 
-21.70676412288008 1:2.0 28:1.0 74:1.0 234:1.0 290:1.0 794:1.0 795:1.0 798:2.0 799:1.0 804:1.0 1335:1.0 1336:2.0 1337:1.0 
15.56387864565801 1:8.0 3:3.0 6:1.0 9:1.0 13:1.0 18:1.0 27:1.0 29:1.0 30:1.0 34:1.0 80:2.0 91:2.0 283:1.0 652:2.0 653:2.0 656:2.0 1338:1.0 1339:2.0 1340:1.0 1341:1.0 1342:1.0 
1.2699500826233843 1:8.0 3:4.0 9:1.0 13:1.0 28:1.0 31:1.0 41:1.0 80:1.0 134:1.0 137:1.0 140:1.0 281:1.0 283:2.0 287:1.0 446:1.0 663:1.0 767:1.0 769:1.0 1343:1.0 1344:1.0 1345:1.0 1346:1.0 1347:1.0 1348:1.0 1349:1.0 
-134.98936463106844 1:8.0 3:4.0 9:1.0 13:2.0 28:1.0 31:1.0 41:2.0 80:1.0 134:1.0 137:1.0 140:1.0 281:1.0 282:1.0 284:1.0 285:1.0 767:1.0 768:1.0 769:1.0 770:1.0 771:1.0 1350:2.0 1351:2.0 
12.733863137825704 1:5.0 28:1.0 74:1.0 80:1.0 134:2.0 140:1.0 290:1.0 447:1.0 450:1.0 695:1.0 794:1.0 795:1.0 798:1.0 799:1.0 804:1.0 898:1.0 900:1.0 1329:1.0 1332:1.0 1352:1.0 1353:1.0 1354:1.0 1355:1.0 
4.839279315960077 1:2.0 346:3.0 348:3.0 1356:1.0 1357:1.0 1358:1.0 1359:2.0 1360:2.0 1361:2.0 1362:1.0 1363:2.0 
-20.61484719297024 1:2.0 28:2.0 74:1.0 137:1.0 185:1.0 234:1.0 238:1.0 290:1.0 294:1.0 295:1.0 296:1.0 805:2.0 806:1.0 809:1.0 1311:2.0 1312:1.0 
-30.261824346946756 1:7.0 3:3.0 6:1.0 18:1.0 27:4.0 28:2.0 31:2.0 33:2.0 41:1.0 80:1.0 91:1.0 283:1.0 426:1.0 491:1.0 493:1.0 497:1.0 741:2.0 742:2.0 743:2.0 744:2.0 745:2.0 750:2.0 751:2.0 1364:1.0 1365:1.0 1366:1.0 1367:1.0 1368:1.0 1369:1.0 1370:1.0 1371:1.0 
-46.93721042203557 1:6.0 2:3.0 3:2.0 4:3.0 5:3.0 12:3.0 27:1.0 29:1.0 30:1.0 34:1.0 170:1.0 171:2.0 179:1.0 181:2.0 223:1.0 232:1.0 680:2.0 1372:1.0 1373:2.0 1374:2.0 1375:1.0 
-316.2277660168379 1:6.0 2:2.0 3:3.0 4:2.0 5:2.0 10:1.0 11:1.0 12:2.0 21:1.0 27:2.0 28:1.0 31:1.0 32:1.0 33:2.0 37:1.0 38:2.0 41:1.0 47:2.0 172:1.0 498:1.0 499:1.0 500:1.0 502:1.0 503:1.0 533:1.0 534:1.0 535:1.0 536:1.0 537:1.0 
-89.56797820963806 1:6.0 2:2.0 3:3.0 4:2.0 5:2.0 11:2.0 12:2.0 21:2.0 27:2.0 28:1.0 31:1.0 32:1.0 33:2.0 37:1.0 38:2.0 40:1.0 47:2.0 50:1.0 172:1.0 528:2.0 1081:2.0 1376:1.0 1377:2.0 1378:1.0 
-14.628098860010198 1:8.0 3:5.0 9:1.0 13:2.0 28:1.0 74:1.0 283:3.0 288:1.0 290:1.0 446:2.0 695:1.0 794:1.0 795:1.0 798:1.0 799:1.0 804:1.0 1329:1.0 1332:1.0 1379:1.0 1380:1.0 1381:1.0 1382:1.0 1383:1.0 1384:2.0 
-87.82872254193308 1:3.0 28:2.0 74:1.0 80:1.0 137:1.0 185:1.0 290:1.0 294:1.0 295:1.0 296:1.0 695:1.0 697:2.0 718:1.0 788:1.0 790:1.0 805:1.0 806:1.0 809:1.0 820:1.0 1385:1.0 
135.25135980265208 1:6.0 2:2.0 3:3.0 4:2.0 5:2.0 11:2.0 12:2.0 21:2.0 28:1.0 31:1.0 137:1.0 172:1.0 281:1.0 282:1.0 284:1.0 528:2.0 884:2.0 1377:2.0 1378:1.0 1386:1.0 
113.87844264074155 1:2.0 2:4.0 5:4.0 8:1.0 17:3.0 839:1.0 840:1.0 1387:2.0 1388:2.0 1389:1.0 1390:3.0 
-0.6435670811169782 1:5.0 27:1.0 28:2.0 187:1.0 234:4.0 338:2.0 340:4.0 1035:1.0 1036:1.0 1391:2.0 1392:2.0 1393:4.0 1394:2.0 1395:1.0 
-87.16690103793077 1:6.0 2:3.0 3:2.0 4:3.0 5:3.0 10:1.0 12:3.0 28:1.0 31:1.0 41:1.0 137:1.0 170:1.0 171:1.0 179:1.0 181:1.0 281:1.0 609:1.0 611:1.0 674:1.0 1334:1.0 1396:1.0 1397:1.0 1398:1.0 1399:1.0 1400:1.0 1401:1.0 
37.235307232312906 1:6.0 2:4.0 3:1.0 4:4.0 5:4.0 12:4.0 28:1.0 31:1.0 137:1.0 170:2.0 171:1.0 179:2.0 181:1.0 281:1.0 528:1.0 609:1.0 611:1.0 1396:1.0 1400:1.0 1401:1.0 1402:1.0 1403:1.0 1404:1.0 1405:1.0 1406:1.0 
-17.03756843955489 1:6.0 2:3.0 3:2.0 4:3.0 5:3.0 12:3.0 28:1.0 31:1.0 137:1.0 171:2.0 172:1.0 181:2.0 281:1.0 498:1.0 500:1.0 528:1.0 609:1.0 611:1.0 672:1.0 676:1.0 683:1.0 1333:1.0 1403:1.0 1407:1.0 
12.253059745627322 1:6.0 27:1.0 28:3.0 53:1.0 58:1.0 234:6.0 1408:3.0 1409:1.0 1410:6.0 1411:3.0 1412:2.0 1413:1.0 1414:6.0 1415:3.0 1416:1.0 
8.500693353078312 1:4.0 27:7.0 28:2.0 33:2.0 108:2.0 109:4.0 188:1.0 742:2.0 931:1.0 1417:2.0 1418:2.0 1419:2.0 1420:2.0 1421:2.0 1422:2.0 1423:2.0 1424:2.0 1425:2.0 1426:2.0 1427:2.0 1428:2.0 1429:2.0 1430:1.0 
4.680747875647946 1:11.0 3:4.0 9:1.0 13:1.0 18:1.0 27:4.0 28:1.0 53:1.0 54:2.0 55:2.0 59:2.0 74:2.0 76:1.0 186:2.0 187:2.0 194:2.0 236:1.0 237:1.0 243:1.0 244:2.0 245:1.0 252:2.0 253:2.0 254:1.0 283:2.0 338:1.0 417:1.0 446:2.0 1190:1.0 1431:1.0 1432:1.0 1433:1.0 1434:1.0 1435:2.0 1436:1.0 1437:1.0 1438:1.0 1439:1.0 1440:1.0 1441:2.0 1442:2.0 1443:2.0 1444:2.0 
7.649478795708325 1:9.0 27:1.0 28:1.0 74:1.0 78:1.0 80:3.0 134:2.0 140:2.0 187:1.0 235:1.0 338:1.0 357:1.0 695:2.0 1245:1.0 1253:1.0 1445:1.0 1446:1.0 1447:1.0 1448:1.0 1449:2.0 1450:2.0 1451:1.0 1452:1.0 1453:1.0 1454:1.0 1455:2.0 1456:2.0 1457:2.0 1458:1.0 1459:1.0 
33.769824519778524 1:11.0 2:1.0 3:4.0 4:1.0 5:1.0 10:2.0 11:1.0 12:1.0 20:1.0 21:1.0 27:2.0 53:1.0 55:2.0 74:3.0 76:1.0 77:1.0 78:1.0 80:2.0 86:2.0 109:2.0 124:2.0 125:2.0 127:2.0 236:1.0 237:1.0 243:1.0 245:1.0 254:1.0 1240:1.0 1241:2.0 1242:1.0 1243:1.0 1246:2.0 1247:2.0 1248:1.0 1249:1.0 1460:1.0 1461:1.0 1462:1.0 1463:1.0 1464:1.0 1465:2.0 1466:2.0 
2.6929311504075635 1:8.0 3:4.0 18:1.0 27:2.0 74:1.0 77:1.0 86:1.0 283:2.0 379:1.0 417:1.0 446:1.0 952:2.0 1467:1.0 1468:1.0 1469:2.0 1470:1.0 1471:1.0 1472:1.0 1473:1.0 1474:1.0 1475:2.0 1476:1.0 1477:1.0 1478:1.0 1479:1.0 1480:1.0 1481:1.0 1482:1.0 1483:1.0 
32.969370440238094 1:11.0 3:5.0 9:1.0 13:1.0 28:1.0 80:2.0 91:1.0 138:1.0 316:1.0 322:1.0 477:1.0 478:1.0 479:1.0 583:1.0 735:1.0 736:1.0 1265:1.0 1266:1.0 1277:1.0 1484:1.0 1485:1.0 1486:1.0 1487:1.0 1488:1.0 1489:1.0 1490:1.0 1491:1.0 1492:1.0 1493:1.0 1494:1.0 1495:1.0 1496:1.0 1497:1.0 
32.09755864128337 1:6.0 2:4.0 3:1.0 4:4.0 5:4.0 12:4.0 27:1.0 29:1.0 30:1.0 34:1.0 168:1.0 169:2.0 171:2.0 172:1.0 174:1.0 177:2.0 181:2.0 488:1.0 1498:2.0 1499:2.0 1500:1.0 
-20.910192369622873 1:10.0 3:5.0 27:1.0 53:1.0 55:1.0 74:2.0 76:1.0 77:1.0 80:2.0 86:2.0 109:1.0 124:1.0 125:1.0 127:1.0 236:1.0 283:3.0 288:1.0 1479:2.0 1501:1.0 1502:1.0 1503:1.0 1504:1.0 1505:1.0 1506:1.0 1507:1.0 1508:1.0 1509:1.0 1510:1.0 1511:1.0 1512:1.0 1513:1.0 1514:1.0 1515:2.0 1516:1.0 1517:1.0 1518:1.0 
-3.4802416388168282 1:8.0 28:5.0 74:1.0 78:1.0 79:1.0 80:2.0 89:1.0 138:3.0 139:1.0 185:2.0 695:2.0 718:2.0 788:2.0 790:2.0 1104:1.0 1106:2.0 1107:1.0 1109:1.0 1114:2.0 1115:2.0 1117:1.0 1519:1.0 1520:2.0 1521:1.0 1522:1.0 1523:1.0 1524:2.0 1525:2.0 1526:1.0 1527:1.0 1528:1.0 
5.5761992406275045 1:12.0 3:8.0 9:2.0 13:2.0 27:2.0 74:1.0 77:2.0 86:2.0 283:4.0 446:2.0 952:2.0 1467:1.0 1469:2.0 1478:2.0 1479:2.0 1529:2.0 1530:2.0 1531:1.0 1532:2.0 1533:2.0 1534:2.0 1535:1.0 1536:2.0 
14.485717385650547 1:10.0 2:7.0 5:7.0 7:2.0 27:1.0 110:2.0 163:1.0 164:1.0 188:1.0 256:2.0 257:2.0 258:1.0 259:2.0 260:2.0 261:2.0 262:2.0 266:1.0 267:1.0 268:1.0 269:2.0 270:2.0 271:2.0 273:2.0 279:1.0 280:2.0 1537:1.0 1538:1.0 1539:1.0 1540:1.0 1541:1.0 1542:1.0 1543:1.0 1544:1.0 1545:1.0 1546:1.0 1547:1.0 1548:1.0 1549:1.0 
14.287677790491173 1:5.0 28:2.0 74:1.0 80:1.0 134:2.0 137:1.0 140:1.0 185:1.0 290:1.0 294:1.0 295:1.0 296:1.0 447:1.0 450:1.0 695:1.0 697:1.0 805:1.0 806:1.0 809:1.0 898:1.0 899:1.0 900:1.0 901:1.0 902:1.0 1385:1.0 1550:1.0 
-13.44638528119112 1:12.0 3:3.0 6:1.0 18:1.0 27:3.0 28:1.0 30:2.0 42:1.0 80:2.0 134:1.0 185:1.0 187:1.0 188:2.0 234:1.0 238:1.0 283:1.0 315:1.0 317:1.0 318:1.0 319:1.0 324:1.0 325:1.0 326:1.0 327:1.0 337:1.0 559:1.0 566:1.0 883:1.0 944:1.0 1551:1.0 1552:1.0 1553:1.0 1554:1.0 1555:2.0 1556:1.0 1557:1.0 1558:1.0 1559:1.0 1560:1.0 1561:1.0 1562:2.0 1563:1.0 1564:1.0 1565:1.0 
-86.94187520428041 1:7.0 2:1.0 3:3.0 4:1.0 5:1.0 9:1.0 10:1.0 11:1.0 12:1.0 21:1.0 27:1.0 29:1.0 30:1.0 34:1.0 42:1.0 80:1.0 91:1.0 538:1.0 541:1.0 610:1.0 632:1.0 652:1.0 653:1.0 655:1.0 1566:1.0 1567:1.0 1568:1.0 1569:1.0 
-25.043490713698688 1:7.0 2:2.0 3:2.0 4:2.0 5:2.0 9:1.0 11:1.0 12:2.0 21:1.0 27:1.0 29:1.0 30:1.0 34:1.0 80:1.0 91:1.0 172:1.0 173:1.0 184:1.0 610:1.0 631:1.0 652:1.0 653:1.0 1569:1.0 1570:1.0 1571:1.0 1572:1.0 1573:1.0 1574:1.0 1575:1.0 
9.000896248535755 1:13.0 3:2.0 6:1.0 27:4.0 28:3.0 31:3.0 32:2.0 33:4.0 37:2.0 38:4.0 47:4.0 80:2.0 134:2.0 140:2.0 338:1.0 511:1.0 695:2.0 748:1.0 1449:2.0 1450:2.0 1456:2.0 1457:2.0 1576:3.0 1577:1.0 1578:3.0 1579:1.0 1580:1.0 1581:2.0 1582:1.0 1583:1.0 1584:3.0 1585:2.0 1586:1.0 1587:1.0 1588:2.0 1589:2.0 1590:2.0 1591:1.0 1592:1.0 1593:3.0 
-22.846101767269015 1:7.0 2:5.0 4:5.0 5:5.0 12:5.0 27:1.0 30:1.0 54:1.0 169:2.0 170:3.0 177:2.0 179:3.0 188:1.0 202:1.0 489:2.0 490:1.0 549:1.0 552:1.0 1594:1.0 1595:1.0 1596:1.0 1597:2.0 
23.265878269815524 1:12.0 2:3.0 3:6.0 4:3.0 5:3.0 11:1.0 12:3.0 21:1.0 27:3.0 28:1.0 30:2.0 31:1.0 32:1.0 33:2.0 37:1.0 38:2.0 40:1.0 41:2.0 42:2.0 47:2.0 50:1.0 51:2.0 133:1.0 172:2.0 173:2.0 184:2.0 188:1.0 631:2.0 810:1.0 813:2.0 1594:1.0 1598:1.0 1599:1.0 1600:2.0 1601:1.0 1602:1.0 1603:1.0 
-5.71176380996427 1:8.0 2:4.0 4:4.0 5:4.0 6:2.0 12:4.0 28:2.0 170:1.0 179:1.0 349:2.0 350:2.0 352:2.0 1604:1.0 1605:2.0 1606:2.0 1607:1.0 1608:1.0 1609:1.0 1610:2.0 1611:1.0 1612:2.0 1613:2.0 1614:2.0 1615:1.0 1616:1.0 1617:1.0 
-33.491052657467385 1:8.0 2:1.0 5:1.0 28:5.0 80:3.0 138:3.0 139:1.0 185:2.0 695:1.0 718:1.0 788:1.0 790:1.0 874:1.0 875:2.0 876:1.0 878:2.0 1104:1.0 1105:1.0 1106:1.0 1107:1.0 1108:1.0 1109:1.0 1110:1.0 1111:1.0 1112:1.0 1113:1.0 1114:1.0 1115:1.0 1116:1.0 1117:1.0 1118:2.0 1119:1.0 1120:1.0 1618:1.0 1619:1.0 1620:1.0 1621:1.0 
21.211912953665017 1:6.0 2:3.0 4:2.0 5:3.0 12:2.0 27:2.0 28:2.0 29:1.0 31:1.0 137:1.0 138:1.0 187:1.0 189:1.0 203:1.0 281:1.0 413:1.0 1484:1.0 1622:1.0 1623:1.0 1624:1.0 1625:1.0 1626:1.0 1627:1.0 1628:1.0 1629:1.0 1630:1.0 1631:1.0 1632:1.0 1633:1.0 1634:1.0 1635:1.0 1636:1.0 1637:1.0 1638:1.0 1639:1.0 1640:1.0 1641:1.0 1642:1.0 1643:1.0 
30.907288107213947 1:15.0 2:1.0 3:8.0 4:1.0 5:1.0 10:2.0 11:1.0 12:1.0 20:1.0 21:1.0 27:2.0 28:2.0 30:2.0 31:1.0 41:2.0 42:4.0 185:1.0 187:1.0 188:1.0 190:1.0 234:2.0 338:1.0 340:2.0 632:2.0 810:2.0 813:2.0 1035:1.0 1036:1.0 1391:1.0 1393:2.0 1598:1.0 1603:2.0 1644:1.0 1645:1.0 1646:1.0 1647:1.0 1648:1.0 1649:1.0 1650:2.0 1651:1.0 1652:2.0 1653:1.0 
55.84408034456 1:7.0 2:2.0 3:3.0 4:2.0 5:2.0 9:1.0 10:2.0 12:2.0 27:1.0 28:1.0 137:1.0 186:1.0 187:1.0 194:1.0 222:2.0 228:2.0 283:1.0 404:1.0 434:2.0 1191:1.0 1197:1.0 1198:1.0 1654:1.0 1655:1.0 1656:1.0 1657:2.0 1658:1.0 
13.192113155615035 1:12.0 2:1.0 3:9.0 4:1.0 5:1.0 9:1.0 10:1.0 12:1.0 13:2.0 18:1.0 144:1.0 283:5.0 288:1.0 417:1.0 430:1.0 434:1.0 436:1.0 446:3.0 505:1.0 580:2.0 1659:1.0 1660:1.0 1661:1.0 1662:1.0 1663:1.0 
-8.447364365473268 1:12.0 2:1.0 3:9.0 4:1.0 5:1.0 9:1.0 10:1.0 11:1.0 12:1.0 13:2.0 18:1.0 21:1.0 144:2.0 283:4.0 288:1.0 417:1.0 446:2.0 580:3.0 615:1.0 618:1.0 885:1.0 1568:1.0 1664:1.0 1665:1.0 1666:1.0 
-47.44120552436762 1:12.0 2:1.0 3:9.0 4:1.0 5:1.0 6:1.0 9:1.0 10:2.0 11:1.0 12:1.0 13:3.0 18:1.0 19:2.0 20:1.0 21:1.0 144:2.0 156:2.0 283:3.0 288:1.0 446:2.0 580:2.0 618:2.0 
-72.54051958059463 1:9.0 3:5.0 9:1.0 13:2.0 28:1.0 74:1.0 134:1.0 283:3.0 288:1.0 290:1.0 446:2.0 695:1.0 768:1.0 772:2.0 794:1.0 795:1.0 798:1.0 799:1.0 804:1.0 1329:1.0 1332:1.0 1352:1.0 1355:1.0 1667:1.0 1668:1.0 1669:1.0 1670:1.0 
28.163183158978295 1:12.0 2:4.0 3:6.0 4:4.0 5:4.0 6:1.0 9:1.0 10:2.0 11:2.0 12:4.0 13:1.0 18:1.0 19:2.0 21:2.0 172:2.0 222:2.0 228:2.0 533:2.0 1289:2.0 1659:2.0 1671:2.0 1672:2.0 1673:2.0 
47.67041850445158 1:4.0 28:2.0 74:1.0 185:1.0 234:3.0 238:1.0 290:1.0 294:1.0 296:1.0 338:1.0 340:2.0 1311:1.0 1312:1.0 1674:2.0 1675:1.0 1676:1.0 1677:1.0 1678:2.0 1679:1.0 
-39.629898326706225 1:7.0 2:4.0 4:4.0 5:4.0 12:4.0 27:2.0 29:1.0 30:2.0 34:1.0 54:1.0 169:2.0 170:2.0 177:2.0 179:2.0 188:1.0 202:1.0 489:2.0 549:1.0 552:1.0 1680:1.0 1681:1.0 1682:1.0 1683:1.0 1684:1.0 1685:1.0 1686:1.0 1687:1.0 
7.476212775046366 1:14.0 28:2.0 74:4.0 80:4.0 134:4.0 140:4.0 290:2.0 338:2.0 695:4.0 707:2.0 710:2.0 717:2.0 720:2.0 721:2.0 722:2.0 726:2.0 727:2.0 728:2.0 1449:4.0 1450:4.0 1456:4.0 1457:4.0 1688:4.0 1689:2.0 
12.517129717088025 1:7.0 2:3.0 3:1.0 4:3.0 5:3.0 12:3.0 27:2.0 29:1.0 30:2.0 34:1.0 54:1.0 169:1.0 170:1.0 171:1.0 177:1.0 178:1.0 179:1.0 181:1.0 188:1.0 202:1.0 549:1.0 552:1.0 559:1.0 561:1.0 680:1.0 1374:1.0 1681:1.0 1685:1.0 1686:1.0 1690:1.0 1691:1.0 1692:1.0 
20.93393262889781 1:9.0 3:5.0 28:2.0 31:1.0 41:2.0 74:1.0 80:1.0 185:2.0 190:1.0 283:3.0 287:2.0 288:1.0 290:1.0 294:1.0 296:1.0 695:1.0 696:1.0 697:1.0 699:1.0 718:1.0 783:2.0 784:1.0 785:1.0 786:1.0 788:1.0 790:1.0 820:1.0 821:1.0 1693:1.0 
-12.67393412642469 1:12.0 3:6.0 28:2.0 135:1.0 283:2.0 582:2.0 584:2.0 695:2.0 1484:1.0 1486:2.0 1694:2.0 1695:1.0 1696:2.0 1697:2.0 1698:1.0 1699:2.0 1700:2.0 1701:2.0 1702:2.0 1703:2.0 1704:2.0 1705:2.0 1706:2.0 
9.447049099950275 1:5.0 28:2.0 74:1.0 234:4.0 290:1.0 294:1.0 296:1.0 338:2.0 340:4.0 1675:2.0 1678:4.0 1707:2.0 1708:2.0 1709:1.0 
-10.683516742158325 1:9.0 2:3.0 3:1.0 4:2.0 5:3.0 12:2.0 27:3.0 28:1.0 53:1.0 55:3.0 74:1.0 75:1.0 76:1.0 80:2.0 82:1.0 83:1.0 96:1.0 109:2.0 124:2.0 125:2.0 126:2.0 127:2.0 128:2.0 129:2.0 138:1.0 172:1.0 1257:1.0 1259:1.0 1268:1.0 1622:1.0 1628:1.0 1629:1.0 1641:1.0 1710:1.0 1711:1.0 1712:1.0 1713:1.0 1714:1.0 1715:1.0 1716:1.0 1717:1.0 1718:1.0 1719:1.0 1720:1.0 1721:1.0 1722:1.0 
14.429357586499991 1:6.0 2:2.0 3:3.0 4:2.0 5:2.0 10:1.0 12:2.0 27:2.0 28:1.0 31:1.0 32:1.0 33:2.0 37:1.0 38:2.0 41:1.0 47:2.0 171:1.0 181:1.0 283:1.0 433:1.0 499:1.0 503:1.0 504:1.0 1396:1.0 1401:1.0 1723:1.0 1724:1.0 1725:1.0 1726:1.0 
7.389461630215677 1:4.0 27:2.0 29:2.0 74:2.0 110:2.0 235:2.0 356:2.0 358:2.0 1202:2.0 1727:2.0 1728:2.0 1729:2.0 1730:2.0 1731:2.0 1732:2.0 
-3.3475122315389383 1:14.0 2:4.0 3:8.0 4:2.0 5:4.0 9:2.0 10:4.0 11:2.0 12:2.0 13:4.0 19:4.0 20:2.0 21:2.0 299:1.0 305:2.0 378:1.0 1733:1.0 1734:1.0 1735:2.0 1736:2.0 1737:1.0 1738:1.0 1739:2.0 1740:4.0 
3.018913111803883 1:8.0 27:5.0 53:2.0 55:4.0 74:2.0 75:2.0 76:2.0 80:4.0 83:2.0 109:4.0 124:4.0 125:4.0 126:4.0 127:4.0 128:4.0 1741:1.0 1742:2.0 1743:1.0 1744:4.0 1745:2.0 1746:1.0 1747:2.0 
-9.778100964579604 1:12.0 3:4.0 7:1.0 9:1.0 13:1.0 27:2.0 28:1.0 30:1.0 42:1.0 80:2.0 134:1.0 140:1.0 185:1.0 187:1.0 188:1.0 196:1.0 234:1.0 238:1.0 283:2.0 315:1.0 317:1.0 318:1.0 319:1.0 324:1.0 325:1.0 326:1.0 327:1.0 337:1.0 446:1.0 507:1.0 508:1.0 509:1.0 512:1.0 513:1.0 514:1.0 515:1.0 522:1.0 547:1.0 604:1.0 1748:1.0 1749:1.0 1750:1.0 1751:1.0 
10.297459239511557 1:8.0 3:4.0 28:2.0 31:2.0 41:4.0 74:2.0 290:2.0 794:2.0 795:2.0 796:2.0 797:2.0 798:2.0 799:2.0 800:2.0 801:2.0 803:2.0 804:2.0 1752:4.0 
37.35101164206845 1:8.0 3:5.0 28:2.0 31:1.0 41:2.0 74:1.0 137:1.0 234:1.0 283:3.0 287:2.0 288:1.0 290:1.0 294:1.0 295:1.0 296:1.0 338:1.0 340:1.0 1753:1.0 1754:1.0 1755:1.0 1756:1.0 1757:1.0 1758:1.0 1759:2.0 1760:1.0 1761:1.0 1762:1.0 
-18.01114099487348 1:3.0 28:2.0 74:2.0 78:2.0 350:2.0 964:2.0 972:2.0 973:2.0 987:2.0 1240:1.0 1763:2.0 1764:1.0 1765:2.0 1766:2.0 1767:1.0 
-46.23737687915524 1:3.0 28:2.0 74:1.0 137:1.0 234:2.0 290:1.0 294:1.0 295:1.0 296:1.0 338:1.0 340:2.0 1675:2.0 1678:2.0 1755:2.0 1761:1.0 1762:1.0 
24.160505009096973 1:12.0 2:3.0 3:7.0 4:3.0 5:3.0 9:1.0 10:3.0 11:2.0 12:3.0 13:2.0 18:1.0 19:3.0 20:1.0 21:2.0 144:1.0 156:2.0 172:1.0 417:1.0 430:1.0 436:1.0 533:1.0 1289:1.0 1659:1.0 1662:1.0 1663:1.0 1671:1.0 1673:1.0 
-2.844305612880145 1:4.0 28:2.0 74:4.0 185:2.0 290:2.0 356:2.0 695:2.0 698:2.0 707:2.0 710:2.0 1768:2.0 1769:2.0 1770:2.0 1771:2.0 1772:2.0 1773:2.0 1774:2.0 1775:2.0 
-13.8095368268183 1:9.0 3:4.0 27:2.0 28:3.0 54:1.0 138:2.0 185:1.0 187:1.0 188:1.0 202:1.0 283:2.0 315:1.0 318:1.0 324:1.0 337:1.0 477:2.0 478:2.0 482:2.0 1104:1.0 1107:1.0 1776:1.0 1777:1.0 1778:2.0 1779:2.0 1780:1.0 1781:1.0 1782:1.0 1783:1.0 1784:1.0 1785:2.0 1786:2.0 1787:2.0 
309.67295128656366 1:6.0 2:3.0 3:3.0 4:3.0 5:3.0 10:2.0 12:3.0 170:1.0 171:2.0 179:1.0 181:2.0 283:1.0 1375:1.0 1398:2.0 1658:1.0 1726:2.0 
26.932540737915122 1:6.0 3:1.0 27:8.0 28:3.0 29:2.0 30:2.0 31:3.0 32:3.0 33:6.0 34:2.0 36:2.0 37:3.0 38:6.0 39:1.0 46:2.0 47:6.0 523:2.0 524:2.0 526:2.0 1788:1.0 1789:2.0 1790:1.0 1791:1.0 1792:1.0 
-40.8001086837865 1:7.0 27:2.0 28:3.0 74:2.0 78:2.0 137:2.0 187:2.0 234:2.0 235:2.0 338:1.0 340:2.0 874:1.0 1445:2.0 1446:2.0 1451:2.0 1793:1.0 1794:1.0 1795:2.0 1796:2.0 1797:2.0 1798:2.0 1799:1.0 1800:1.0 1801:2.0 1802:2.0 1803:2.0 1804:2.0 1805:2.0 
-16.716995166647834 1:12.0 2:5.0 3:5.0 4:5.0 5:5.0 9:1.0 12:5.0 13:2.0 144:1.0 170:3.0 179:3.0 283:3.0 288:1.0 417:1.0 446:2.0 490:1.0 580:2.0 1608:2.0 1617:2.0 1806:1.0 1807:2.0 1808:2.0 1809:1.0 1810:1.0 
2.9734163280458756 1:12.0 3:4.0 27:4.0 28:4.0 31:2.0 41:2.0 54:2.0 74:2.0 185:4.0 187:2.0 188:2.0 202:2.0 283:2.0 287:2.0 290:2.0 294:2.0 296:2.0 315:2.0 318:2.0 324:2.0 337:2.0 696:2.0 699:2.0 784:2.0 1776:2.0 1780:2.0 1781:2.0 1811:2.0 1812:2.0 1813:2.0 1814:2.0 1815:2.0 1816:2.0 1817:2.0 1818:2.0 
29.510488634184096 1:15.0 3:4.0 18:2.0 27:1.0 29:1.0 30:1.0 34:1.0 42:2.0 80:1.0 134:8.0 140:1.0 223:1.0 232:1.0 417:1.0 447:1.0 450:1.0 619:1.0 620:2.0 892:6.0 904:1.0 1077:1.0 1819:1.0 1820:1.0 1821:2.0 1822:1.0 1823:1.0 1824:1.0 1825:4.0 
-25.991526164151463 1:6.0 2:4.0 3:1.0 4:4.0 5:4.0 12:4.0 27:1.0 29:1.0 30:1.0 34:1.0 169:1.0 170:2.0 171:1.0 177:1.0 179:2.0 181:1.0 489:1.0 664:1.0 665:1.0 680:1.0 685:1.0 1374:1.0 1405:1.0 1826:1.0 1827:1.0 
-3.4436511691128286 1:15.0 2:2.0 3:8.0 4:2.0 5:2.0 6:1.0 9:1.0 10:4.0 11:2.0 12:2.0 13:3.0 18:1.0 19:4.0 20:2.0 21:2.0 28:5.0 1000:2.0 1121:2.0 1828:2.0 1829:1.0 1830:1.0 1831:2.0 1832:2.0 1833:2.0 1834:2.0 1835:1.0 1836:1.0 1837:4.0 1838:2.0 1839:2.0 1840:2.0 1841:2.0 1842:1.0 1843:1.0 
21.634395679007575 1:12.0 2:1.0 3:4.0 4:1.0 5:1.0 9:1.0 10:2.0 11:1.0 12:1.0 13:2.0 19:2.0 20:1.0 21:1.0 27:1.0 28:1.0 74:1.0 78:1.0 80:2.0 187:1.0 235:1.0 338:1.0 695:2.0 718:2.0 719:2.0 723:2.0 1445:1.0 1446:1.0 1447:1.0 1448:1.0 1451:1.0 1452:1.0 1453:1.0 1844:1.0 1845:1.0 1846:2.0 1847:1.0 1848:1.0 1849:1.0 1850:1.0 1851:2.0 
-47.01486104663794 1:11.0 3:1.0 27:3.0 28:3.0 53:1.0 54:2.0 55:3.0 59:2.0 74:1.0 75:1.0 76:1.0 80:3.0 81:2.0 82:1.0 83:1.0 93:2.0 94:2.0 96:1.0 138:2.0 338:1.0 695:2.0 718:2.0 719:2.0 723:2.0 1104:1.0 1257:1.0 1259:1.0 1260:1.0 1265:1.0 1266:1.0 1267:1.0 1269:1.0 1277:1.0 1278:1.0 1484:1.0 1852:1.0 1853:1.0 1854:1.0 1855:1.0 1856:2.0 1857:1.0 1858:1.0 1859:1.0 1860:1.0 1861:1.0 1862:1.0 1863:1.0 
37.141952284609474 1:12.0 2:4.0 3:6.0 4:4.0 5:4.0 9:1.0 10:2.0 12:4.0 13:1.0 18:1.0 144:2.0 156:2.0 171:4.0 181:4.0 417:1.0 610:1.0 615:2.0 673:2.0 1664:1.0 1864:2.0 1865:2.0 1866:2.0 
-20.127780187836283 1:4.0 28:2.0 74:3.0 290:1.0 338:1.0 695:2.0 707:1.0 710:1.0 717:2.0 721:1.0 722:1.0 728:1.0 794:1.0 1172:1.0 1867:1.0 1868:1.0 1869:1.0 1870:1.0 1871:1.0 1872:1.0 1873:1.0 1874:1.0 1875:1.0 1876:1.0 1877:1.0 1878:1.0 1879:1.0 1880:1.0 
-39.912059324129 1:15.0 3:2.0 6:1.0 7:1.0 14:1.0 27:4.0 28:3.0 31:3.0 32:2.0 33:4.0 37:2.0 38:4.0 47:4.0 80:4.0 134:2.0 140:2.0 338:1.0 511:1.0 512:2.0 695:2.0 729:1.0 730:2.0 731:1.0 748:1.0 1449:2.0 1450:2.0 1456:2.0 1457:2.0 1579:1.0 1580:1.0 1581:2.0 1585:2.0 1586:1.0 1587:1.0 1588:2.0 1589:2.0 1881:2.0 1882:1.0 
-28.047738422995042 1:12.0 2:6.0 3:4.0 4:6.0 5:6.0 9:1.0 12:6.0 171:4.0 172:2.0 181:4.0 222:1.0 228:1.0 417:1.0 430:1.0 436:1.0 610:1.0 683:2.0 1659:2.0 1664:1.0 1671:2.0 1866:2.0 1883:2.0 1884:2.0 1885:2.0 
-34.68190964034254 1:14.0 2:1.0 3:7.0 4:1.0 5:1.0 6:1.0 10:2.0 11:1.0 12:1.0 20:1.0 21:1.0 27:2.0 28:2.0 31:1.0 41:2.0 185:2.0 186:1.0 187:2.0 190:1.0 194:1.0 283:1.0 537:2.0 1035:1.0 1036:1.0 1037:1.0 1039:1.0 1576:2.0 1578:2.0 1645:1.0 1649:1.0 1886:2.0 1887:2.0 1888:1.0 1889:1.0 1890:1.0 1891:1.0 1892:1.0 1893:2.0 1894:1.0 1895:2.0 1896:1.0 1897:1.0 1898:1.0 1899:1.0 1900:1.0 1901:2.0 1902:1.0 1903:1.0 1904:2.0 1905:1.0 
58.146811108463936 1:12.0 2:4.0 3:6.0 4:4.0 5:4.0 9:1.0 10:4.0 11:2.0 12:4.0 21:2.0 222:1.0 228:1.0 417:1.0 430:1.0 436:1.0 610:1.0 678:2.0 1568:2.0 1659:2.0 1660:2.0 1664:1.0 1884:2.0 1906:2.0 1907:2.0 
-31.634384977456996 1:12.0 2:3.0 3:7.0 4:3.0 5:3.0 9:1.0 10:3.0 11:1.0 12:3.0 13:1.0 21:1.0 222:1.0 228:1.0 283:2.0 417:1.0 430:1.0 434:1.0 436:1.0 446:1.0 505:1.0 678:1.0 1568:1.0 1659:2.0 1660:2.0 1661:1.0 1664:1.0 1672:1.0 1884:1.0 1906:1.0 1907:1.0 
4.028038238851964 1:12.0 2:5.0 3:5.0 4:5.0 5:5.0 9:1.0 10:2.0 11:1.0 12:5.0 21:1.0 171:2.0 172:1.0 181:2.0 222:1.0 228:1.0 417:1.0 430:1.0 436:1.0 610:1.0 678:1.0 683:1.0 1568:1.0 1659:2.0 1660:1.0 1664:1.0 1671:1.0 1866:1.0 1883:1.0 1884:2.0 1885:1.0 1906:1.0 1907:1.0 
-62.25036426076005 1:12.0 2:6.0 3:4.0 4:6.0 5:6.0 9:1.0 10:2.0 12:6.0 13:1.0 18:1.0 170:2.0 171:2.0 179:2.0 181:2.0 417:1.0 1398:2.0 1604:1.0 1608:1.0 1611:1.0 1617:1.0 1659:2.0 1673:2.0 1864:2.0 1908:2.0 1909:2.0 1910:2.0 
8.924269839513688 1:25.0 2:1.0 3:12.0 4:1.0 5:1.0 6:2.0 7:1.0 9:1.0 10:1.0 12:1.0 13:2.0 27:3.0 28:1.0 30:2.0 42:3.0 80:2.0 92:1.0 110:1.0 134:1.0 187:1.0 188:2.0 189:1.0 203:1.0 283:4.0 288:1.0 349:1.0 350:1.0 352:1.0 430:1.0 436:1.0 512:2.0 547:2.0 688:1.0 693:1.0 729:1.0 730:2.0 768:1.0 810:2.0 815:1.0 819:1.0 823:1.0 883:1.0 968:1.0 1217:3.0 1598:1.0 1603:1.0 1651:1.0 1911:1.0 1912:1.0 1913:1.0 1914:1.0 1915:1.0 1916:1.0 1917:1.0 1918:1.0 1919:1.0 1920:1.0 1921:1.0 1922:1.0 1923:1.0 1924:1.0 1925:1.0 1926:1.0 1927:1.0 1928:1.0 1929:1.0 1930:1.0 
7.845856222764399 1:22.0 2:2.0 3:9.0 5:2.0 7:2.0 9:1.0 13:1.0 27:3.0 28:1.0 30:2.0 42:3.0 80:2.0 110:1.0 187:1.0 188:2.0 189:1.0 203:1.0 224:1.0 283:4.0 288:1.0 299:1.0 305:2.0 349:1.0 350:1.0 352:1.0 377:1.0 379:1.0 387:2.0 547:2.0 688:1.0 693:1.0 810:2.0 883:1.0 968:1.0 1045:1.0 1046:1.0 1047:1.0 1051:1.0 1058:1.0 1059:2.0 1060:1.0 1068:1.0 1069:1.0 1217:3.0 1598:1.0 1603:1.0 1651:1.0 1911:1.0 1914:1.0 1915:1.0 1916:1.0 1917:1.0 1928:1.0 1929:1.0 1930:1.0 1931:1.0 1932:1.0 1933:1.0 1934:1.0 1935:1.0 1936:1.0 1937:2.0 
35.15693940435578 1:21.0 2:2.0 3:9.0 5:2.0 7:2.0 9:1.0 13:1.0 27:3.0 30:2.0 42:3.0 80:2.0 109:1.0 187:1.0 188:2.0 189:1.0 203:1.0 224:1.0 283:4.0 288:1.0 299:1.0 305:2.0 377:1.0 379:1.0 387:2.0 439:1.0 460:1.0 461:1.0 463:1.0 465:1.0 547:2.0 810:2.0 883:1.0 1045:1.0 1046:1.0 1047:1.0 1051:1.0 1058:1.0 1059:2.0 1060:1.0 1069:1.0 1217:3.0 1598:1.0 1603:1.0 1651:1.0 1915:1.0 1931:1.0 1932:1.0 1934:1.0 1935:1.0 1936:1.0 1937:2.0 1938:1.0 1939:1.0 1940:1.0 1941:1.0 
-19.824002910560417 1:22.0 3:9.0 7:2.0 9:1.0 13:1.0 27:3.0 28:1.0 30:2.0 42:3.0 80:2.0 110:1.0 187:1.0 188:2.0 189:1.0 203:1.0 224:1.0 283:4.0 288:1.0 346:2.0 348:2.0 349:1.0 350:1.0 352:1.0 377:1.0 379:1.0 387:2.0 547:2.0 688:1.0 693:1.0 810:2.0 883:1.0 968:1.0 1045:1.0 1046:1.0 1047:1.0 1051:1.0 1058:1.0 1059:2.0 1060:1.0 1068:1.0 1069:1.0 1217:3.0 1357:1.0 1361:2.0 1598:1.0 1603:1.0 1651:1.0 1911:1.0 1914:1.0 1915:1.0 1916:1.0 1917:1.0 1928:1.0 1929:1.0 1930:1.0 1933:1.0 1942:1.0 1943:1.0 1944:1.0 1945:1.0 1946:1.0 1947:2.0 
-69.42205216936263 1:8.0 27:2.0 28:1.0 80:1.0 109:1.0 134:2.0 140:1.0 185:1.0 187:1.0 188:1.0 315:1.0 318:1.0 324:1.0 337:1.0 447:1.0 450:1.0 695:1.0 898:1.0 899:1.0 900:1.0 901:1.0 1948:1.0 1949:1.0 1950:1.0 1951:1.0 1952:1.0 1953:1.0 1954:1.0 1955:1.0 1956:1.0 1957:1.0 1958:1.0 1959:1.0 1960:1.0 1961:1.0 1962:1.0 1963:1.0 1964:1.0 1965:1.0 
2.685512697092478 1:7.0 2:3.0 3:1.0 4:3.0 5:3.0 12:3.0 27:2.0 29:1.0 30:2.0 34:1.0 54:1.0 169:1.0 170:1.0 171:1.0 177:1.0 178:1.0 179:1.0 181:1.0 188:1.0 202:1.0 549:1.0 552:1.0 560:1.0 564:1.0 680:1.0 1374:1.0 1680:1.0 1682:1.0 1687:1.0 1966:1.0 1967:1.0 1968:1.0 
3.8241244553364915 1:19.0 3:9.0 6:1.0 9:2.0 13:3.0 18:1.0 27:1.0 28:1.0 187:1.0 234:1.0 283:4.0 288:1.0 338:1.0 340:1.0 376:1.0 378:2.0 388:1.0 446:2.0 823:1.0 1171:2.0 1342:1.0 1576:3.0 1577:1.0 1578:3.0 1582:1.0 1583:1.0 1584:3.0 1592:1.0 1593:3.0 1735:2.0 1969:1.0 1970:2.0 1971:2.0 1972:1.0 1973:1.0 1974:1.0 1975:2.0 1976:2.0 1977:1.0 1978:1.0 1979:1.0 1980:1.0 1981:3.0 1982:1.0 1983:1.0 1984:1.0 
-8.8829631714828 1:25.0 2:1.0 3:13.0 4:1.0 5:1.0 7:2.0 9:2.0 10:2.0 11:1.0 12:1.0 13:3.0 14:1.0 19:2.0 20:1.0 21:1.0 22:2.0 27:3.0 28:1.0 30:2.0 42:3.0 80:2.0 110:1.0 187:1.0 188:2.0 189:1.0 203:1.0 224:1.0 283:4.0 288:1.0 349:1.0 350:1.0 352:1.0 512:2.0 547:2.0 688:1.0 693:1.0 810:2.0 883:1.0 968:1.0 1051:1.0 1069:1.0 1217:3.0 1598:1.0 1603:1.0 1651:1.0 1911:1.0 1914:1.0 1915:1.0 1916:1.0 1917:1.0 1928:1.0 1929:1.0 1930:1.0 1933:1.0 1985:1.0 1986:1.0 1987:1.0 1988:1.0 1989:1.0 1990:2.0 1991:1.0 
-36.53276122993576 1:22.0 2:2.0 3:8.0 5:2.0 7:2.0 9:1.0 13:1.0 27:3.0 28:1.0 30:2.0 42:2.0 80:2.0 110:1.0 187:1.0 188:2.0 189:1.0 203:1.0 224:1.0 283:3.0 288:1.0 299:1.0 305:2.0 349:1.0 350:1.0 352:1.0 377:1.0 379:1.0 387:2.0 547:2.0 688:1.0 810:1.0 968:1.0 1045:1.0 1046:1.0 1047:1.0 1051:1.0 1058:1.0 1059:2.0 1060:1.0 1068:1.0 1069:1.0 1217:2.0 1576:1.0 1578:1.0 1598:1.0 1603:1.0 1886:1.0 1887:1.0 1893:1.0 1911:1.0 1914:1.0 1916:1.0 1917:1.0 1928:1.0 1929:1.0 1931:1.0 1932:1.0 1933:1.0 1934:1.0 1935:1.0 1936:1.0 1937:2.0 1992:1.0 1993:1.0 1994:1.0 1995:1.0 1996:1.0 1997:1.0 1998:1.0 1999:1.0 2000:1.0 
15.670424646306907 1:15.0 2:1.0 3:4.0 4:1.0 5:1.0 9:1.0 10:2.0 11:1.0 12:1.0 13:2.0 19:2.0 20:1.0 21:1.0 27:1.0 28:3.0 29:1.0 80:3.0 110:1.0 134:1.0 138:1.0 377:1.0 387:3.0 768:1.0 874:1.0 1202:1.0 1927:2.0 2001:1.0 2002:1.0 2003:2.0 2004:1.0 2005:1.0 2006:1.0 2007:1.0 2008:1.0 2009:1.0 2010:1.0 2011:1.0 2012:1.0 2013:3.0 2014:1.0 2015:1.0 2016:1.0 2017:1.0 2018:1.0 2019:1.0 2020:1.0 2021:1.0 2022:1.0 2023:1.0 2024:1.0 
12.02650889138391 1:23.0 2:1.0 3:9.0 5:1.0 7:2.0 9:1.0 13:1.0 27:3.0 28:1.0 30:2.0 42:3.0 80:2.0 110:1.0 187:1.0 188:2.0 189:1.0 203:1.0 224:1.0 256:1.0 259:1.0 283:4.0 288:1.0 349:1.0 350:1.0 352:1.0 377:1.0 379:1.0 387:2.0 547:2.0 688:1.0 693:1.0 810:2.0 883:1.0 968:1.0 1045:1.0 1046:1.0 1047:1.0 1051:1.0 1058:1.0 1059:2.0 1060:1.0 1068:1.0 1069:1.0 1217:3.0 1576:3.0 1577:1.0 1578:3.0 1584:3.0 1598:1.0 1603:1.0 1651:1.0 1911:1.0 1914:1.0 1915:1.0 1916:1.0 1917:1.0 1928:1.0 1929:1.0 1930:1.0 1933:1.0 2025:1.0 2026:1.0 2027:1.0 2028:1.0 2029:1.0 2030:1.0 2031:1.0 2032:1.0 2033:3.0 
-11.313031368265252 1:1.0 2:4.0 5:4.0 2034:3.0 2035:8.0 
-69.1385358521893 1:2.0 27:1.0 29:1.0 80:1.0 109:3.0 124:2.0 855:2.0 
-80.74236824139327 1:3.0 27:1.0 80:2.0 187:1.0 376:3.0 388:2.0 1127:4.0 
-18.694930654627452 1:1.0 2:3.0 5:3.0 2036:3.0 2037:6.0 
-15.413377347782639 1:2.0 2:6.0 5:6.0 8:2.0 17:6.0 2038:4.0 2039:6.0 
-62.57192933293505 1:3.0 27:1.0 29:1.0 80:1.0 109:1.0 134:1.0 140:1.0 855:1.0 2040:2.0 2041:2.0 2042:1.0 2043:1.0 
-20.715807561926113 1:6.0 2044:6.0 2045:6.0 2046:6.0 
-51.13999232496461 1:1.0 2:2.0 5:2.0 2047:3.0 2048:4.0 
-28.8523757357214 1:2.0 2:5.0 5:5.0 8:1.0 17:3.0 398:1.0 401:2.0 2049:2.0 2050:2.0 2051:3.0 2052:2.0 
-150.27490832698064 1:4.0 7:1.0 27:1.0 29:1.0 80:2.0 109:1.0 512:2.0 855:1.0 1203:2.0 1211:1.0 2053:2.0 2054:2.0 
-112.12769738177023 1:3.0 2:2.0 5:2.0 80:1.0 163:1.0 164:1.0 839:1.0 840:1.0 2055:2.0 2056:2.0 2057:1.0 2058:1.0 2059:1.0 2060:1.0 
-70.1809319485271 1:2.0 2:3.0 5:3.0 398:1.0 401:2.0 839:1.0 840:1.0 2061:2.0 2062:2.0 2063:2.0 2064:1.0 
-134.097133556287 1:2.0 2:3.0 5:3.0 299:1.0 305:2.0 1218:1.0 1220:1.0 2065:2.0 2066:2.0 2067:2.0 2068:1.0 
-16.655351574732435 1:2.0 2:4.0 5:4.0 398:2.0 401:4.0 2069:4.0 2070:4.0 
-185.46223655957098 1:10.0 3:8.0 283:4.0 316:2.0 322:4.0 323:2.0 332:4.0 333:4.0 1150:2.0 
-153.48259643500293 1:8.0 3:4.0 6:1.0 9:1.0 13:1.0 18:1.0 80:2.0 91:2.0 283:2.0 425:2.0 446:2.0 747:2.0 755:2.0 758:2.0 
-316.2277660168379 1:6.0 2:2.0 3:4.0 4:2.0 5:2.0 10:2.0 12:2.0 171:2.0 181:2.0 283:2.0 505:2.0 673:2.0 1726:2.0 
-36.942017558781146 1:3.0 2:3.0 5:3.0 163:1.0 164:1.0 839:2.0 840:2.0 2055:2.0 2058:2.0 2071:2.0 2072:2.0 2073:1.0 
-100.08486406166567 1:12.0 3:9.0 27:1.0 30:2.0 42:4.0 188:1.0 283:3.0 288:1.0 346:1.0 348:1.0 547:2.0 810:2.0 831:1.0 832:2.0 833:1.0 834:1.0 836:2.0 837:1.0 838:1.0 1217:2.0 1598:1.0 1603:2.0 1651:1.0 2074:2.0 
-47.482158382909574 1:12.0 3:10.0 27:1.0 30:2.0 42:4.0 188:1.0 283:6.0 288:2.0 547:4.0 810:2.0 1217:4.0 1598:1.0 1603:2.0 1651:1.0 
-125.38691807377798 1:8.0 3:4.0 6:1.0 9:1.0 13:3.0 18:1.0 80:2.0 91:2.0 735:2.0 736:2.0 762:4.0 763:2.0 
-100.0595911954366 1:6.0 2:2.0 3:4.0 4:2.0 5:2.0 10:4.0 11:2.0 12:2.0 20:2.0 21:2.0 678:4.0 
-49.60745450552036 1:2.0 2:2.0 5:2.0 839:2.0 840:2.0 2075:4.0 2076:2.0 
-50.74339868128943 1:2.0 27:2.0 29:2.0 109:2.0 855:2.0 2077:4.0 2078:2.0 
-79.27574033157121 1:6.0 27:2.0 29:2.0 80:3.0 110:1.0 134:1.0 943:1.0 1202:1.0 1551:1.0 1555:2.0 2079:1.0 2080:1.0 2081:2.0 2082:1.0 2083:2.0 2084:1.0 2085:1.0 2086:1.0 2087:1.0 2088:1.0 
-81.96648212017347 1:8.0 3:4.0 6:1.0 13:1.0 18:1.0 80:2.0 91:2.0 283:1.0 417:1.0 735:2.0 736:2.0 740:2.0 825:2.0 1342:1.0 2089:1.0 2090:1.0 
-299.63507794396156 1:7.0 3:5.0 9:1.0 13:2.0 80:1.0 91:1.0 283:3.0 288:1.0 446:2.0 735:1.0 736:1.0 740:2.0 763:1.0 
41.90366147645649 1:6.0 2:1.0 3:5.0 4:1.0 5:1.0 10:2.0 11:1.0 12:1.0 20:1.0 21:1.0 283:3.0 288:1.0 505:2.0 885:2.0 
-198.52525153516163 1:7.0 27:1.0 29:1.0 80:1.0 109:1.0 134:5.0 140:1.0 447:1.0 448:1.0 450:1.0 855:1.0 892:3.0 904:1.0 1077:1.0 1825:1.0 2041:1.0 2043:1.0 2091:1.0 2092:1.0 2093:1.0 
-204.07679099004096 1:6.0 27:3.0 29:1.0 80:1.0 109:5.0 124:1.0 188:2.0 198:1.0 214:1.0 855:1.0 931:2.0 1423:3.0 1430:1.0 2077:1.0 2078:1.0 2094:1.0 2095:1.0 2096:2.0 2097:1.0 2098:1.0 
133.36633988684977 1:6.0 27:4.0 29:2.0 109:6.0 188:2.0 855:2.0 931:2.0 1423:4.0 1430:2.0 2077:2.0 2078:2.0 2096:2.0 2097:2.0 2098:2.0 
-55.819815501128346 1:2.0 2:3.0 5:3.0 8:1.0 17:3.0 27:1.0 29:1.0 109:1.0 855:1.0 2099:2.0 2100:2.0 2101:1.0 2102:3.0 
-106.31017912100653 1:6.0 2:3.0 3:3.0 4:3.0 5:3.0 10:2.0 11:1.0 12:3.0 21:1.0 171:2.0 172:1.0 181:2.0 533:1.0 673:1.0 678:1.0 683:1.0 2103:1.0 2104:1.0 
-51.43741273038326 1:2.0 2:4.0 5:4.0 299:2.0 305:4.0 2105:4.0 2106:4.0 
-73.00862236383512 1:3.0 2:2.0 5:2.0 134:1.0 839:2.0 840:2.0 2107:2.0 2108:2.0 2109:2.0 2110:2.0 
-237.58524547825363 1:6.0 2:2.0 3:4.0 4:2.0 5:2.0 10:2.0 11:2.0 12:2.0 21:2.0 172:1.0 283:1.0 533:2.0 885:2.0 1378:1.0 1658:1.0 
